solver_type L2R_L2LOSS_SVC
nr_class 5
label 5 2 4 3 1
nr_feature 1000
bias -1
w
-0.08044149582265153 -0.1177646924005929 0.04911485273677133 -0.01756305860350232 -0.2151531161842281 
0.000341977665262283 -0.06413611443278264 -0.05054822354520235 -0.07194132483601541 0.006424216796738448 
-0.04069335266427802 -0.01878204418885432 -0.04038240700715125 -0.03347649375444325 -0.006503631039648444 
0.06473032905583491 -0.2373888620057025 0.0009115650487258866 -0.1668218871224404 -0.3530156840004722 
-0.02836547019779614 -0.004621203745315291 0.007743194754874649 0.00415309185745931 -0.01481207697127507 
-0.01012734505519057 0.02839048135304426 -0.02979313261500481 0.02509323872815312 -0.01252671085988066 
0.01194625244245042 -0.02234403367746729 -0.001987764502610302 -0.01563708492465029 -0.03769218687231531 
-0.01966576217456181 -0.04791678494615922 -0.06246410797303908 -0.06108044013991989 -0.05554711939783463 
-0.0156642147507401 0.02579456859700881 0.01741833382151644 0.009420488307924448 -0.05049807316342664 
-0.04011216144958684 -0.08895414382693738 0.03385754908443896 -0.01755179294555239 -0.2082749648437882 
0.001061893990944546 -0.0152951139731572 -0.008582655537652998 -0.015804649263615 0.009311077225218057 
0.2215057127557749 -0.2279725490962562 -0.1406152035367092 -0.1916868318444434 -0.3355204417621168 
0.1287474320181241 -0.23853217397162 -0.06648242378226285 -0.1789749611293877 -0.347136059026102 
-0.05636159114749157 -0.05380069264176736 0.0796477675761131 0.03998535775010572 -0.1147509049104407 
-0.05122127097529521 0.03536117793452401 -0.02201787619242872 0.01056450381919522 0.04567737579724672 
-0.002686771643596745 0.0157404269543639 -0.01221328097087524 0.001962011718416461 0.05762116302229567 
0.001127788382586294 0.01622201365499574 -0.01290552530760678 -0.005215410733605642 0.0419227244494039 
0.01277917603287359 -0.07507193261494874 -0.003967994176251427 -0.01465488110467615 -0.07968163716191026 
-0.1236661836665633 -0.001017279121601832 0.04146525966445632 0.07581403582168028 -0.121169362941766 
-0.02648635915862934 -0.03181740899168296 -0.0326975957527335 -0.04867738633245248 0.02027382529788081 
0.007894423907048542 0.001183113044353651 -0.01898184844265761 -0.003273678711213896 -0.01011518280593004 
-0.02365767751601965 -0.001599413575861458 -0.000800671793774623 -0.004968615219326332 -0.003635413684582869 
0.07512028878846504 -0.08772275332361804 -0.02571102744857499 -0.08276795079025477 -0.09876335840179599 
-0.003235111996576668 -0.03669210869118367 -0.06732850409736818 -0.07861646450505955 -0.02852786356713239 
-0.02479425524121358 -0.03433534978351946 -0.002603926008301127 -0.02223528931224199 -0.02430920255976987 
-0.007138957290726095 0.006720399386087253 0.01231738044447591 0.01218350333327682 -0.01068213070577922 
0.05893836737743904 -0.180419964065954 -0.01118453709557055 -0.1068949299316925 -0.3070063536389825 
0.01374745781373813 0.004819106560472275 0.01011691238318591 9.423861130717585e-05 0.02614535437629142 
-0.06866790504740213 0.05874653697677758 -0.08317815608233686 -0.01460460499120171 -0.05106819224952636 
0.0009395370507621311 -0.05156478301844233 -0.02427941427410861 -0.01669197518669829 -0.03743592518593312 
0.02589995130553492 -0.003928518318470104 -0.01041807828117675 -0.02383475457876065 0.008106657344506253 
-0.01830880444127448 -0.006519117702731626 0.00415126991074075 0.004388533840408953 -0.009894704502248393 
0.0350047656177554 -0.1486631504329243 0.05510507538702813 -0.09352791949802251 -0.21259108387589 
-0.02443365957286954 -0.008216946238918051 0.01790033957714869 0.006650373109549282 -0.02939382471931406 
-0.01421292006355066 0.01859354148414121 -0.02122246432464702 0.005069507450069271 0.02230037578126011 
0.005476817617671358 0.007006300027805622 -0.03712100872461578 -0.03389721223312808 0.02156637423599849 
-0.04024823533003387 0.04043681598959455 0.01242812496175282 0.0681069603855273 -0.01370544675285251 
0.1009307305294954 -0.3000077731741527 0.02729728250637038 -0.1926331820867654 -0.476665414708641 
0.04450335876472552 -0.03596715167931751 0.02710376265005401 -0.02333933411465033 -0.03729925585307012 
-0.007402824195547519 0.02787979405317566 0.007234524189254984 0.01240998405150298 0.002630601369004468 
-0.0007847179377821424 0.02017267370061875 -0.01274146598851802 0.01534164392887369 0.03200363088527524 
0.03828202232880314 0.006629537126018155 -0.04006519714252929 -0.04285819148730584 0.009561354665588566 
0.02240481970899635 -0.01094471404138462 0.01370953495450468 -0.006641665342271673 -0.02818536002721208 
0.2680699537371397 -0.3221393204451563 -0.1532946932917343 -0.2314898917671736 -0.4558073489130913 
0.003600892272771727 0.005010283867984648 -0.01687036403227317 5.343140346244753e-05 0.002617216615706654 
0.0519313344980703 -0.04072227874075531 -0.01792748922282501 -0.04610708147240334 -0.03820983603065076 
-0.05396889632519107 0.004984364054370227 -0.009694405514651047 0.01581852277631743 0.06281886877250431 
0.0368725267479581 -0.03526231844947037 -0.00958189819292187 -0.04484376836318844 -0.0382346781520051 
0.01358533181193217 -0.05185312672640819 -0.01473554510527549 -0.03298218073112804 0.01550237124006778 
0.01043730549068943 -0.03306511459284308 0.007242863562504706 0.007472386120456892 -0.05933913718693662 
-0.02284213560934142 0.008520421964445898 0.006123705624956002 0.003568474717890963 0.008362322751885165 
-0.01674628454590551 -0.03443472401842219 -0.0109902746270677 -0.03327976045033856 -0.0334656135098535 
0.05049424133083257 -0.1019309187792421 0.006427622924004457 -0.0776278089169368 -0.1265613842654905 
-0.003504193426458776 0.03068601264101575 -0.003380894586718718 0.01570709989768217 0.02699872363997986 
-0.0846158648494523 -0.05724228685038354 0.07827882832265554 0.08744885823256858 -0.1493954614955342 
-0.1456475760468479 -0.006307264439405914 -0.09499286966250507 0.01898713152032529 0.08527221854647105 
-0.01544822904451231 0.02456946070893261 0.01572689156553544 0.02811847804964469 0.02278436691051157 
-0.05288851568942676 -0.04697380085292111 0.02886185534582839 -0.01097691700045953 -0.08162007776208353 
-0.1221769297500036 0.1054765023795674 -0.02389811216889096 0.1095814428719032 0.001016579753182097 
-0.03632245698543634 -0.01260698465427476 -0.02259482550343716 0.00622743921939144 -0.04438349980780894 
-0.04060122882461856 0.005046008338635019 0.01238296478161963 -0.007328443680497126 -0.03633931126518036 
-0.00953158935293566 -0.006776901088095012 0.01373144807832061 0.01538048416194504 -0.05521476256077111 
-0.03751931285782922 -0.0001779100534026975 -0.001389361504303864 0.002537395169605324 -0.01897243626959642 
-0.01647293641775881 -0.004217532173840152 0.0204345880666277 0.03797740975913599 -0.07398853592519317 
-0.03760050703690553 0.01741045345159339 -0.00316651116280554 0.004464573070876941 -0.02529256679756988 
-0.04673179452725493 0.0111832195604431 -0.04844450077449091 -0.0195802700458867 0.04287671891623287 
-0.0115124720937213 0.01504808879100096 0.0008614603657059825 0.009379456202656764 0.008509818779275848 
-0.00542964176387861 -0.0002022068413921187 -0.03191758133655938 -0.02139645191488194 0.01506695259096518 
-0.01023487721855488 -0.001039549939518486 0.0123587473682417 0.009195419496617138 -0.01407770084445586 
-0.04219997970058068 0.05352518291291414 0.0419581210693102 0.006742789243669453 0.03725096646787372 
-0.0250770436374454 -0.001309341268823323 -0.003707015605480697 0.0009282136607919743 -0.01970235499902671 
-0.0819262166345434 -0.009669970588061957 -0.005522814911389085 -0.008174507108208981 -0.02602529112905586 
0.2081358986178465 -0.3265700683996361 -0.06982885956653759 -0.2328165438033822 -0.4590691108828584 
8.770498885277123e-05 -0.02706969229784805 0.02178278622652952 -0.001645464200843843 -0.03419491432580463 
-0.02793384868078583 0.004716535514668403 0.006110855841981156 0.01134396279194326 -0.01341846401318691 
0.08037861127633314 -0.1940469167238026 -0.06021736071970346 -0.1928023730118885 -0.05568184041800701 
0.04953179507188642 -0.08484878454729064 -0.04481507456494566 -0.1168989261346879 -0.1032845899227752 
0.06584988278619133 -0.09554450517135921 0.04204150920791405 -0.0550080309701922 -0.1596401582205354 
-0.0149425978523571 -0.01215670564313657 0.02345483246932138 0.003129849358079918 -0.04753590323366304 
-0.0455448674750331 0.02382844434055214 -0.04452916454260145 -0.01428951376387273 0.05377225127147832 
-0.0003051951934886265 -0.02417413402845715 -0.0234642366081277 -0.04575632310770519 0.03380309790269375 
-0.02012220559563905 -0.006779083201770071 -0.005043762586176693 -0.0005768972117587598 -0.02319086264843605 
-0.02710660898595065 -0.0380445340404875 -0.01579888254229696 -0.0267368746394924 -0.06279262727903927 
-0.0132598740766557 0.007911010891586363 -0.01218605260906632 0.01067947291670273 0.0005744731773582778 
-0.08234859272208213 -0.009583789705962159 -0.05333570720669867 -0.0333872451867677 0.1144508305484459 
-0.1211968649359821 0.01185485532547445 0.04922170018464389 0.1312075767313534 -0.2701515636639894 
0.1727609912397079 -0.237431836188045 -0.0781852465347217 -0.1772970739359216 -0.3455921366484047 
0.04302027586250965 -0.03132114347370427 -0.05349656348094069 -0.04217782028238963 -0.02592918996734953 
0.02984850379707935 0.001450384382183526 -0.01294127359426039 0.01533833241638001 -0.03870440139490177 
-0.01789730284560276 0.0101829559851399 0.00142512852404062 0.006026417451749865 -0.02063950401020257 
-0.01496349435479016 0.06456749534010629 -0.01619473963141546 0.03820395489775828 0.03391983827474955 
0.0142852071883448 -0.02905996420677692 0.01173543642656859 7.875134130042928e-05 -0.04136159043600914 
-0.02796918316686228 -0.0372644496647627 -0.0008673972451265551 -0.005269635271965851 -0.08643129169703022 
-0.03209619754726172 0.00721267699767399 -0.003135457338558205 0.00265058884986086 0.02475276750506404 
0.009722724287380533 0.05403147915782944 0.02045277497883529 0.0529391797429293 -0.02527218640048573 
0.03334485439968116 -0.03915829110424636 -0.01604165192727531 -0.03939422416427273 -0.03771340972593075 
-0.005743661768960479 0.03054843750011555 0.02267746669674957 0.001236157140037309 0.02555428293730215 
0.007001265138033952 -0.01105543268308655 -0.001166639839907302 -0.008581717721695579 0.009453207976787859 
-0.04576535861166045 0.0007776292024292544 0.01968417797554758 0.007476178504287101 -0.02824303249090037 
-0.09752677733006568 0.0108107986025642 -0.02054650028543201 0.01316179045753211 0.04543456344623283 
-0.01383832331999325 -0.008829797833571074 0.008487208479236676 -0.004678227243900575 -0.03057717104531485 
0.03959891032699123 -0.06741810682023075 0.0002075336563605373 -0.02956555296169104 -0.0877979537001628 
0.1570376015652462 -0.3384722049603484 -0.01315418981588017 -0.2216279188793739 -0.4640361950485636 
0.01867819778511043 -0.1288343376829245 -0.00469288610158099 -0.06908085987522314 -0.1721483502937655 
0.04702001239496789 0.02015256510099496 -0.0280094261891124 -0.06763672102141771 -0.006235256983107836 
-0.02107371764252774 0.0622934136365673 -0.03311966496592308 0.008848754402422202 0.08029216640043618 
-0.03091975583503568 -0.047788743027533 -0.02409653895129566 -0.05442750941222147 -0.01444744238647439 
-0.006175161995116883 -0.04548967347896283 -0.01328848740731161 -0.01067094987155471 0.06044587786064599 
0.01710744491125284 -0.0279940505619827 0.004253561966868897 -0.008614831666534723 -0.08230754521690117 
0.07246551562419494 -0.07804417590842952 -0.03021407060304648 -0.05248117741069222 -0.1105081983776642 
0.03784020441828406 0.02848025676950938 0.006954804675449162 -0.007316234766384146 -0.01398476327741228 
-0.01222078193172075 -0.005773973303967377 -0.009870190259253704 -0.01370298114251325 -0.009882224146217804 
0.01553997176873344 0.03521842263760543 0.02429859203157344 0.009704712432652453 0.04066374152155891 
-0.01255872287532427 -0.00506589803709738 0.00876284294906881 -0.007973227258466347 -0.04690928797136231 
-0.007639548342106533 0.009476523192868106 -0.005367317689259906 -0.009524521719906436 0.01651417932479046 
0.005933822532667113 -0.03957518525382902 8.925864058803969e-05 -0.006963992365836587 -0.07156699568257741 
-0.0567259294224076 0.06394285323397636 -0.0007828484162680583 0.1206250147894756 -0.06446454839662462 
-0.0796609628901537 -0.1462008906462596 0.08390077833945464 -0.02104408538806871 -0.3189139774462398 
-0.06023095610460281 -0.07235946938228897 0.02072318022102042 -0.02786756169873951 -0.161735388153516 
-0.0208945040064445 -0.02031048235135416 -0.01244018521875401 -0.0128486070206386 -0.04472357752280001 
0.02561283073267982 -0.0648727197879779 0.03445421178895337 -0.0174516662470019 -0.08530633849648901 
-0.03046957835744161 -0.04796922500331569 0.003510791952878913 -0.02241647757708193 -0.07136325732649582 
-0.01720669375091964 0.03517145232785031 0.007235831770665804 0.03133481022406828 0.06236463333274306 
0.07161329397223221 -0.05585575399101941 -0.05760765961264192 -0.0659051059539673 -0.04661079567862794 
-0.02774271855387405 -0.05668465366916622 -0.02333900883016228 -0.0356062014875113 -0.1381011224885574 
-0.02172148651850455 -0.1620625864552028 0.02963728486594495 -0.06893788660335626 -0.2224980286656277 
-0.02787964164867647 0.1004357705213089 -0.03776915554764975 0.02375430506139333 0.06498161635751074 
0.01552421028217653 0.0073141354634586 -0.01444144759310749 -0.007526866034910073 0.02355085147284816 
-0.05330215098802572 0.06557809400576584 -0.02060241124908018 0.03560590168698894 0.02167168767008778 
-0.02112343992329102 0.01379836613813477 -0.05804417726361909 0.02865450846548927 -0.09644819976038904 
0.1567400087070708 -0.258238980691018 -0.01513231892266051 -0.1617515299846131 -0.3251277636313715 
-0.3077001077494443 0.08969112894921849 -0.1980300332834826 0.1795870274674809 -0.09701049158742134 
-0.001422163772614292 -0.01304783695159051 -0.01393349475388815 -0.0258000016561312 -0.05325328792685351 
-0.02086524261795977 0.0284108912542952 0.0001763967260017647 0.009980865226924472 0.002029866770469011 
-0.005908668867573671 -0.03633099398594251 0.03862090048674809 0.005068629865564846 -0.08960879247480032 
-0.06076579846028501 0.000879123801918276 -0.022840869547519 -0.007640772325107362 0.05043982814160722 
-0.07323541963276346 -0.001384769537530495 0.04893963749074569 0.05214520594646306 -0.08685267555555219 
-0.180697438427512 0.02066914970043993 0.1066198318243207 0.1719825780796262 -0.127524540011218 
-0.009609925362173088 -0.02928259401918263 0.03717669831332424 0.005602213755691842 -0.0714231493978567 
-0.07602968740776961 0.01842136140545442 0.01707673804683459 0.08498087359028021 -0.01931711359226023 
-0.07324896968335115 0.01187714633992305 -0.0736838720976153 -0.03792368418247578 0.1171796399492701 
-0.008509416527721999 0.02351081223769602 0.006062796640767983 0.05994624233551506 -0.07693066010209798 
-0.01426720835243895 -0.006771640178771934 0.0005048131229740075 -0.01049634590427441 -0.01395679864558829 
-0.002073209215152005 0.01469586139718595 0.01190559549056624 0.009939633718422707 0.005036559097123612 
-0.01153972419425976 0.07038361395164999 0.01618185355045186 0.02931355056377907 0.1004387458328046 
-0.006451989527731047 -0.0009275040332173783 0.01475484131781572 0.01047872805215081 -0.02571855716189432 
-0.1067146794866764 0.1179386451395583 -0.04248262017571835 0.08941863659374827 0.03420599035342377 
-0.01676196974760727 -0.02202260446430037 0.007914709305261405 -0.003311886035458868 -0.01176480438418014 
-0.009596205886625953 -0.01601711430378726 -0.007124782609698592 -0.0084452890629283 0.01491317773594571 
0.006432238745040217 -0.007223766736490649 0.0113091611596122 0.007201089989242838 -0.01327812716190182 
-0.01617870970656306 -0.001557401574406588 0.004897908234624928 0.00505603672750931 -0.001004580839187558 
0.02701324227985694 -0.02752223152263936 -0.1062724854654222 -0.07751551236477475 0.09014354589257564 
0.002969260484480015 -0.02216431403987689 0.006224948472178115 -0.01257388466369237 -0.02749264944179033 
-0.0107031938555422 0.03455793426180004 0.01849825574947795 0.04048641283600285 0.02092491025098858 
-0.06542603910728147 0.005635054693462233 -0.005445957607240717 0.01923200746516242 -0.06704402514908696 
0.01911387525909748 0.01046722892349172 0.01030793689497657 0.01851379189246642 0.02269313962717542 
0.03683468292664571 -0.07484314253444656 -0.01743957612039272 -0.06848695106420777 -0.07516619029949911 
0.007618667598330683 -7.009002419149004e-05 0.006290775392793859 -0.01692971938916593 -0.02149159726947226 
0.02281062704506848 -0.01146156733248077 -0.01611418264629454 -0.04149135954117584 0.01388833540679925 
0.03684030342695407 -0.01099729368938969 -0.01450788857665833 -0.02126089748460137 -0.01990496813488355 
-0.05986330868141809 0.0588066992587447 -0.02417569486916827 0.0226827216674058 0.06513698714140795 
0.08466077517091471 -0.2370121825498705 0.01767948577162775 -0.1353810979853094 -0.3524868072482997 
-0.004584538273744287 -0.02743502396307032 -0.00713830665033347 -0.01313510272482309 -0.01701979305958178 
0.006382664722176586 -0.02442429162170951 0.0547238842971712 0.01239006417276269 -0.08479404658808623 
-0.006342740327761278 -0.001794497368491141 0.02700770524067402 0.02553840628544417 -0.02615580308397719 
-0.01596626568390349 -0.008595913401688018 -0.001459069734992583 -0.003350922314709754 -0.01619815833724431 
-0.01636242600483638 -0.002764978700151793 0.02087648968010576 -0.001515029676310761 0.0001706962705441965 
-0.04762163969991384 0.08043150859308366 -0.02917045655934264 0.01587810130939507 0.1396693535994912 
-0.01039920082037442 0.02369448994732542 -0.01247541679763785 -0.007455078491805652 0.03412997339495979 
-0.02749359123525278 -0.08712620003582655 0.02057591174449764 -0.02657718195395123 -0.1834308657093871 
0.01248429232353389 0.02770627798151054 0.01558270180349489 0.02498030469807427 0.007653893753385506 
0.03414142033755721 -0.05727428084680932 -0.03996957063400067 -0.08716037037458943 -0.02016707263862197 
0.03370215651554784 -0.02675525129235573 -0.0007322909922815393 -0.02947046353533061 -0.05248745781606467 
-0.04580335149911462 0.003707999524339868 0.02444984226846451 0.03287884900504921 -0.02352002139399439 
-0.311644702943675 -0.02370298278759872 -0.08033450489182481 0.1845397567702224 -0.171030664183486 
-0.06315026774281034 -0.04287608442794592 -0.01603653010558504 -0.03903921423077021 0.0960956376352074 
-0.01993687544155701 0.01912056878357894 -0.00869107645230918 0.009171968856939341 0.02791992847756261 
0.0082893192728633 0.01406924508815462 -0.02341693652027971 -0.008568620753183978 0.02947353579442864 
0.004556638699557849 -0.02225362402436717 -0.005301889691816916 0.00559491762018267 -0.03420881709588921 
-0.01363977816287555 0.02057844210343245 -0.006444531043114305 0.01438997833351593 0.05975714432402261 
-0.03315664158063249 0.04508199151403237 -0.03282458041267339 0.004168075096256064 0.01499433012391477 
-0.02840482153401645 -0.05954975002402384 0.04245741342614014 -0.02071154275365379 -0.1231002195528168 
-0.005518172728181111 -0.0580416239859863 -0.05810711337908282 -0.05847036913597414 0.05346443082616618 
-0.01392983571954619 -0.1164646508956873 0.01354773910967973 -0.05635550757710274 -0.143122677259289 
-0.009116771243979438 0.002883621081062605 0.008834052498869425 0.02251059004329216 -0.03639109586761226 
-0.02359767166441025 -0.03158087713565307 -0.006883441896639733 -0.007783091725663783 0.02086414461160568 
0.03980472386560119 0.02524456272925105 -0.007180645664186297 -0.01643537300516238 0.06981900081153591 
-0.1400724520983505 -0.03201896462759528 0.07146433432725909 0.005397610188645463 0.06290557856907336 
-0.058249973078464 0.04998448507825303 -0.02061059410138558 0.02421635525189876 0.01336017048012299 
-0.05606349048830926 -0.03618948267479786 0.04591723017417121 -0.00389631436819152 -0.06760745950101738 
-0.08418157282235904 -0.2053127856115688 0.1173145060957834 -0.04597353379559063 -0.3238147171718212 
0.02165610847958961 -0.05834876040153129 -0.02798535441174201 -0.05706394058593232 0.003297730906628498 
0.03894549305784019 -0.007404134320128545 -0.01094267482632583 -0.03666506075962854 -0.01309018888270738 
0.07576760779716024 -0.07837915219976083 -0.05569711642982351 -0.0708578478882169 -0.01264845976519622 
0.0161957108475551 -0.01421765574501674 0.009343040848180342 -0.01525385682306452 -0.03714380905028933 
0.0327895537183317 0.05967744711149326 0.01020902765677792 0.0201772030856004 0.04932889056216442 
-0.08303122813794099 0.02317548374861991 -0.04034588784828995 -0.003272014054932479 0.07204375973967644 
-0.01628043598732424 0.002286273739880566 0.001252936099402652 -0.00882744787242489 0.007904614565101924 
-0.01501801413377752 -0.02023718763015488 -0.01717960948886615 -0.02010208435773456 -0.03350206676017498 
-0.09925616521120059 -0.01398719802328756 -0.1002445095636809 -0.07617736442716144 0.1568831116999939 
0.03242917654976543 0.009325278558256215 0.02080138707132219 0.02852535367515002 -0.03498864589427063 
0.06355864144500716 0.03682078416812337 -0.02794943194228237 -0.05824412067792651 0.09192154992408587 
0.002637113040739276 0.01348764231180722 0.01170431338944497 0.02601036439596011 -0.01264476849274383 
-0.0207615025443014 0.002390841211047922 -0.0005939295306746887 -0.005264516758043569 -0.006498847438530479 
-0.02923838467233508 0.03420864981818468 0.01973824097121476 0.03052573937468311 0.003264134210484642 
0.01918818371672328 -0.05534481470927902 0.02001695440221071 -0.01269393318919389 -0.06378319101848773 
0.03261510629528305 0.001965231555055726 -0.03123995873913223 -0.02320991128544914 0.02825116998023366 
-0.05620886614448868 0.04330209326635064 -0.003990173419053819 -0.005330307313644707 0.0831909324115802 
0.01475808398870445 -0.006307112423454758 -0.01239051900419844 -0.02051124344705152 0.05407097016243654 
-0.01465784729077689 -0.07335191699482226 -0.08127201218549571 -0.088628199433458 0.1226231271313012 
0.0210757541108674 -0.01414087635182562 0.02082773101904402 0.001149199857551787 -0.007555513994345923 
-0.06695175996886661 0.08710423347652302 -0.07773195472637062 -0.01661850292776998 0.1327040219890915 
0.0206407767228738 -0.1411565243220483 0.02251964643277652 -0.07048953605568647 -0.172183926281833 
-0.1006503489153805 0.05047968132565895 -0.02875648301110405 0.00743119991464535 0.03826724576972661 
0.03870924430063517 -0.01878051197878093 0.005110499385394826 -0.01067208899045385 -0.05318801149972562 
0.03462724064206191 -0.09847976333942453 -0.04380443146790769 -0.07562513764641803 -0.05332705792489064 
-0.02301646122266981 0.03820478869077944 -0.01255538878903016 -0.0001697788341139135 0.05818889738992603 
0.03498734289150514 -0.02349191053623276 -0.01785026064551368 -0.02163817527694343 0.08824772919226753 
0.004423067156690367 -0.02286257317417675 0.01472980480477268 -0.02635962232558186 -0.002751553259120807 
-0.02796513830180648 0.00501737956883977 0.03310893311480884 0.02297056861755526 -0.05752622246265073 
0.05058970273484415 -0.06473878190988573 -0.05839574328720339 -0.07374733024544311 0.03620141764839068 
0.04559823340976069 -0.007426000791772355 -0.01097283006974663 -0.05385095974435856 0.03589283078307049 
0.0001262781916050587 -0.03762980365884787 0.001921803172619659 -0.008023377732623047 -0.1208872499757652 
-0.001172367262060223 -0.02975879868534002 -0.002163522652428274 -0.01921537692372877 -0.01533260011614685 
-0.001789085612780104 -0.03521054630744976 -0.0167706804265169 -0.03021973374012359 0.03444936124116908 
-0.04384690602404727 -0.1286598763158229 0.02478818277281916 -0.000997719842875553 -0.2313531559451821 
-0.0724016808021343 0.068462572282441 -0.002191878342605914 0.03884485466781176 0.06746978853590826 
0.05194805926301879 -0.04531142473791092 -0.02692258658864805 -0.05289172217715457 -0.01308482321924975 
0.03423585714262593 -0.05374418440429719 0.01831093832721272 -0.04100197838300849 -0.07399449212513547 
-0.1031604682141842 0.07942577711154049 -0.1663833834211477 -0.07364990650220249 0.05132900433671039 
-0.02581970637686066 -0.006745795148367132 -0.01951658193694605 0.006128237533668873 0.03069218999492665 
-0.04322271006225352 -0.004275605152400683 -0.002682004034930921 -0.02163901331603311 -0.007125451220361233 
-0.05931702962664111 0.003674914172892733 -0.01284349599539028 0.009963131795905106 0.0238090746957919 
0.1946291048947285 -0.3027465550333789 -0.06953424838945797 -0.1978423659487064 -0.4598504287754834 
-0.02101819657731303 0.06330850294593206 -0.1495125409144815 -0.1205471216800064 0.05397680929624542 
-0.01002980555968951 0.01272003787555301 -0.01819071685179685 -0.004159404675408313 0.05097510481290466 
0.02415543594279886 0.009691247159537614 0.00882537677442715 0.00639966877786822 0.01820262069454491 
-0.02501403262476829 0.002422286540997053 0.03908907818624393 0.01111363700070865 -0.01512209996599448 
0.1677811774235014 -0.252873669890656 -0.07381276932027513 -0.1984435862337495 -0.3146107233599394 
0.05174766053601693 -0.007111593712156 0.05347335416837296 -0.01320701338600737 -0.03494051306922052 
-0.002645493877903683 -0.1150286385460349 -0.01432830334686839 -0.04349932607766463 -0.1133392274009036 
-0.03248695778619357 0.01079731123394032 0.03408215824456162 0.02963297245988038 -0.0001022778885916233 
-0.009195425578037212 0.06643976335853591 -0.03570605024574386 0.05940284806410677 0.001387606331614356 
0.01109798862158629 -0.03248296360912264 -0.002356690437782636 -0.02001491019134324 -0.07917755994522215 
0.03009235946120636 -0.006915753477757043 0.0009633481569379678 -0.01656303672685656 -0.0545376105440155 
-0.06933210628971362 -0.04663987169240944 -0.013277617451726 -0.02853854807021818 -0.05108447296712921 
0.007289402262511027 -0.01967370707293901 0.01830612150803403 -0.009103906445587895 0.006993364786592069 
0.01777077206127799 0.004417139291066524 0.003714524477029006 0.00401221947331563 0.04759464371100074 
0.01355923713014483 0.002046706285600884 -0.01584412557632726 -0.01081476298093186 0.03349068271620478 
0.05127358762884749 -0.04768234539369302 0.03013818720743848 -0.01988034573018872 -0.09069852474723709 
0.2476501148301982 -0.1945911211154031 -0.1607146952818343 -0.2035496338900295 -0.2875831098195549 
-0.01703013674053431 0.05408966084940738 -0.003174247498754366 0.01838533828232438 0.02569026640334822 
0.02817091605631653 -0.02095889567287849 -0.01365835888906897 -0.01427151407884074 -0.07520585702620924 
0.01612061129507441 -0.01618205724621365 -0.02889685887840642 -0.01286512322850219 0.04179869069086117 
-0.004391920900891268 0.02029038459343453 -0.001393877880132009 0.0006611430816146982 0.0509629094197195 
0.0621325715774463 -0.06146556598735657 -0.07547361809214617 -0.06308201720680434 -0.04720838067597147 
-0.124892268035711 -0.07905176940276742 0.1225990707122137 -0.0497986788501604 -0.180633700557969 
-0.00804100521685106 -0.018721683188215 -0.003483112523397653 -0.003572466569085768 -0.008757026298478266 
0.03386839595780065 -0.02848461080768886 -0.02049577894287478 -0.04279659400867639 0.01422879967798702 
-0.07943565101318711 -0.06738357572757862 -0.08206410443484284 -0.08327621534970885 0.109741516454296 
-0.03021400869638546 0.01514020842665499 -0.01266412152279066 -0.004068922560889531 0.004505458917784099 
-0.001537792054158692 -0.001703951953663684 -0.02499628200537088 -0.01211428208277168 0.01646833523974179 
0.05078729526684047 -0.002431417258465245 0.02642650899906899 1.760018438666435e-05 -0.000611415265466695 
0.1077920524809489 -0.196416909691679 -0.02287477685658339 -0.1439008148241691 -0.2905136658955031 
0.01478911450423894 0.05507877046194724 0.001247163063487081 0.008093409770569921 0.0576243915140251 
-0.01209107514747708 -0.04554047967078666 -0.03310239981780944 -0.06849205293782606 0.05983001786927293 
0.0307807853501232 -0.03306814199564156 0.02195666876814219 -0.01578585535556373 -0.04451326565462512 
-0.06035435709320212 -0.009678100165802058 -0.07336951756547766 -0.04157201491189395 0.04916180119760152 
-0.04856180984881861 0.02602002902609424 -0.005039527490330582 0.03143620654041016 -0.05814568671008537 
0.04605067488026546 0.006178887186955372 -0.008745071437183102 -0.01728479458254642 0.002570519921855031 
-0.0990283236801551 0.06823636949385316 0.009950948223956139 0.01210552291094449 0.04961018784554901 
-0.0690793178228347 0.05161430136817114 -0.0256140077366194 0.02554606452367358 0.04367692526287994 
-0.03758809875666745 -0.005468126373149799 0.004213787515142106 0.01039707940417872 0.01174846543231767 
0.001431828599737151 0.0468590399260671 0.002250056720842043 0.01363186054978831 0.04640500674598985 
0.002923222383582838 -0.03383955159845201 0.03191554052271908 -0.00958516887192877 -0.07821864618390077 
0.01104388946244615 -0.02452304731434733 0.005009812177193699 -0.018698798252133 0.02748267960139031 
0.05173514892585275 -0.03066396489435018 -0.0263572102680752 -0.07390710706928898 0.03121966291510975 
-0.01766420321608793 -0.01500003244378119 0.0249101469348758 0.005643537132913603 -0.01407957935895928 
0.1303397563886055 -0.1008531744612578 -0.1082028772540295 -0.1167371060726029 0.05427732042547759 
0.009091233257177974 0.02442155808661205 0.01660535170022704 0.01293937571197657 -0.01744479471098184 
-0.03004414336662578 -0.0844945809819783 0.01810497742771229 -0.02056119430084019 -0.1551945321301994 
-0.06663281353392135 -0.08211520564620664 0.0854667672830365 0.03506564310299326 -0.1979936285758111 
0.04443485316523382 -0.01394054708230326 -0.02752944652407211 -0.06198567463876445 -0.02185671783680551 
0.01074541294723618 0.008037255187769616 -0.003158492811292332 -0.01353763713102877 0.01443805139699908 
0.04112123866934543 -0.03724187596847528 -0.030157724793953 -0.03567453125291867 -0.03757945723788729 
-0.08438225274125569 0.06064036489512454 -0.002826422688511981 0.0702606145767295 -0.003315205880743834 
-0.1076077895026416 0.01261501340126647 -0.078136462727909 -0.04905098090742852 0.1112567255278267 
0.01085509718767335 -0.03358457519751205 -0.04180382361773186 -0.03368892594250346 -0.02691462059642013 
0.01668726664597809 -0.03187341741952669 -0.000943156953051459 -0.03528972840095371 -0.02633084974319525 
0.09122381075870672 -0.06274246801182087 -0.004757401499505541 -0.04742839505673687 0.0041363770932319 
-0.0006275116004805042 -0.003906257015781577 0.005014251941033997 -0.01024012708991207 -0.03401924952914512 
0.03577112126058261 -0.03449934936341856 -0.001154817552688572 -0.01993619947543164 -0.04736351453437021 
-0.05711356264682117 0.01352062917650615 0.01753458729390506 0.007475583154006297 0.005483066395874952 
-0.2104823749800289 0.09985525446133983 0.1157848337083729 0.0001093122886723329 -0.02463363577099375 
-0.06643339057947831 0.04259481836909605 0.02167948597690237 0.03653720331102885 -0.02965092258983141 
-0.001661968629480039 -0.03803796363657593 -0.01260676513419538 -0.03497317838863106 -0.06209973024749234 
0.1103955278005668 -0.07986561124341368 -0.0754798066889156 -0.08024337726593145 -0.04311754595091358 
-0.01756633217722821 0.03983369540641173 0.02758816440742319 0.04466073021961899 0.02263537253701019 
0.002784718458344312 -0.01377759562626995 0.005011007826635166 0.0007257022513025152 -0.01791863909896396 
0.09347519740849569 -0.1362166293691378 -0.05147040505844611 -0.09773812026839443 -0.2654913574323912 
-0.06510315833233109 -0.0002507835049403054 0.01151210083080298 0.01510956967015409 -0.01489498191691086 
-0.02096079631271931 0.01026369027931789 0.01423596916699491 0.00614079526738939 0.02032101144694539 
0.006004829942483915 0.003422535331589867 0.004922549813421972 -0.0006792645652749197 -0.0227147578939542 
0.007043279599028953 -0.04431915719201947 0.02324733149467029 -0.003922484839686843 -0.1111145728482959 
-0.01707204029248435 -0.01322924866020663 -0.0143291913836573 -0.01877965017335809 0.03505168423126636 
-0.04200330268969951 -0.142053591913729 0.02476083149451992 -0.0529669630448765 -0.04880447858270593 
0.104308565931397 -0.104195479076702 -0.1039384660571815 -0.1184243586555218 0.04767125192162579 
-0.1398153114285406 -0.008250292728315411 -0.02344741294146682 -0.01709969228226075 -0.03261677773786329 
-0.02476488665000143 0.03060774464697932 0.02673170076427148 0.0416295156613155 0.0207403710497589 
-0.1020031946896863 0.05115602472317506 -0.05588546684561385 0.0942000029548244 -0.05686210997400158 
0.07042577652845601 -0.02273329558057831 -0.07897728723100472 -0.05749250684298568 0.04738423282055004 
-0.03916194437784051 -0.02593999767164235 0.01712042639470705 -0.01029673015244308 -0.004218123286024715 
-0.03810443898032881 0.0132238070798152 0.01473285277116284 0.02334639641410204 0.05148502745876018 
-0.1236059157841219 -0.02345774681907906 -0.04466577891816515 -0.04741082748833298 0.03077199843791875 
0.03654036869385992 0.05212346752111542 -0.005682965785473219 0.0003688572803747662 0.07145004609792011 
-0.2835000923050012 0.1027882552398098 -0.1575789730664698 0.1999618776839804 -0.1206017514026261 
0.01349663488631373 0.05429682797811883 -0.009966437381007201 0.01769779535288482 0.03041218048118432 
-0.0358477977661893 0.01222805892877073 -0.002792951624140672 -0.00909089725307142 0.03264458940974978 
0.01908048066111551 -0.02907478704951585 -0.01989145664049124 -0.05453899756787165 0.04541152483519852 
-0.1649844362227779 0.07385415880840739 -0.06037127277884363 0.06281769087289031 0.06048217399482167 
-0.02127195637497923 -0.004737082888140772 0.02572990260171319 -0.003064302185513998 -0.009368636835852966 
-0.04908649535068716 -0.02727879737202371 0.02089670367989381 -0.007247827907708478 -0.03906215182818314 
-0.0269380130408962 0.009723206312847846 0.003424940436223795 0.004844891423766018 0.03421315376168473 
0.001487618740678524 -0.04387226291454714 -0.04234055366280762 -0.03912514805951966 0.06885044888487758 
-0.03526537120435431 0.01814495560983656 0.0203696953955 -0.001994731684901428 0.009391277077261301 
-0.01072729553515241 -0.01003597981326792 -0.0005010465270408478 -0.01129142379972424 -0.01022831990711241 
0.01611576359367873 -0.03019892183821458 0.008646340633039573 -0.02201328291851846 0.003659129394121984 
0.03843335485555082 -0.02813500365550176 0.003205669192096707 0.004068686715531619 -0.05026745299762978 
0.008483880989388751 0.01561285427915873 -0.02197272268948636 -0.01249662912899781 0.03277763086212219 
0.02395925070132188 -0.06505480503135888 -0.07229310077900948 -0.0899992308579803 0.01086216361549652 
0.03546617715093744 -0.1063775100500356 0.03217648660542569 -0.04715869002517931 -0.1976321772505755 
-0.02179385590106223 0.02154198934709496 -0.007731737571093186 0.01380518095547953 -0.02912269694383298 
-0.0562687665985285 -0.0632152090909643 -0.0003398660009803342 -0.0406468932926207 -0.1262962840558763 
-0.06054728886558163 -0.00529574865783014 0.009148942770743462 0.02636681940635916 -0.0407490937369089 
-0.0002396393942300022 -0.008543549945646479 -0.005154716434816075 -0.005043362828374979 -0.01639661075855772 
-0.04339402936706607 0.0406876577316155 0.01022439706944767 0.009917777633398607 0.01268551964516956 
0.02071861132374922 -0.05218783908676767 -0.04753781937073154 -0.06180958017757548 -0.0001643198249475938 
0.01887009915204169 -0.05922364897660767 -0.008330454033806263 -0.0270914575853776 -0.1341488239471401 
-0.04493482641114466 -0.02051713032310604 -0.002825555444997703 -0.02328460663424632 0.05115530501699753 
-0.01861545129529194 0.002371655815876789 0.002672347785349605 -0.009910468032364686 0.01317475409845972 
0.01160156642159934 -0.02333323509083641 -0.01095704633247856 -0.02165521019507684 -0.005983847648135115 
0.1277734909244887 -0.181453081097218 0.02809172864114658 -0.05915661638377612 -0.2547010108017626 
0.02008517504175186 -0.04766981904256713 -0.04818132961749551 -0.07154703812709746 -0.006901335294073736 
0.0287070139262296 -0.07926336737280799 0.04150313024647252 -0.02793983288517935 -0.1732221274335938 
0.0249354163898026 0.02506745853141679 -0.005960870472600042 0.001499876393670618 0.03163379424216504 
0.005880926875902567 0.002987746275228391 0.007804247204726299 -0.005771895240662621 -0.01736806384182406 
-0.02215569757826066 -0.04043674516268582 0.03229495590720088 0.005698975752599904 -0.07991999687809763 
0.09038382191745022 -0.2077151108033586 0.02702836944734955 -0.1219887482621008 -0.2553267881496525 
-0.02314536872643494 0.02229037330189731 -0.004516301468300001 0.0162915383850105 0.03130775599360038 
0.001021130806044525 -0.02123890143423432 0.02708602281202463 0.0006371996702035608 -0.03713577275679695 
0.004468771318610402 -0.01708771585011255 0.01522660740656457 -0.01311564019387544 0.01727562765088768 
-0.004516492257401766 -0.3285998348823085 0.07385846963267285 -0.1462010752924325 -0.4389126817531986 
0.02056876889118876 0.03080813929028433 -0.07140658509137011 -0.08083857500711832 -0.2728105353090773 
-0.03680897098595505 -0.033094734123522 0.0145184236714862 -0.02397142785247786 -0.07194929017173152 
-0.09932998997424188 0.01147559333585256 -0.06878072216183748 -0.02768832013884594 0.05654162059297727 
0.02087134889633758 0.0003104760332235338 -0.01293631922307217 -0.01039284265161106 0.01546842792584632 
-0.009528881483260155 0.02163921164861257 -0.01946144676233563 0.01564934960842548 0.002672600605687519 
-0.07243325148256907 0.0273290507464624 -0.06049532944558433 -0.01224711706362382 0.1018422896982456 
-0.009343397462512969 0.0369099311349635 0.006403438820827652 0.01554510656568837 0.00940506229486162 
-0.007774114088673549 -0.007587571577752849 -0.0287000735811801 -0.00842506043168509 -0.01027228094287208 
0.01831726335295764 0.005564409023326954 0.03031528691527459 0.05293256518175216 -0.00447019433004317 
0.03638713426975919 -0.0364294027686792 0.04543314802755814 0.003579086764038656 -0.1042057327453075 
0.08667176025241198 -0.03658490415993215 -0.02836254877049656 -0.02882324739008419 -0.0988139547277594 
-0.02524899663190862 -0.1021295819038575 0.02853857709184426 -0.02270754114993064 -0.1615205292729216 
-0.1887963675573046 0.1278812972850775 -0.1273013665880028 0.01130588181080968 0.1101114922409841 
-0.002748694320530031 -0.009385957373047928 0.01915634464437134 -0.009333108051387835 -0.003903598463790718 
-0.01078859887602603 0.04239800922202482 -0.03679358957465059 -0.00185317105200888 0.05258683180043883 
0.008249529036249386 -0.01297448068102991 -0.002574640300605939 -0.01189731367597217 -0.03916513005813518 
-0.3127337037919726 0.06543196748791526 -0.1279665920755396 0.1749452739348978 -0.1438476630890009 
0.002284201977645918 0.04094620609915366 0.001030348660875993 0.01668656941343272 0.04086937855605741 
-0.007410600576383822 -0.0293998304851576 -0.01080281894036538 -0.01778647449406794 -0.03819332592679598 
-0.01645858989769204 -0.09148819505493076 0.06084911350023955 -0.03060309425337824 -0.08889894080432582 
0.04988763255146955 -0.01688832965127227 0.05285277431262581 -0.0157989804098925 -0.07812741723699747 
-0.02732261426144093 -0.01767518937486109 0.01134820257744313 0.03955177214728257 -0.05660913717246694 
0.02210043220136662 -0.04464468851240805 0.01175526455055779 -0.01162815486742387 -0.03550695234623594 
-0.009411731870800449 -0.03815135457170776 0.01175243633461608 -0.01265927788098585 -0.03035638524444547 
-0.04750729078389324 -0.0007390977050583765 0.03258928491146729 0.02049943688163981 -0.05141153170281169 
0.00429121172038468 -0.01617433518891834 -0.0285826460028501 -0.03438606958908033 0.0166771221192902 
-0.003503469302424884 0.03601072859681731 -0.0004531826639206137 0.05152781821968457 0.01084673663484457 
-0.343680745066926 0.06691335043378424 -0.04965923902065131 0.03345838750765708 -0.004238426184143675 
0.08973726518975658 -0.04525686302489686 -0.01719339386872936 -0.08424163886158986 -0.08044614397638294 
0.009121281403803728 -0.02991710496685591 -0.01173108133160355 -0.009126225173366283 -0.01092778204104256 
0.01035685185283768 -0.02659482270251529 0.04364786036787559 -0.01073453741780729 -0.09549742807974457 
0.08185048868317393 -0.08651898910621411 -0.02888476940705154 -0.0888335448601387 -0.05935420112000586 
-0.06063783367430163 0.01109440029625758 0.02024970735894298 0.03989663302302966 -0.02757470157726451 
0.008176946517005648 -0.01658636769743614 0.007797092891362252 -0.007497097824911186 0.006971211112476084 
0.002051708157578965 -0.02404977628827208 -1.612471400444472e-05 -0.007901916633002342 -0.01358416813119562 
-0.002009655654222229 0.01747434658211233 -0.001891460136158038 -0.02406622003608094 0.02330192047327201 
0.05824392453217493 -0.01515063798328845 -0.004581850587103236 -0.03897800914738118 0.04619610549085253 
-0.0007108436607841687 -0.02113201582383886 0.006001727270470965 -0.02505563333810475 -0.02669503136112405 
-0.01707918210827226 0.01697967875786453 0.006959713451838169 0.01227363323953034 0.03967561239217743 
-0.03681006267787448 -0.02443687720884305 -0.005046495139420487 -0.01791347218979206 -0.02409223768231949 
-0.08586083659051748 0.06883655926813137 0.007125586081419807 0.0477406755371701 0.06524427425845507 
0.009859974455676265 0.00387628248158217 0.00754502005568111 0.0121094430561605 0.001000369542417443 
-0.0125323427045096 -0.05972302773566052 0.001774255374170104 -0.03398108410805451 -0.08611147243482804 
-0.01943565930335674 -0.02984326651970319 0.02870890579325553 -0.007040462849118193 -0.008122625531671236 
0.003709250740062271 0.01738961772347914 0.0172008393131008 0.00756469771061892 -0.001012041677053102 
0.07184510428593321 -0.1123420800255943 0.01572449234400059 -0.03878593730045517 -0.2413926918359745 
-0.05032613460664621 0.03518765851920657 -0.02561380958811148 -0.004342899934952432 0.04574883577616928 
-0.01752478498619894 0.01330113158259843 -0.0005422988081148013 0.01825599073340251 0.005100449272187862 
0.04913548412285313 0.0291580014343715 -0.04521526463302421 -0.01239898157316528 0.02926826563895765 
-0.04072092828369852 -0.02116937880317642 -0.03543718604805944 -0.03863451727018152 0.02836562542884458 
-0.009262026737129664 0.009516236190567538 0.006109083455906658 0.01082118109949317 -0.01714221773964412 
-0.0409464884637941 -0.01094793180753698 0.005180965337729418 -0.007451028004364973 0.002152850642142227 
-0.02019330509826891 -0.01338464693599585 -0.01328783637051526 -0.03206678096369438 0.04410861183065212 
-0.07686668099145025 0.001044515580615384 0.0463736825311889 0.05652874718325372 -0.06631262454851074 
-0.03435968254807658 0.01764079511892091 -0.002273157939443809 0.03122882807323875 0.001384847594292429 
0.01802524344018189 -0.02782950994585211 0.002053327010552756 -0.03513804899868882 -0.05369313147342632 
-0.01193433521044802 -0.005937425059589555 -0.005602077304204076 -0.007527312994759764 0.06344974506111715 
0.02619582213847392 -0.02897686289279802 0.01545155049508833 -0.01260686074944411 -0.03237518005802116 
-0.0137944243538552 0.06293181407615542 0.0101643631787388 0.006244799667114058 0.09452220414802809 
0.03085084282800474 0.005659356388904756 -0.00162635156432115 0.009082622707192711 0.08264714526012162 
-0.01843634559513568 -0.004038843837280886 -0.008075701670643972 -0.02117679450251011 -0.05130206480061619 
0.0466173850042166 -0.003691918934311511 0.03127955088668791 0.007626765748194283 -0.05795658316539838 
-0.1031587951774774 0.02060872268669723 -0.09145515609120007 -0.03258562292142864 0.1262817013103222 
-0.007543414038064145 -0.02314010028612831 0.01914152370048827 -0.003997505372718116 -0.01642706005336378 
-0.04404405226666819 0.03572577099475097 0.004315803166628974 0.02390901067683356 0.003098150026541415 
-0.03949943704282291 -0.05911995604842428 0.046758543719909 0.02322023720507106 -0.1470115468839775 
-0.02987984739944312 0.01965973394386926 0.02135106136952827 0.006099909979197381 -0.0002268213148884171 
0.001242326366466559 -0.01292096305998643 0.01369694312031123 -0.007176751860579727 -0.03156734259219469 
0.05204607588909121 -0.03715900706383168 -0.01269368290330705 -0.07340109285745097 0.01014066880081564 
0.1341761225395577 -0.1522510532446176 -0.07760454567198233 -0.1133073088811173 -0.01835033326561647 
-0.02472268775198413 0.002053969745227553 0.01204925880301392 -0.01322173047090512 -0.02155311824126104 
-0.1039900300402243 -0.05549024862412336 -0.05526475183598684 -0.06810201222942951 -0.002111830364676107 
-0.03300953810561889 -0.008633098485323799 -0.04004374525581414 -0.06065812094416338 0.001337750944098183 
-0.04763204231597279 -0.003764671140134273 -0.0004073174900008447 0.004711279529627515 -0.005411110295104039 
-0.05090900706839428 0.03839293495046702 0.00914720261478154 0.03221408965693835 -0.04382625171525042 
0.02459038829688475 0.03325381078173056 0.03523322658855484 0.004867194204853788 0.03116653373724331 
-0.03491867543837494 -0.0192319249870606 -0.009283915027233528 -0.01338783987483274 0.006880686626861744 
-0.06282870758402263 -0.009257725755468287 -0.07291845856632297 -0.0382800733052975 0.06448166008865587 
-0.0008162595485755369 0.00265947964544659 -0.002945523277600502 -0.002606997217463667 0.02136709014904573 
0.1017290680545998 0.006312281351173978 0.03051998576410104 -0.01526762479832753 -0.01077689698332398 
-0.08669440874630503 -0.07725783235709614 -0.02734785169403421 -0.04855268340005432 -0.04278686732298211 
-0.02385444400444563 -0.07933459355597909 0.0006383196832034817 -0.02261682101012434 -0.04761513021331115 
0.2454254756659868 -0.1828656043910818 -0.169761331470571 -0.199893592938779 -0.1834811491611797 
0.07084836464747526 0.02231614238253572 -0.0850800446009482 -0.07383290584155092 0.08114276788922541 
-0.01831982914638218 0.05933440655301933 -0.006869489854835102 0.01945783843335153 0.02797480367280039 
0.02515986983047593 -5.19692282452593e-05 0.01961655522775934 0.008202864627958965 -0.01365910136409247 
-0.01295549086943997 -0.01668003761432373 0.0154478690767467 -0.008285477003754517 -0.01988045028271582 
-0.003416546465757158 -0.04280435107758924 0.01309566879098752 -0.02289586896395536 -0.02919657563508146 
0.005008713110426843 0.01244317602425987 0.02449386065197844 0.0395952769658816 -0.01443818692333043 
-0.04673653236354001 0.0170070452248655 0.0224078587741551 0.01450170057682039 0.01964055827596618 
0.1058755266482551 -0.2098437059006963 0.03348119740528804 -0.1452847941039265 -0.2630764077481455 
0.01537785201570938 -0.02805974961358364 0.001264390651264641 -0.02070423399073294 -0.01247797433923116 
0.004772272834779562 0.004347430298048244 0.004410363177664436 -0.003321237990332904 -0.01705716140929513 
-0.01890736483734392 -0.03502899540068234 0.06734005159130302 0.02760674984958482 -0.110006598370922 
0.0409926925182851 -0.1203262767018549 0.02114678837482457 -0.0748706335738418 -0.1348538634611043 
-0.05002253655358661 0.01996343970748921 0.02932444332112428 0.03754614727709276 -0.01857313883399338 
-0.04726343008377851 0.02180005941759391 -0.08978920975191346 0.02690320583757896 -0.06147636680973811 
-0.02716939770254457 0.0621130739933243 0.006816366108819642 0.05807438487968684 0.03821353150600303 
-0.03025469366779552 -0.001532499967791114 0.01933822803092081 0.01446354531872063 0.03490790241361807 
-0.024831727148389 0.03749225038547851 0.01095765588431888 -0.009460998374407927 0.006691683139818795 
0.02081432342122586 0.01085734290373429 0.006306256145753079 0.01186338256549929 0.03770077556708695 
-0.03616119307779861 0.04056115763044556 -0.0781765425952064 -0.04322579804932527 0.1350212926945625 
0.02009423415260192 -0.04845705417578779 0.007449321188482556 -0.02134584070508233 -0.07820872410111683 
-0.5826688363957976 -0.205652277550142 -0.4020598439457486 -0.2997161927301994 0.5347247750972067 
0.005977054788004142 -0.1294261113634421 0.1226419327841461 -0.06099781916384885 -0.1277629645395431 
-0.05572886814610258 0.07770670243176366 -0.06826925396548537 -0.02220408157751004 0.06922630547324009 
0.007202104997811381 -0.02970021812748792 0.01218717245345145 -0.02756279806403066 -0.04789368562904896 
-0.5025963362806478 -0.08167149046788579 -0.2428589804837883 -0.1487816227266865 0.2602405584145009 
-0.1061502041833625 0.04159617666215185 -0.01926034613488118 0.08237280924650592 -0.07478417071554253 
0.01131472839059958 -0.01596980988153908 -0.006121207924899774 -0.02238837679807423 0.005688556637276615 
-0.4990899384598693 -0.1302863528780925 -0.3393859838920047 -0.2312968885805764 0.3805793229322201 
0.09044561507085229 0.002208856201363793 -0.05431997946660935 -0.01996216739260134 0.04512443090013497 
-0.06347642735558275 0.004539544332799581 -0.08936642977628981 -0.05764733655148684 0.04756710965520815 
-0.004724743453523385 -0.05492478948136995 0.01864743077114272 -0.04059393804016857 0.006045219353790727 
-0.0004553343892055059 -0.02704700574788892 0.006863353359278943 -0.01390892107130613 -0.0246691055832369 
-0.01524538929732397 0.01387071105956283 0.02116779181876455 0.01849668098085257 0.01184908671056002 
0.1676099032485277 -0.1487301596637504 -0.1277647204662771 -0.1370369251309464 -0.008565512212856109 
-0.004176965538903586 -0.01010643497346355 -0.000400063739356165 0.002035402708155704 -0.02740432447296833 
0.0169595734313243 -0.03048667953438014 -0.002333883887424973 -0.02279720683809778 0.03946351592044679 
0.01416847827977862 -0.004625668527524021 0.01163325629131201 0.005255459777636923 -0.02324673210689789 
-0.0003647698081831092 -0.01639027103447932 0.003933688480775129 -1.327010655063042e-05 -0.02814575346421721 
0.01697788786238899 -0.01471267244060681 0.00646702275826818 -0.006406418417766618 -0.02302350533102353 
0.01659045378323199 -0.02843002875439186 -0.01980518207664387 -0.02277498860357496 -0.008570581607261988 
0.1639186852671803 -0.1754442103946709 -0.1473748969934147 -0.2350531157968184 -0.1161108520773889 
-0.03875585289361572 0.002883655631751581 0.01486429774606249 0.01376352557324527 -0.09839237261852952 
0.006262922935329655 -0.01701557810848245 -0.04448284496966588 -0.03699981157864039 0.05446169353748734 
-0.0286864778961364 0.01375105647349614 -0.002094198763190235 -0.01518094040099031 0.02913236449937217 
-0.03594825396745189 0.06379952972724198 0.008574763283030395 0.02863883064218315 0.03383605352621506 
0.04376379064382173 -0.04390070262723631 -0.0170339130486198 -0.05945449297878724 0.01668578150880283 
-0.006208468926446545 0.01544280050482143 0.04187139672484461 0.009154973406551598 -0.01668194775257863 
-0.02513067356268883 -0.0002899921859967881 0.02382548453551855 -0.004126175385647307 -0.03911144913819536 
-0.02810812945883971 0.007206500942307427 0.01286409141683445 0.01111799529588882 -0.006227903286600429 
-0.1884683094405328 -0.1487682936995179 0.05959407167980934 -0.02006664232916633 -0.2585785663205004 
-0.03021791961549718 0.004395989641530864 -0.0001209883560522747 -0.001666777254841317 0.02425745837866685 
-0.001719459764515788 -0.1470564024230166 -0.1293392613060758 -0.147471658598546 0.09676866250622815 
-0.04327542102186649 -0.007665908915775425 0.006558286628540154 -0.004873287013914136 0.01508115073178371 
0.01123888546604187 -0.09288853430473606 0.05182880719880753 -0.01404916261261684 -0.1997784889255149 
0.1005376862076253 -0.1059100092561156 -0.0273713375965952 -0.06363404952086463 -0.09007644621869856 
-0.07934106075615308 0.009903381264707599 0.01485095396165417 0.0144750216805611 -0.04719875500408545 
0.01537756806919412 0.009977121020850854 0.03990301381082501 -0.005922306565828426 0.05115767686258165 
-0.007060781651867749 0.01898778197814367 0.01484243829877324 -0.01189028487190748 0.02623889135640053 
-0.02415470091940064 0.04811151130782113 0.02128049242983195 0.06229978601319333 -0.02718571384217532 
0.08112439397232292 -0.1227652226157575 -0.02929788421967517 -0.1345302476806055 -0.06613886297312147 
0.02279835745729551 0.02416228430614678 -0.0230975960218748 -0.001120708436663684 0.003012091309526824 
-0.004961774334193033 -0.04694949910016429 0.02343567878970383 -0.005171525064150124 -0.07329744865804486 
-0.02817636781059018 0.03277633682695987 -0.008492746538828365 -0.005182779168447587 0.03756835819586684 
0.04741473721416388 -0.06219107908551384 0.03954753504924177 0.005298263417414226 -0.07344259873919941 
-0.01030478849152194 -0.06807243633579806 0.003527371298468362 -0.01284729872344371 -0.06055204271280598 
-0.0225592268470226 -0.06734865540822157 0.03513017631448895 0.01068061776019131 -0.05311506434340842 
-0.4464009777905005 -0.06317324344973384 -0.3071770446078117 -0.1751524868492917 0.3347704848873397 
0.05949728336478732 -0.01578736733173266 -0.01685452463640226 -0.001003347224788157 0.03279518013325308 
0.04958472228993811 -0.1388527900218872 -0.007771507610146767 -0.06435473331970111 -0.2224395840850413 
-0.02784374934946562 -0.03778830213686075 0.005171036472017314 -0.008894437371370086 -0.1243992221387997 
-0.06440627725528125 -0.05306162062730818 0.05364956961233931 -0.004621636033556866 -0.09714542099651446 
-0.4095378351743644 0.2057387722756245 -0.2973571218060728 -0.02487509923774118 0.117915280620624 
-0.05432186548529775 -0.09092826716461432 0.01448369535817114 -0.01159531736532586 -0.1418032303121034 
-0.02461904092346273 0.002865651484336982 -0.003156124111372401 0.0004531316683044997 0.0272112442717539 
-0.04960770716262133 -0.01323626344844838 -0.06042829975927816 -0.0340012142338423 0.07339760924172041 
-0.08167271190781798 -0.04656574817544806 0.02084435382855103 0.02527998386962713 -0.1428700669979034 
0.04199988706985546 -0.04377708814030118 0.02176441723992838 -0.01756119239887485 -0.006077716433977268 
-0.01332893191336431 -0.04875496524394613 0.02222870007561026 -0.02324257447056778 -0.09144464755703977 
-0.1417325282260921 0.04286657259262691 -0.02408411780027228 0.03053474603828047 0.02239142034783484 
-0.04219072880318321 -0.03620068272304049 -0.02340422907883373 -0.04291600692591126 0.04676309924658028 
-0.1015700802740451 -0.078111627109772 0.04001469526948388 -0.02612761695123922 -0.1658500227694832 
-0.006998772520225865 -0.01076565160606189 0.01151389688092552 0.01522299670393753 -0.001894942381694801 
-0.02169262864912857 -0.003418240133353544 -0.005832477538748779 -0.002132528434479583 -0.02667415349729745 
0.07760622947536197 -0.0680685416468591 -0.0139555260749368 -0.005665041512968036 -0.1194537958988187 
-0.2678535635861569 0.2281771861485543 -0.08436438942879601 0.1471480906598597 0.08868423890100852 
-0.01685266393397725 0.08625562865210015 -0.004382290894631996 0.007869508789121262 0.08801840233041829 
0.2774153415068716 -0.2425634377341042 -0.2104078765622179 -0.2418672321556643 -0.2568790906426654 
-0.1217633595007811 0.07932394247638191 -0.04314486531969661 0.03142040936253898 0.09313696977874981 
0.01022465599699144 -0.03734370755437884 0.0007980695896402674 -0.03816438565598448 -0.0206347026321844 
0.03838138055254482 0.02927553467207363 -0.001443822023247256 -0.01923931777071347 0.02191512702321073 
0.01134676395157994 0.003346031134943901 -0.01473692932767514 -0.006518486021243566 -0.004387022808993469 
-0.04829078445831258 -0.02806950231933904 0.01146326276678328 -0.007254067553392775 0.01390283089047254 
-0.01877571606530454 0.006846742650892832 0.0147143470680898 0.01055264108431056 -0.007885475422654309 
-0.02562445526029832 0.01178366436139999 0.01556583472361965 0.02521963145817012 0.009584801148223788 
0.03374572930628444 0.03686148170696972 -0.01349567903854987 0.03079938518725877 -0.002890647375130496 
-0.05642483956361492 -0.03761232170728649 0.008277750874610789 -0.005070139304548684 -0.04454034550978937 
-0.02335255269986844 0.0397758417916723 0.004639596290884787 0.04019175066104781 0.004663375854200597 
-0.02636241087737263 0.005315817615229364 0.01229446963147473 -0.01999786595749539 0.08162301098063121 
0.01141972490067867 0.01508273327206928 0.02483725933966868 0.01335233092543698 0.02354188530884694 
-0.06476703284897156 0.030210770900634 -0.02000038671188384 -0.02800852659995111 0.04591729117706646 
0.05277084435286736 -0.02067855876981199 0.01759324782803089 0.009441331638916103 -0.05158012726273916 
-0.01604614744821136 0.04234884712281532 -0.01175975824889371 0.05149156261024884 0.06150613953754541 
-0.03133380810481291 0.01741718454934899 -0.008920287656115598 0.005091700236474664 0.04259126750144353 
0.05044694802591287 -0.1165901813165415 -0.006772626883510454 -0.1108417007601849 -0.1091932285126369 
-0.03382494783697988 -0.02042464081779415 -0.0007733751826605652 -0.01086807851211191 0.02434230392469732 
-0.02137540528176375 0.007844964155020099 0.01849551461979207 0.02922038907841025 0.007062356613760284 
-0.04667461496358943 0.01057463061911551 -0.01361893288567311 0.05225752256141664 -0.004736746032934923 
-0.00255647559447897 0.04114990943505378 0.0230312632247697 0.04613835866747582 0.07692568493515997 
-0.04024530429961339 -0.04063476990813654 0.01689552219543811 -0.01508463780711418 -0.04890124573171758 
-0.06581857763938059 0.06062829612249918 0.03805668600338126 0.01537819410717828 -0.006630111152635315 
0.07478147202855279 -0.009453942061576719 -0.05301279046977005 -0.07554481428481244 0.02293914784871307 
-0.07334385174369529 0.05131425373863138 -0.004283580726975215 0.05944676418593867 0.0826102252918577 
-0.01397873039123014 -0.07023180719039798 0.04988935981559287 -0.03049760021665573 -0.2014345787751659 
-0.01348938563518892 0.04792749466839677 -0.02933011709181252 0.004208929750978168 0.08570155330528187 
0.03750627271990239 0.01350833240597887 -0.008191932719964969 -0.000597357086621553 0.003192283318582255 
0.1277645462112907 -0.08329904060354139 -0.04442678945237056 -0.09276313221048543 -0.04174584281665587 
-0.06636980873880294 0.08694566269829473 0.0153925862056366 0.06276456738228711 0.0349150638531989 
0.1076795548489659 -0.0187280513502527 0.02447829832977075 0.007371674251093561 0.0004351494018585624 
-0.02929666735088255 0.01100177935172398 0.0046887528564441 -0.003924684440423693 -0.005650028025626758 
0.01266626462968164 -0.007793700079974005 0.0136412349737268 0.002512882693394612 -0.02215523659599042 
-0.04079628230491026 -0.03460712062392194 0.03332508565585451 -0.005928033426467361 -0.01954203920455153 
0.005836054711139739 -0.01126624255546275 -0.004363896666879997 0.002539860509589518 0.007374641370445393 
-0.0004797515296086649 -0.05674576988652084 0.03477658507215942 -0.01082637884420441 -0.00283006907129948 
-0.01424518472751663 0.008557199514085519 0.001214092176784625 0.00547939260672116 0.007864348791837877 
0.1804435192800233 -0.1296664953481606 -0.1295493466064713 -0.1333745901258883 -0.02730193142128587 
0.006381809371050552 -0.03540943831152635 -0.007860522732387932 -0.007707338454025612 -0.08481176335429617 
0.006090564676239362 -0.02425286847911626 0.02257927796369533 -0.004390877501557997 0.02583319828884665 
0.0331639134011719 -0.00346892405489657 -0.001833008982473927 -0.02696558147956466 0.04509607506181953 
0.01871222710163449 0.02080392211666353 0.01603154206318032 0.01828178065507233 0.02532838676056596 
0.01519569553021805 -0.06521484308931366 -0.06269279408200613 -0.08870703123016557 0.02940389140212245 
-0.07883548652556815 -0.009894898599445472 0.02245565128696337 0.07516237632175585 0.05257849374396596 
-0.0392702036595908 0.04486816084153478 0.000816868280428957 0.0360862406270326 -0.01459118767539944 
0.03201158121762524 -0.03649216422710586 -0.01672880182528357 -0.06211804730340845 -0.01219284899658119 
0.02123254428725902 -0.01887993554884804 0.005937614438566078 -0.01924739467425748 -0.001340864030876996 
-0.03177194464452226 0.003184053167875117 -0.01270598932267999 -0.006202827777921336 0.02551558148649759 
-0.06296462783196037 0.1906926373781214 -0.0905853667229515 0.07998742464397038 0.1157956348554361 
0.03167447269795459 -0.02094002699974179 -0.01268464544342974 -0.007660474181372389 -0.02586282918563325 
0.001686372720180187 -0.03586460690982875 -0.03339189023895539 -0.05981622293538827 0.03114623779727081 
0.009932009877857839 0.02080408777593358 0.01238933418869246 0.03047015110001328 0.02483422818951473 
-0.001247575504235213 -0.03836102893015317 -0.04349089589311813 0.0426432610281244 -0.1507615342813798 
0.008267370634095253 0.006930912645240549 0.0128393080641472 -0.002782934052450247 0.008429985016563947 
-0.03146810439437746 -0.03585443736258106 -0.01440492638916548 -0.03708810341013366 -0.04714193247013303 
-0.004259827044966849 -0.01138811041016207 0.02666083303066944 0.006058599595531882 0.006795279737751609 
-0.06110610799518781 0.005851093057405403 -0.02192940192244225 0.1047227129442723 -0.07367598496336455 
0.02623590328004639 0.01354931700496445 0.003925203306396433 0.02782869503994344 -0.003343527131401118 
0.01017828400883488 0.02126820873939526 -0.02975703767454215 -0.0195443173862066 0.101582204402707 
0.06863563154009995 0.01625076113718117 -0.07047612410714069 -0.03624053065700099 0.04638712725189971 
0.01523799549040471 -0.06601174013092038 -0.01357250571353401 -0.06060163705117888 0.02590781134127008 
0.003704169271692544 0.02351672636385455 0.02078846874659855 -0.0004255884005286738 0.001856629703089428 
-0.01424733472489736 -0.003603159161427133 -0.02441702114653099 -0.04238137234207494 0.04328025254103161 
0.02659306233610519 0.03047617491501311 -0.08112030563616629 -0.04889192494149077 0.1080134131675245 
-0.1397980464308474 0.07544980102294957 -0.02571273490027307 0.05944236261313139 0.1177396892034132 
-0.005266872901060416 0.01268297216732753 0.01311459060493201 0.006814323710256178 0.006127925603497699 
0.006198948813700352 0.009334210653390707 -0.02386088702539184 -0.03994165951132161 0.05338365926106774 
0.1552541816999859 -0.05330717517881421 -0.08499474718913888 -0.07476583393620984 -0.05215317374983412 
-0.01389931510417873 -0.01815495435674854 0.03855012149613854 0.006288371129899585 -0.001966907337591726 
-0.1442877024055479 0.115787184970096 -0.07077255512202328 0.05386780657027523 0.08946298808206768 
0.02925918019353403 -0.05008113953609308 0.03080969748227852 -0.004646341668501081 -0.03854913128986288 
0.007680966809548092 -0.005589893547265591 0.02119210858551702 0.02142272360461145 -0.03586863165178811 
-0.004373935997205843 -0.07483897357544837 0.03506729878769491 -0.002469054347889108 -0.12002977475297 
-0.03773402047429522 0.03823582096796569 0.0007355447685031343 0.01779180887465678 0.01417561272684665 
0.008345348525792839 -0.001305860758893114 -0.009936273384146545 0.007351684427502558 0.04803291856337311 
0.0008790112232070307 -0.1890899571015964 -0.07871570690459477 -0.1405529399878089 -0.1667334694904864 
0.02817630795302453 0.02001299590545451 -0.002385163808239965 -0.01182169166100902 0.008144937403179292 
0.02695562327018913 -0.2711953108094327 0.04225460885695579 -0.1707598507351906 -0.3724949570360407 
0.01105119221135069 -0.01720109396044734 0.002259629642224015 -0.004505686971339034 -0.0627668571679163 
-0.009115705956581049 0.02109934743985718 -0.01539497790932089 -0.05710614736247061 0.05852395309027146 
9.09715567729381e-05 0.002926816550481814 -0.02413489225512756 -0.0337003027702517 0.08123822970297864 
-0.01587515655559575 0.003401412815600554 0.0005292633030562367 -0.01950599748153267 0.03359046649285086 
-0.02745667440945001 -0.01192443810177373 -0.008193844787547231 0.008798234945620896 0.03799163403906302 
0.008953885597286656 0.05001311011769221 0.03876559525354431 0.01488466500468886 0.06535607648973667 
-0.133240304973275 -0.1630437656983072 -0.09669772824001087 -0.09678622683506059 0.04759617300359394 
-0.1442789471935642 0.1112912958785902 -0.1391922278666443 -0.09209360609151813 0.1802744093647505 
-0.02609565056839529 -0.01236244543790727 0.02424821633921095 0.0125962488513205 -0.04222625733610589 
0.1080098330371305 -0.1541181076135784 -0.1371644708722694 -0.1636531560893547 -0.06751763857066442 
0.03463488751559962 -0.0117672579862273 0.02297061407802023 -0.01985270752570364 -0.02179518713679718 
0.07369434869663645 -0.07571708782254322 -0.03131136167555424 -0.07793948180009735 -0.06845689206628536 
0.0472936736836705 0.09616168067162088 -0.02888396109524169 0.02301822882643038 0.04842881684637197 
-0.02032912305314125 -0.01911602052433689 0.0132813951886022 -0.01675214461559752 0.004473897289804456 
-0.03504678929084432 -0.00431104054386317 -0.003978574640468641 -0.01635355289846297 -0.004902418057732392 
-0.06969330459504862 0.02030820113823536 -0.0128567867306347 0.009626281236943568 0.05514119719167611 
0.0298782353949936 -0.0483408558235012 0.00560556058753024 -0.02093217253379132 -0.04596112794575836 
0.000974858511268836 -0.003549450610558253 0.03331727327808106 -0.0137396174745293 0.03073942028484596 
0.03871244405901499 -0.03107427721244324 -0.03297321482855499 -0.01923355236190916 -0.02063923627295023 
-0.3269699548212534 0.0737855007205018 -0.2158922883490637 -0.1060997781212288 0.2184498130461543 
0.007235879577765118 0.01813536999190962 -0.00643836768399058 0.004468976394398564 0.01384969359177281 
-0.003748658525167539 -0.01768709779751527 0.03753215666745693 -0.004770899784560674 -0.03503414774958513 
-0.057863958551365 0.04218140383678275 -0.002469747649262198 0.02372003597061799 0.04080460744629967 
-0.04431483887926983 0.02743737058393727 0.01025439158831015 0.01262906962178597 0.01987396192866909 
-0.008401742678095609 0.03021523701080496 -0.02137157573889113 -0.007679974239369219 0.05877252863887332 
-0.09362003947429638 -0.03349590249819009 0.009692255875487221 0.09012131623982089 -0.1687746395194141 
0.01700750278258551 -0.03468380605709029 0.0302801866179509 -0.1026798038119303 -0.01239117582327288 
0.01368786254926106 -0.04555643854564135 -0.004675731338971969 -0.05197993277739966 -0.06346178813946642 
0.03038553282552576 0.07866800093551093 0.05229842995146634 0.06010641381589443 0.0277708440525158 
0.01119863562924952 0.0065456382212496 0.01311366053884497 0.004668314809309087 0.006443975466957534 
-0.02376559001267723 -0.002358921257717157 0.01801093379846169 0.0001670859041823573 -0.006815475169009433 
0.08015161062760978 -0.01664981635308274 -0.04421256111872229 -0.0659431434863047 0.1124420140062943 
0.02678883869249386 -0.01309243632329895 -0.003765311004599693 -0.03972970640376359 -0.001611823832196414 
-0.4318483948350899 0.1224161222191919 -0.2540604474761894 -0.02891840119559238 0.09504547781627136 
0.01270242518087444 -0.03880649284614444 -0.03141355284003755 -0.02920878045644472 -0.001440750779359058 
-0.00630714570015216 -0.0123436666537542 0.01947772674019066 0.008988682804657292 -0.02464355375541061 
-0.01576944562714148 -0.00731392420259532 0.03631346415696223 0.02978367716672201 -0.06926873305222297 
0.07741789913340838 -0.007888313024808677 0.02048479239078865 -0.002834973872310307 -0.07702568686356569 
-0.03308994802431662 -0.04458382897882116 -0.03833500601082085 -0.06012551636899068 0.02072384312877965 
-0.03230615971166794 -0.006759976608537941 -0.02153404104313104 0.00288672198594338 -0.01148999245504246 
-0.1724953422581325 0.03352746410498667 -0.07407502207066334 0.01469955473945305 0.04814142729592824 
0.01181331815611952 0.006272040665564963 -0.01830010085676646 -0.03382393599788058 0.04827807445389547 
-0.03694264192880505 -0.04381166354950914 -0.00442387084655449 -0.01038259976303531 -0.05771871728709668 
-0.1002797787157755 0.02790762453632848 0.05428875435025701 0.04541771138229087 -0.007003114537857231 
0.1411786072084807 0.001121516894368674 0.01974593895861571 0.008451928662759461 0.02081669653942437 
-0.02807730306151293 0.06142019641943744 0.01763483952794681 0.03160416295605988 0.006579525745522123 
-0.05540454064199603 0.05112391146379221 0.01956715327954919 0.07806733861543393 0.009009705417842503 
-0.06842497171859853 -0.006395451502132985 -0.03732618151976786 -0.03790347677055773 0.1457392222380469 
-0.01236533301636873 -0.002057186778544406 0.01558860804063685 -0.008278685783591941 -0.02846025682544034 
-0.2721330411466042 0.0008849188959568909 -0.1854858208290624 -0.1179239843094897 0.1734313317180737 
0.03445856805737511 0.0001297755670047161 -0.05026091575449875 0.01105128127726631 -0.1252030677162365 
0.007205817339724035 -0.0646361207050776 0.02203452364000465 -0.02251396689433594 -0.02594866877609303 
-0.02367128146611013 0.01028740783175393 -0.01273175484275943 0.01729997653388481 -0.05654821436790589 
-0.0002270056557569032 -0.01241171349495155 0.008126329707080984 -0.01766398956047216 -0.03082841811726023 
-0.09398891366295124 0.02160192433700289 -0.07575776038963447 -0.0420129517546142 0.1258713168192775 
-0.08280471671638824 -0.05569511297819634 0.04677301526979125 0.04171979689622882 -0.07486615294728888 
-0.03528314642865262 0.01972125148994108 0.02723282143779717 0.008502488609139392 -0.007527708899101423 
0.01649614754704449 -0.05183086687419214 0.03910348774097654 0.00364881135822942 -0.07203702613722301 
-0.03553061606660843 0.02997838349484896 -0.002061143364976429 0.100801320504714 -0.0192833183842263 
-0.05053487945832769 0.06693374251503745 -0.02577173666121684 0.02877263527508669 0.08871622785387222 
-0.006882504107369097 -0.008600833731296017 0.02831654069158948 0.009493726206829773 0.004722920128253025 
-0.1053776453298655 -0.01713026248151918 0.03080370708169292 0.08786136481859434 -0.1742992796471099 
0.003998570865767997 -0.05465020569159543 -0.02777841205980355 -0.03972022692369168 -0.009293266812613544 
-0.0186045863544543 -0.01110727025303805 0.0154330012465641 -0.00422374755121199 -0.02248041131319034 
-0.04509059275706946 0.03533634733509412 -0.01405549082746234 0.04589786355282409 0.005362874701154314 
-0.04267879652807903 -0.02989205535495818 0.08370205594217248 0.07643079917468545 -0.1020586127080877 
-0.03536420597050167 0.005749901658065279 0.01205213360264112 0.03926336302464088 -0.04138203812740011 
0.01930067250307096 0.02066479242253779 -0.008902901955865346 0.01829108751081916 0.02244746315103619 
-0.08533028245125297 0.06056040605477672 0.05445233027729698 0.08996902362969782 -0.03335662442356094 
0.2333549304428548 -0.2755101919917655 -0.1075839279741827 -0.1637788891914624 -0.4497317967905762 
0.05648744337851603 -0.1323770230355416 -0.01503640179969865 -0.131485317455573 0.004981573388788019 
0.04260668069637488 -0.006973153101313505 -0.01779285854789174 -0.01433194514598887 -0.05943332299286307 
-0.09268349943568283 0.0299204480414484 0.03010250776809483 0.09203734054520428 -0.08595625675033619 
0.08179190702978735 -0.006207027593247196 0.03601154015996602 0.004705146390963836 -0.111620504124601 
-0.02149040216641162 0.04340361372852379 0.0008772962341136766 0.04286259765732362 0.06993762334215534 
0.09882933344979493 -0.05110860472878713 -0.02438233222768608 -0.03896169875752071 -0.06156026154552645 
0.02864169395277024 -0.02299263106738506 -0.03436993826337609 -0.04925723608944697 0.02626826623629804 
0.004964108637308737 -0.1164406163851877 0.04969831619773239 -0.07269410931879994 -0.1832793009284134 
-0.01695540272621234 -0.02043310745338002 0.003916415022049608 0.01219022960704904 -0.03475942766030536 
-0.006529949410267386 0.02006391817047426 0.01606723206172133 0.005718686178945196 -0.01299682586911875 
0.04325585730022377 -0.0313201043535298 -0.03740705007297492 -0.05725510501162635 -0.03424729091716139 
-0.04282392851072118 -0.06655013496804769 0.006767037604798716 -0.01323524617003492 -0.054223825217412 
0.003059414911133835 -0.008910580933367239 0.01196765809754409 0.003709085337248088 -0.03556535138878655 
-0.02929901372525005 -0.01284724809945274 0.004407885212802644 -0.02490521894199816 -0.0002419396504327301 
-0.1124508600076354 0.07679690212096177 -0.009688054082355176 0.04658203713651918 0.06662463397633828 
-0.2172439692793356 -0.2447765266220752 0.1519982269807026 0.0710471947983207 -0.2725347818289973 
-0.0336707768805103 0.02421094393111181 0.00273329742329405 0.0290677900847593 0.06509246856728254 
-0.07453813200691126 0.09501264626449218 -0.05785185091379583 0.01779741003553079 0.09977912243942111 
0.03223914728072078 0.005632784364143286 0.02518099498317335 0.01299634124311947 -0.004018430191600118 
-0.03966438679550192 0.04984767693463355 -0.01511340687910576 0.01895400893246369 0.06245962655754721 
0.02762248298547792 -0.0699545202355812 -0.03721636304999673 -0.07097311393395163 -0.051511838183823 
0.09980472374815069 0.007797483654768863 -0.07315259741219986 -0.03528847397747609 0.07333552658699299 
0.0760887307783089 0.01974473497528528 -0.02921408140955004 -0.02546571527262647 0.1039313335766321 
0.09438588771475158 -0.02219539764837113 -0.1019037913280733 -0.06723427650342823 0.04568423092072855 
-0.1365075216200881 -0.0842483296638422 -0.01090474856579406 -0.02076825882088656 -0.102212541410852 
-0.009042663103351393 -0.05657345359361766 0.007211186799692086 -0.01878715721079592 -0.01488660302445248 
-0.04091181671240533 -0.07241137962548704 0.015625789141356 -0.005534894402445754 -0.08983982872058362 
0.001719028845597327 -0.0293886031254045 -0.02456203135412132 -0.03976359043220139 0.0224035721382851 
-0.01922184100946267 0.04642058232452507 0.04082009576264686 0.05199748065878737 -0.002770909048665438 
-0.007977729899033477 -0.1195694902514662 -0.003502717742912684 -0.0764564870207364 -0.1437385633968842 
-0.1327172307286773 0.09076429840059003 -0.04043195635409642 0.04684929673085533 -0.01899231091689044 
0.270659183244471 -0.2733576760075866 -0.1415392370772962 -0.21028288806997 -0.4008925977979518 
-0.02829399806116652 -0.03897295703305947 0.02863007280204373 -0.01750814401356606 -0.03165479325448418 
-0.02355942144688668 -0.05536169033038457 -0.04332137030804821 -0.03187468558842276 -0.007344623245269667 
0.03402954388625067 0.03379365107870289 0.01780490645803169 -0.01744587790777782 0.04262185984723304 
-0.01827660273419219 0.005492031604827419 0.01011697043072004 0.006126108336809256 0.006699388936397325 
0.1378339538580374 -0.1220027564820148 -0.03003590311957905 -0.0774517779752175 -0.2146016785030514 
0.03991599923833396 -0.05584483210064438 0.05322994724196325 -0.03299587345777127 -0.1093433002432688 
-0.098664030847676 0.0814971695786726 -0.04643320364226793 0.0006539647511076641 0.09235473501146921 
-0.06001312060662001 0.04409073293915181 0.0004308853459313753 0.03745430203234678 0.02830212371604443 
0.0649066460962042 -0.172990450374299 0.03373846964833633 -0.02604830888363089 -0.1669721515914419 
-0.07004119335759419 -0.02505631739558004 0.02946558277854484 0.02535946904991444 -0.01783119496712657 
0.0005263797635982573 -0.03690015730391132 0.02692250745235206 -0.01697913707253994 -0.05277343987340992 
0.006350786566973143 -0.02767661636946875 0.01108462518577044 -0.01237276882058023 0.03131584414870114 
0.01145826614622593 -0.04386331063916726 0.01533920218838582 -0.03128036143030304 -0.06643604017043697 
0.01648567215680747 -0.01037578515967624 -0.01038727700786689 -0.02687303059562899 -0.004126989152135896 
-0.0145069339105861 -0.02190806006610472 0.003765011697050039 -0.001366571442126494 -0.005951176003885987 
0.02305875893600358 -0.02806575857307049 0.01823893884014198 -0.02392438646563082 -0.01342000091017967 
-0.02853616268930894 -0.002514148278282525 0.007304405623077242 0.02298972526476034 -0.004600399133858397 
-0.00216343408659119 0.0008180549897440622 0.01327940621696418 -0.01801878749344614 -0.005829745895406906 
-0.006550334809561012 -0.04663151266072866 0.0301688296205672 -0.007464578798757248 -0.08499726854067349 
0.03706135372811024 -0.1166514473632247 0.004373762037612318 -0.08174475845649132 -0.1248626395802657 
-0.07015555859388994 0.06925549436531289 -0.02950456620792576 0.08844452729195444 -0.0161217186068935 
-0.02847001549394663 -0.007047961163759085 -0.0007179963116937387 -0.01273402818872436 -0.04868624324844883 
0.0332743357835552 -0.05161730194449382 0.04244765445067152 -0.04000239448967545 -0.1952094183451056 
0.04282177102749996 -0.02786663524118934 0.02678055176724643 0.006271728890578344 0.001246143367074878 
0.00227305450945902 -0.02530265029893073 0.03272275734536927 0.01044303591567793 -0.05885199937544529 
0.009917322035293304 -0.03996082434564408 -0.004790104607076359 -0.04829989460734741 -0.05171661655937147 
0.05797573328100737 0.01335894102380285 -0.006030766727043188 -0.02262893666553329 -0.04116603686693072 
0.05130181574925473 -0.01939705013242866 0.005401941145381273 -0.01295758221281986 -0.01735327769860887 
0.05196791860098976 -0.04510000687342877 -0.05311014896510587 -0.05195553604552242 -0.04665501840634192 
-0.05712191867520269 0.04875738135237723 -0.04045597836848464 -0.02108360031234204 0.05469445739048479 
-0.040353373410107 -0.04270103634551087 0.04463818572347816 0.01060775873155625 -0.0533935679792177 
-0.0103183241018482 0.02411720327610105 0.008287172014725189 0.008867891111864638 0.0209836115571548 
0.01382498652967729 0.09018594128537903 0.0386164210592613 0.0678809937483715 0.1257518960883729 
-0.06891324581998484 0.05223071483314211 0.01915350174459413 0.1134982040719052 0.04141329390801025 
-0.008080374590205705 0.05687498353722415 -0.1174239781956689 0.05247736294812257 0.04074104882312362 
-0.02088022748644185 -0.07586177538140706 -0.03157786488846096 -0.1018171392091803 0.1391117526624625 
-0.01078451006844061 0.03326687236178505 0.01267187781326918 0.01758983685078349 -0.02902936788180837 
0.005934340192327532 0.02168185699535081 0.02660881647246276 -0.02326055039842222 -0.01068490143033465 
-0.001972165701049958 0.06666874095707841 0.01266835691900113 0.04495010001635089 0.02278776220605574 
0.06802509475844942 -0.07311106831798053 -0.01382578106036092 -0.1026241543631009 -0.06001321698111636 
-0.09352168571174754 -0.03715890385115168 0.02672545959582853 0.013466246666116 -0.09849900677483732 
-0.1738135957208514 0.06308760060787638 -0.06500431264529581 -0.01440188575294811 0.08186012098045806 
-0.01522113546183029 -0.06132183428858968 0.01831228727111886 -0.02581550207147165 -0.1701092185078848 
-0.07339279833463561 0.005507446962459205 -0.03361098823310972 -0.01464014846461104 0.04701467372756422 
0.00876222091517969 -0.02235381292318646 0.02540066955529157 0.004207016785979913 0.02291548946368757 
0.04202845935607549 -0.01573995569011122 -0.0156474400606285 -0.0259305435819223 0.05286883172861792 
-0.1015886615596128 0.03101601273175249 -0.02917818495955077 0.003701152007798974 0.06148563083925816 
0.00544181794212908 -0.01925157270985535 0.003258379145088153 -0.002956013133110654 -0.02430227731411213 
-0.003879262700150083 -0.001359418993138938 0.02586757305987124 0.03047742646211724 -0.003854720211176886 
-0.01235779033784394 -0.03312380667802887 0.003319216760097859 -0.003682005298116673 -0.1029789155067993 
0.01421613684350435 0.009040451558864834 -0.0181013357481889 -0.03279113512358779 -0.01337024006320432 
-0.002575873469769266 -0.02555635537990256 0.04625191880068629 0.02079226100803994 -0.1139369215057542 
0.01319973603599117 -0.04566421855944841 0.0225791220422234 -0.01739215109984265 -0.08663621808249743 
-0.04477090054163106 -0.05269283419652029 0.02293464738953374 -0.02722618258120682 -0.03599900374787265 
0.1060508789642716 -0.05328876946569923 -0.01590729772000557 -0.04565229108699027 -0.06421906527670788 
-0.03662092027121799 -0.01094917600054034 0.02320574396895196 0.003675218170329001 -0.05772231752242144 
0.03399872924200881 0.03890272729698306 0.03542133988845567 0.01859452387587639 -0.01675340920236903 
-0.4309557161053635 0.2977227345512243 -0.3365993820434713 0.02182164187455272 0.07104318168046803 
0.02044224140585334 0.02944397114530966 0.006234252618363732 0.000545867929826419 -0.03389026469200402 
-0.007523395109121097 0.02255803312970561 -0.02419927640666062 -0.03224584105562823 0.05319634291951034 
-0.005288501439031237 0.05522147427390178 0.001137750464293827 0.0480869419291578 0.01071736197687958 
0.0003127958418109229 -0.06491426809505588 0.05944557160318675 0.01927739749250334 -0.07885487754614984 
-0.01902226963622319 0.0178442408525661 0.01502611137647222 -0.01758606603806714 0.004298678468812043 
0.07957932126344622 -0.08312975406591369 -0.007818912025509214 -0.0577134194721776 -0.1100067897070509 
-0.006765186072158451 -0.01570395083992375 0.01407300991880381 -0.006039581149459131 -0.0589780513005702 
0.01299361132587345 -0.01092966043161149 -0.002203638033399447 -0.01834887466404093 -0.03394996731629644 
-0.01699706929263729 0.01814274472547673 0.01150100032334715 0.01677776650008454 0.05724820250049412 
0.08039874345208974 -0.09308617396563547 0.05996963616976406 -0.02217910090172176 -0.155481478135741 
-0.03967302512022937 0.04141269497672294 -0.00628553603036255 -0.01116619818715815 0.07204027489440194 
-0.009694491961631413 -0.01650055877552854 -0.002246649424599761 -0.01905427795614117 -0.04554531962222257 
-0.05076930366213309 0.04589735469090486 -0.01505416125749494 0.03902438346671722 0.0519663227355948 
-0.1824284143193157 -0.1936973104129962 0.2658036664603335 -0.06574328750346886 -0.1169524211565375 
-0.09593894944731424 -0.03848124959365062 0.02249643353392454 0.1008921247575667 -0.1912930909994422 
-0.02267179392609288 -0.01653351800864082 0.0001432081762380117 -0.01621564724844574 0.02365136741968594 
0.01369778605810131 -0.1104640509291668 -0.01114587451021375 -0.0888780832131395 -0.1104556327597971 
-0.04883645368647901 -0.0559563437469625 0.02361142945156565 -0.02583631476832455 -0.09548621896568238 
0.005337525996844229 -0.02966104940360652 -0.04961010225435558 -0.03879166709289816 -0.04375734557153461 
-0.03076026791775627 0.03153749957334663 0.03132611256991481 0.06407786245677999 0.02322594899475241 
-0.1057507888690089 -0.02158211146212839 -0.03175669589074685 -0.01846188357108218 0.06483619903697174 
0.04872838387028159 -0.01017232199531144 -0.05711367114591236 -0.08471537403502627 0.02593803645430269 
0.03894557567543787 -0.08057354134364693 0.008250874598599231 -0.04479093306516262 -0.06563858728239613 
-0.00309834546786595 0.01514900580879052 0.02755050263836738 0.02246093606591104 -0.02836050184140965 
-0.03169125624936703 -0.008349349046628601 -0.02263766398548511 0.04193694866134629 -0.0278578863930944 
-0.01337018670704032 0.01090896767519138 0.02041166309031027 0.0257745183023924 0.01470346679064972 
-0.05738462948960951 0.04394174136092234 -0.05587823848599315 0.150632164112083 -0.03401366379070699 
0.01477802746280336 0.001706308622842102 0.0005930059494077882 -0.01101770239967 -0.07398062460868089 
0.006273473267904622 -0.004070594836094814 -0.007892685913497623 -0.02756833493672883 0.04073524782235406 
-0.08156827642796195 -0.06581668841008974 0.04069334951047137 0.05738946346159344 -0.08973196032563206 
-0.01664941627271721 -0.08034877790166367 0.03974524034405895 -0.04408200755813148 -0.09990369566094928 
0.01243301009258718 0.106715054021773 0.05863806078711681 0.06042312192373343 0.04904176082674404 
0.01138262596172546 -0.05262046755112666 0.04331655203206013 0.0130706191603757 -0.1021115483124697 
-0.137120507736302 0.04964742690288045 -0.02229206803603561 0.009429823974917345 0.132481548555605 
0.04465041104569567 -0.09509931581826636 0.0498545720039261 -0.05647624399913027 -0.02971062056923245 
0.01044520895281723 0.01904849809449911 0.00139793300540396 0.02001319651659089 -0.02313936287248442 
0.1552745194821736 -0.2116167162231957 -0.07020298463550496 -0.1621705703770354 -0.3204810788565424 
-0.03725775664526877 -0.07563866338777678 -0.02107736929566215 -0.08690012049346528 0.01248591469955493 
0.004780229286627826 0.008592943752950652 0.02805917345348433 0.02983297708766937 -0.01326180477582397 
0.03525895537789359 -0.03057992680726575 0.0149056711595953 -0.01342276743213016 -0.05429726303589695 
-0.005473876747625579 0.003387379190710783 -0.0202004974679717 -0.01270484742685559 0.04020156983602432 
0.04280832671488773 -0.08997978230674425 0.0135562582658654 -0.03393042559960027 -0.03431394556128601 
0.1929312563621058 -0.2075091031530869 -0.1005120931938899 -0.1718374125705948 -0.3244064191788738 
-0.02770578057617988 -0.03412696942009023 0.002313289088489926 0.04688565351229459 -0.08398680388732094 
0.09759190821683086 -0.263985598176993 0.01758974185177825 -0.1592827844353227 -0.2935034939032758 
0.02736618046013931 -0.041450250619247 -0.004443320338104751 -0.05427541821017679 -0.05737037505172834 
0.03392413597003936 -0.02219738909004616 -0.05447717992583508 -0.03633650678965544 0.00411692790564459 
-0.1886377725066221 -0.1086197702562984 -0.06145606089363226 -0.09522042626320668 0.2674105828593418 
-0.0102199724596552 -0.01655927823021994 -0.02053662494586681 -0.006230554194580877 0.002490801958937312 
-0.007976023745577404 0.03274420126889671 -0.01733048778122484 0.04513079241672462 0.03015240316098782 
0.001483106278014568 -0.02454983646915253 0.01698931031671413 -0.0130017947092283 -0.04250914846849847 
-0.02154978347049042 -0.03050597881969058 -0.04614976281846635 -0.05438767916282256 -0.01067114001791546 
0.1266149936864511 -0.06095462690433198 -0.0753641018227626 -0.07670189756677859 -0.03908648150422117 
-0.257769156913413 0.1336645913020886 -0.04097513715210041 0.09774007301454178 0.111815107528683 
-0.4163102997149644 0.247291146378433 -0.2381697007220496 0.0002142394173173601 0.1066703698772136 
-0.05433429110280496 0.06208389316917032 0.05018645783218786 0.06603868166435625 0.05420151996384606 
-0.005951903769745786 0.03224114699206954 0.02642010668116948 0.02129800640319825 -0.02970679726485424 
0.009103381588752325 0.03541929259432092 -0.007491214379398529 0.01505102101830644 -0.03381662818480093 
0.03247417763969629 -0.003649076436395221 0.01254921027400375 0.007516690237234053 -0.1029512453733214 
0.02295316350878726 -0.01002913492829009 -0.01640314148399832 -0.00429582949065066 -0.01382734806785474 
0.005046952570624684 -0.02262353758888858 0.009464809290109937 -0.02277258147156491 -0.08947543583789636 
-0.02478343339750227 0.0005446623975873851 0.01672064538630176 -0.01773493914804108 0.04845811095295584 
-0.002215930897088226 -0.005816010227698041 0.01002740333851871 -0.008202156477338277 0.03478511134562638 
0.005654019691941369 -0.03377579828618474 -0.008465289748573824 -0.00817127281575202 -0.03455149426316751 
-0.1611689292205841 0.1337121397908905 -0.1247330732121759 -0.04892067917024132 0.1616669772534401 
-0.0081122182154781 0.01767859735421801 -0.008405942536640868 -0.01968666271477832 -0.009442267543408846 
-0.03694191132852364 0.01577161554841222 -0.006131530397228421 -0.001056936179385533 -0.006689860888120054 
-0.1394184690315255 0.04542050259656717 -0.0333097876533827 0.05636079300714539 0.01459459784388155 
-0.02031364427029697 -0.004744495051626387 0.00899036489595852 0.01345891866368037 -0.01645458800362803 
-0.01385759749916266 -0.004474965840243406 0.01125685574850148 0.01201681027703712 -0.02479403958097733 
-0.03305651104497681 -0.02208891826993077 0.01452517161831193 -0.007937643138773008 -0.04641008042686706 
-0.02791156386849139 -0.007163829984640193 0.009164941978688484 0.001901436440659068 -0.09118911892861441 
0.03901470836409264 -0.05537305351006662 -0.04159987558152493 -0.06088585627793711 -0.002100436897971895 
0.1003827788031914 -0.05298640892209942 -0.02438478433915958 -0.03664687486586021 -0.1453854088715021 
-0.01524757590414004 0.01471402324860881 0.009441456447751718 0.01067532774637816 0.02724278421218787 
-0.06788702980617856 -0.01091758745552334 0.02564836522771089 0.04898497627576522 -0.06068831711373193 
-0.1884780300936366 -0.04537023820619988 -0.168748442566978 -0.09408545482312532 0.1294532560854689 
-0.01089636781649072 -0.07313221630376533 0.05269123967204047 -0.02735972669327233 -0.1217523948340215 
-0.04239993446652848 0.04024122929265146 -0.002673424241735367 -0.005576991827552317 0.06475359554967136 
-0.003174088127982425 -0.0001447783041775364 -0.01995419722640798 0.0052650442021944 0.009729532737901503 
-0.009605945038119271 -0.01377803294349525 0.009005359443811877 -0.01136389218513145 -0.01883715530360262 
0.02617191140882295 -0.02704710526502329 0.02496155662074854 -0.007235943626823228 -0.02730713750774911 
-0.004910238500821557 -0.01298448188083071 0.007270474497495147 -0.01956813697665332 -0.00656394036287215 
-0.03434998373360504 -0.03122673490588864 -0.02246165869330896 -0.04468446258814007 0.1739474046193058 
-0.06807716296839747 0.01663082478824342 -0.02436677891588934 -0.01808354878830295 0.05329233105741078 
0.02770090925013457 -0.0205525946049514 -0.007065731859891082 -0.008366501651933582 -0.03651888620638397 
-0.01640534268186407 -0.04808698746800685 0.004743823017894075 -0.007514349181581568 -0.01571057931483884 
0.01687319450684971 -0.03897812726702053 -0.03210153929027139 -0.03993926273080848 0.01495515798718655 
-0.01671600817482133 -0.005317655081344374 0.03271301084255636 0.01410671143785421 -0.02503033053396475 
-0.06222509620290679 0.03610726883771263 -0.01791332945743382 0.008341052120731482 0.1434237192886297 
-0.02135642536638897 -0.06175270242593761 0.06277214840791316 0.01687767625417312 -0.1180228062269409 
-0.1565827726279902 0.1062788371509801 -0.09712167276012741 0.004176921555887707 0.1370802660037198 
-0.03952456053169921 0.01141318560208398 0.01873340559867619 0.04359300564280032 -0.0223806069842215 
-0.05120484052769429 -0.01111326714640688 -0.04687580671459402 -0.02416501191413085 0.0994169118054247 
0.03211548114832511 -0.05515277804822933 0.03337669231681821 -0.008701169694168025 -0.1293506926918697 
-0.1928655347778457 0.01847564778421251 -0.09146406500502849 -0.04248065888933954 0.1696263563288309 
-0.01869952365306062 -0.004881798040484124 0.02800002055744762 0.02636724371883822 -0.009134201191169696 
-0.002933074639141648 0.01699805975858902 -0.00407668414471868 -0.01842826287327471 0.06987635878697866 
0.2100754303117149 -0.08320370676135719 -0.08912622340658756 -0.06407298253253096 -0.192009836291669 
0.02411663057352622 0.06100925597952083 0.01769158481129142 0.03027247848211972 0.01297499237099171 
0.0855141886487102 -0.03275414879319177 -0.003167120377158538 -0.02704464874595877 -0.07596296189440366 
0.05012775198440544 -0.07964177943024492 0.02426466078105322 -0.0195303871275247 -0.1110788312255204 
0.003994533985833026 -0.01184460239350329 -0.02152382029453225 -0.02029819156011211 0.0415491307100336 
-0.01697100094685519 -0.01268440810606927 0.01873150529408154 0.0339665800792794 -0.004045223215715756 
0.01052937320158485 0.009446217905217866 0.02716487686080439 0.01465668279674941 -0.01270736286515776 
-0.06265508284595586 0.008037099785370511 0.01515884202984689 0.0199000604894464 -0.009188207487038287 
0.03487145447759455 -0.04367823843196639 -0.05343482114427132 -0.05479611940990975 -0.01660831420315989 
-0.06429314830037115 0.01035819049990144 0.06143317578013073 0.03604454508945875 -0.009236323580258254 
0.008957585994886033 0.01980828175852 0.008057007330310357 0.0223823489353938 0.01503992908582098 
-0.00894697569466499 0.07257453224672721 0.005610458831693265 0.02974658578156409 0.01073256633360554 
0.01006687021076192 -0.05003446970073244 0.04284915789322814 0.02253186313510313 -0.09391303119488065 
-0.01297959231938111 -0.03960321215744161 0.07192645916774563 0.00489055893022759 -0.08920344832354332 
-0.3757289662796434 -0.05666377829283334 -0.2589481405309874 -0.1783573155769553 0.3954216606289564 
0.07382092908463291 -0.2162397897678198 0.09141832865569155 -0.1400316086914865 -0.345568446509013 
-0.04176645465867936 -0.01706638679599503 -0.04366524503990153 -0.01538445640630867 0.09869643308968012 
0.02812436249029665 -0.0024192973507606 -0.04226254649701899 -0.06761333633468766 0.0468481338864283 
-0.04490554149080141 -0.08585383119209716 0.08142507599471424 0.004793586511142244 -0.113597525583488 
-0.01092493496942719 -0.01277959542626971 -0.02042468931476645 -0.01523532622938378 -0.09143212600401338 
0.05649244406167474 -0.0186477078610959 -0.001697829770174757 0.01096064080664256 -0.0387191316391885 
0.08198559215995195 -0.05233268874032274 -0.007788773018766624 -0.09497914403395868 -0.02444718847213573 
-0.03722496197180332 -0.03196700331422976 -0.02471250426167036 -0.06124924312038159 0.03998785356243653 
-0.104186888836194 -0.06580779165277503 -0.01357462792311126 0.05887515909090629 -0.2109566410203512 
0.02750822656521289 0.0645789384576767 -0.1059948034114317 0.08397388230633326 -0.1135394596019526 
0.09416815196454709 -0.07107727109060551 0.04709264484239788 -0.07202843020994845 -0.02553107977075355 
-0.07254993204243709 0.005474018117358788 -0.02251725165554659 -0.01272501460034346 0.03806780903530303 
0.008836267138646658 -0.01996667702137002 0.002069798463594801 -0.01173465490057487 0.01159254524833517 
-0.01009274413014995 0.03729004644168441 -0.01684141032281743 0.009641500696044324 0.02687451372783494 
0.01750892166550009 -0.08593607816223557 -0.02875042906472411 -0.07439908282328148 -0.07509675011549924 
-0.01514084759586802 -0.02626058838261459 0.0001160375601074795 -0.01821896788522836 -0.02102463824107587 
0.07266678328031052 -0.03618406029444655 -0.00587390910136558 -0.0233907973122109 -0.02759112963348091 
0.01648544582648249 -0.01266759403468076 0.01581340738589119 -0.02181680321949834 -0.0005759018716643704 
-0.01910928845925849 -0.03518447069557434 0.02584780470685322 0.02415520769803053 -0.02913674733160379 
0.01923778578664019 0.07191267125496269 -0.02808289858809663 0.05466138740723921 0.04950814245013832 
0.02735335120718886 -0.03153728008165513 0.00871250796898048 -0.01305905401854856 -0.02800256780765733 
-0.06099384341663183 0.03007687320412686 0.006592333492830672 0.01193787684242728 0.05741485807769815 
0.02801024093768239 -0.02352251504978931 0.04200826620667253 -0.004433910788942284 -0.04288650804024518 
0.004389302088757746 -0.0312879249830137 0.01980036854511551 -0.02234349232846736 -0.01862176999025686 
0.0416566880215219 -0.03828618976252648 0.02485128009766208 -0.04248103566708273 -0.08156788095509618 
0.0946819754960809 -0.009536020603136108 -0.0668436755190142 -0.04950121046657219 0.009250689323095458 
-0.007644609718319408 0.01769078311908232 -0.01005222256383899 -0.01807576043250357 0.019376606848179 
0.0566766395452538 -0.0310431942265712 -0.04017605054712779 -0.0438484200673219 0.09880386195613619 
-0.02426374083192633 -0.06482967674214984 0.007981989171252087 -0.02304144374712072 0.04453220161140094 
0.02037487201979148 -0.05545376037561774 -0.01048011097346969 -0.03449085687380087 -0.009967035741317503 
0.06271585453254563 -0.04743701004330768 -0.00234421935125607 -0.06784885767313803 0.01944453315692871 
-0.1133602026086149 0.0536193086586568 -0.03452512378917887 0.04857298688376634 0.02280445925784781 
-0.0009555007485430654 0.003029544658852563 0.001073065483780919 0.004061301869343144 -0.03045424382631176 
0.004786248015202249 0.02746184897813074 -0.009864599687888609 0.01499886315966291 0.02392444097189095 
0.006683015442275913 -0.02686171368757061 0.03355560683068611 0.007951492821756423 -0.04879651062285408 
-0.04408187148966629 -0.02885710387176107 -0.00182120647086152 0.00758985672921292 -0.02460015116331309 
0.01339540047342195 -0.01790621591045955 -0.0100949279021445 -0.01087142034456095 0.01342132123278564 
0.005670113718121829 0.107310101528586 -0.006659882933365043 0.07235174918841457 0.107383111754442 
-0.154615518598324 0.1312472672573254 -0.1336927836746197 -0.01487722871605887 0.1318891443191225 
0.04923015017327782 -0.106549116224087 -0.02997912349997731 -0.07042723687158126 -0.1424767615318455 
-0.1515965358564226 0.04469357936251079 -0.07284473677833872 -0.03325112838532269 0.1448314421118557 
0.1272685989376145 -0.1823423217754367 -0.009692731364230437 -0.1513464557663 -0.2826757335120134 
0.01902888133208478 0.0212733148254611 0.02194010684377855 -0.01942539120555688 -0.02672862429416522 
-0.01900733309414926 -0.02595832689840457 -0.02082103451282102 -0.04442345220129462 0.04115160288536793 
-0.0465989947016895 -0.02603812742432676 -0.09716946279707966 -0.08952710986177986 0.09301114212233137 
0.07065199414743197 -0.0735361858629944 -0.05017582251255458 -0.08585884955278215 -0.1454912360577551 
-0.04791221818810214 -0.04215535196506141 0.02906455977097422 0.01365047916779379 -0.08011024115876092 
-0.04459081081418028 0.05552627842341641 0.01938725153896206 0.05177501369976368 0.003642382609423675 
-0.01961826767187137 0.01034255338970907 0.007632035593567681 0.001454503922842418 0.009673247621947573 
-0.005130095180570907 -0.06079614070832611 -0.03235596029567039 -0.08792849965637302 0.08463698372720854 
0.03370381681214641 -0.03434700994012778 0.01862137996507997 0.02723460121766378 -0.06559827211565861 
-0.02984851274429635 0.0038782993832194 0.01234224622000102 0.01996488640840887 0.0562579444524562 
-0.02648265083335835 0.006659484566703565 0.04501573644502969 0.00517373084215563 -0.01213129069978685 
0.005779477516246213 -0.02483851739537614 0.04019186714717517 0.02912601471901107 -0.1907168701101216 
-0.08857852661647067 0.04602673103919776 -0.04025701150160737 -0.02419221820152637 0.1358571036485089 
-0.008893694659393041 -0.01952005890666924 0.009218713315951369 0.01130930099248062 -0.01427943438133715 
0.01855224865544401 -0.05251325243024364 -0.06291174891579424 -0.105406265717802 0.04458485204787018 
-0.02740405885671549 -0.036987929348946 0.03042788027496109 0.01554805158727319 0.01902560147848666 
-0.03391392302192629 0.02407204221174413 0.00793167116220459 0.03140381528376249 0.00991501308810832 
0.1495741367555813 -0.02876829784095418 0.006027383846927191 -0.0116681537685435 -0.05343796733127427 
-0.09296921370057711 0.04728479015437914 -0.09562015729386199 -0.0008330144227384146 -0.01293713488185196 
0.02252725295090769 -0.01421739330716085 -0.02238408380579992 -0.02337235863492056 -0.0181619107518038 
0.0242498369558587 -0.07677240877635814 0.01685741283931469 -0.0360781485144689 -0.09638143298845944 
-0.002488529166072737 -0.008812461164333681 -0.02325271870251516 -0.0583457754162835 0.1118590151261968 
-0.008218931958006982 0.01536383251564339 -0.01768580263800439 -0.01608874902247412 -0.01263616059525302 
0.1040229663441877 -0.114640182072093 -0.05870500350127639 -0.07761132708105228 -0.06736099567282701 
-0.09615375584881271 -0.02443480979590128 -0.08525063599151661 -0.0713590663833288 0.03396570842183471 
-0.03933852227022818 0.1373656280204065 -0.03140827473870725 0.03106212717447846 0.03584501709298012 
-0.05704189970215415 0.002304763136353458 0.001451489105400112 0.01790766960175101 0.04144249191178111 
0.08912918986956572 -0.1877483983919214 0.05359103002418419 -0.09231206815133339 -0.2957697171205451 
0.006103817590391599 -0.03323009682328735 0.02287645815321492 0.002207013802897577 -0.03253445085029483 
-0.07187192282809302 -0.04122356703525767 -0.004836698331623375 -0.002682400429882734 -0.07500901835461293 
-0.01293396250296675 -0.02540966134470968 0.04214816800363098 0.002870882744391275 -0.05483764930955787 
-0.08319772405855505 -0.006368941932585458 0.004794210764804641 0.0001845498858058895 -0.01216968604594934 
0.007876524495320269 -0.01483393313085523 0.000789963177943556 0.02425362459489021 -0.0216006588534534 
0.004478475138207653 -0.0243388705079522 -0.01689461154882735 -0.02226363472281574 0.001048211921644977 
0.06097518223669674 -0.1450052616619245 -0.02539940848903736 -0.109899871459605 -0.1579876652828839 
-0.02339670608074406 0.003945237047280044 -0.003758726609781613 -0.03772518042918541 0.007240101722929628 
-0.02008450837739315 0.0002394338961042427 -0.01365687085609877 -0.01867488837155717 -0.03294922683105197 
-0.05764459480932433 -0.006861093588243538 -0.01168112951482477 0.003421409078781025 0.0189888374888694 
0.01538896905728303 -0.06877588633748587 0.003979051439671855 -0.01710615257947253 -0.03341629303171287 
0.01980704059675253 -0.003186724882999448 -0.008187771668445485 0.003538508083474592 -0.05704640405387205 
0.06569436445434214 -0.2123393423186875 -0.002453729595698734 -0.1257946629211105 -0.3220607237406504 
0.04073699040149895 -0.09164366572620947 -0.06142863934784965 -0.07341218202002611 -0.03991105872482757 
-0.2955701840940615 0.006543304674033672 -0.1897812850434719 -0.08860781086253923 0.2756523573239216 
0.007438774267161766 -0.03296442875369623 0.003545248700473591 0.009720366815298602 -0.009563205822360376 
-0.01564456439376706 -0.02121729783422934 0.01288755721764771 -0.002873255369568704 -0.03066061624473123 
