solver_type L2R_L2LOSS_SVC
nr_class 5
label 5 2 4 3 1
nr_feature 1000
bias -1
w
-0.04034147321156701 0.005503499334380369 0.0237503673340254 0.01186879701846624 0.01603579176963232 
-0.03204474283668086 0.04572537668244701 0.015878273875558 0.04446315620698185 0.02849696416283272 
0.07223580577131598 -0.08092406305665333 -0.0777097419294297 -0.08001276291431172 -0.08488936071277776 
0.139655028508212 -0.1316111200528618 -0.04363207389015491 -0.08142393648368507 -0.1058783863863684 
0.06186037934856865 -0.05208696020517951 -0.08175978329664968 -0.01747559151651808 -0.1706939368450392 
0.01466597041280607 -0.01319495341560861 0.007728187368595639 0.004186644994857957 -0.002664355420498885 
0.08024428159662851 -0.0773104887394606 -0.03333233813573048 -0.07405145432250608 -0.02262055528202839 
-0.1612152365215375 -0.04579018186975575 -0.1186204145148913 -0.1005859468386454 0.2822695186105132 
-0.0005313453026129007 0.008142134676846746 -0.009693404721553202 -0.05098876407678334 0.02896841631750165 
0.01895378282283964 0.04210066930597264 0.01343295003991162 0.01027207640095098 0.04639646557464058 
-0.005031831037334787 -0.01788546318030001 -0.01132230310438256 -0.02372128336167678 -0.05995825766272022 
0.0044999769573405 0.01098686642846258 -0.002601612024922763 0.03697948994676369 0.05289726824345924 
-0.001486261775592789 -0.0402320335956162 -0.07349711361604667 -0.05648605984408146 0.08511482475027854 
-0.1143677884624041 0.01811994866689285 -0.05405071878702065 -0.03618793793148715 0.1018616093912458 
0.003436164022200281 -0.01261234508086034 0.009542133608641283 0.004110406243897139 -0.03365896753820983 
-0.02463768473361134 -0.00547613299247539 0.03018716275369165 0.03663960230245206 -0.06607165476312231 
0.04288010254208512 0.006223489347764351 -0.01468948759532591 -0.009332640819189445 0.001651200734353234 
-0.01189476883714065 0.03356200065007806 -0.03172540432205521 -0.01903716832010199 0.07080257744466011 
0.2423121018830572 -0.2716591538445434 -0.130392302943982 -0.1986661238951831 -0.3564259301731974 
-0.03173797215215305 -0.03225084329837886 0.02840893990285607 -0.0117206097557973 -0.05157998991746079 
-0.01152231834136492 -0.01010981517097525 0.04738142326110518 0.02750416126192436 -0.0272048198538615 
-0.00820103481146311 0.01026709267005377 -0.007821422788543128 0.006333351292584811 0.02495647075007137 
0.01044541155543513 -0.01355257493272797 0.02087593380552494 0.01057036056540272 -0.04397653247583416 
-0.0141379297289125 0.03871037050129007 -0.002991034775977092 -0.005203197404632697 0.04173312502667631 
0.009146024587611892 -0.06893276784092471 -0.008989253838509655 -0.0213643539463008 -0.06086295204362293 
0.02988534525484656 -0.02832011066452872 -0.03127476583633558 -0.04769360216544275 -0.03954815645652173 
-0.001279121717624919 0.002494007239773017 0.003725443644418551 0.005119649909112225 -0.01494378043619355 
0.02929570896265021 -0.0561963767032637 0.007892089156838641 -0.03808734527521571 -0.06883486552625014 
-0.0457521590877546 0.01798626012518911 0.02166157655347367 0.02267207349798289 0.004289760253007858 
-0.03798751864548553 0.01007334582682685 -0.005273416989931727 -0.001572177625871885 0.02787524496474339 
0.04735330605393336 -0.004560481544503322 -0.05124323874433611 -0.05082746780555931 -0.000329067056815573 
-0.003940266616914734 -0.02806457800476894 0.03188915689489103 -0.0141566410221511 -0.01319829549475997 
-0.1247174335779324 0.09909182410461315 -0.05663286955355374 0.02431732792527632 0.03152596028143893 
0.0401438820418746 0.04022547582619267 -0.04306672448830014 -0.001390976243576055 0.07251752161988501 
0.005436586886174865 -0.02253678584693003 0.007804801877987591 -0.003761693659449279 -0.05479571890990129 
0.05542785358941046 -0.02252510717195595 0.0009319949149642158 -0.01222812648495099 -0.04358731673238768 
0.001383132582175012 0.00586060762889074 -0.0007454771996775771 -0.002349212370222513 0.04317871050285173 
0.03112168887292376 -0.07695306699279233 -0.04169736320055421 -0.1024227180415108 -0.0982682130900363 
-0.04429767575612758 0.03021801396925426 -0.02260899578969213 0.004051880457908547 0.06873674614072861 
0.02642698098916114 -0.05101038360933326 0.02014337298737348 -0.01520208505187206 -0.02055307834529537 
0.00545159079422998 -0.02867360018462289 0.04000631393173498 0.004221802204356983 -0.03774244582271055 
0.06800731046629604 -0.04774782076779771 -0.0262772499745863 -0.05703408044615675 -0.04540808135188635 
-0.0501708227765699 -0.02053469400356583 0.01987871007164673 0.002662026630956727 -0.03037521954733219 
-0.004334588458423855 -0.002946565536902089 -0.01648547477740842 -0.0136667882553857 -0.006106042192154021 
-0.001773112740757491 -0.04920898973937212 -0.05425311368999016 -0.06391281680630874 0.01934478792078318 
0.001054533094533197 -0.02728442604133437 0.003320952359202491 -0.004423804285826308 -0.02664288688577035 
-0.01834091295346047 0.04142619707259514 -0.03484079604857321 0.03498734013573947 0.001310292419919265 
-0.05364769522846744 0.00160611992455174 0.003264001144056051 -0.01279613334377841 -0.02358101364932897 
0.1196919341851729 -0.08447038184075509 -0.01318951942563116 -0.09033912037432761 -0.1415808229821668 
0.02251998022731663 -0.01597780761096701 0.01345080290490312 -0.01245684811205837 -0.04471631874409087 
-0.07026665401899845 -0.006118525926566616 -0.003212033432953934 0.004488823342723606 0.06412813121971375 
-0.04302836994610294 0.03755484913086513 0.02354889968064251 0.04826276642406126 0.01792176330565318 
-0.03898840633142905 -0.02376603250066908 -0.003805190574797531 0.02272047201302557 -0.05763602221933281 
-0.008868925253386522 -0.04586403297847354 -0.02660504965541211 -0.03154865698917068 0.1005882645897895 
0.01282887201623366 -0.03046870297710592 -0.006268704550872259 -0.06014558261954108 -0.02103584364150793 
-0.0003539087107100837 -0.02022862653358923 0.01356966050243294 0.009300349950740933 -0.03637555698852821 
0.009330062049316613 0.007060251227877397 -0.01175064693331826 0.001934826056547908 0.01469397150875019 
0.01904684205522718 0.007685145290697207 -0.0007995116884149833 -0.004810386157660863 0.04090920478399733 
-0.02698016272965569 0.039630075097963 0.004325972732622869 0.01300616849106943 0.04598428473516939 
0.043786792182563 -0.02965923603754254 0.03132864592779012 -0.0180962093082407 -0.04082387995756166 
0.02393414045003639 -0.01289356348009159 0.02535093614479669 0.01694665457271073 -0.0198237161855851 
0.02183888628395738 -0.01163019383566584 0.03244815147711459 -0.01267735528534299 0.02375579102540534 
0.08291229002176394 0.01016092929161701 -0.04287850940911574 -0.04290148345497856 0.052863905572485 
-0.0006195964743181716 0.007126984334488557 0.007614703297823694 0.005649439480538729 0.04370806208605953 
0.02416134730937214 -0.005600799986772672 0.02321998057886052 0.01516917500149702 -0.0458430215501634 
0.05647815583112144 -0.04853178035828744 -0.01278057883211217 -0.03653443156789403 -0.05772471742701059 
-0.002090882427407859 -0.007696091945335005 0.01809647364423641 0.008250102367100854 -0.02573764112010835 
-0.03637184221349479 0.02478711392619072 -0.01988138090370586 -0.005161311529099342 0.08907051126975243 
0.02400595612844083 -0.128795049578372 0.04103477472381396 -0.0871845082340499 -0.1487332720647638 
0.01344807361584433 -0.03555098779772534 -0.02003440080251026 -0.04458128199661678 0.003131213526332149 
-0.0262506095862179 0.04700805460911752 -0.03971788958987112 -0.007023749252455671 0.06081578830799023 
0.04353807596718284 -0.09793813560052989 0.009480452775786729 -0.03254671139849426 -0.07276658605203484 
-0.01239182785062753 -0.04916506655110526 0.004607170537883891 -0.03029847807390203 -0.02843331736044889 
0.0303662759306836 -0.0453902074469351 0.0005857728568261303 -0.01824251707154759 0.01833650682177067 
-0.02189964551690411 -0.04485279946508473 -0.001435599580225392 -0.01839156778670041 0.01193962771023381 
0.02808160075677132 -0.1117094857797641 0.0454332150996874 -0.0305618498416601 -0.1666912071641603 
0.009873997821041999 0.0317254567052585 -0.0226911676173857 -0.03602805686628592 0.01483641837186886 
-0.01612828693113472 0.0455316215576572 -0.05211940555912305 0.02204875966545822 -0.004068149386727577 
0.05583803335022295 -0.03343421972576104 0.0456293283428409 -0.005209562698181779 -0.1268231862927866 
0.01698595403799413 -0.05204478589108042 0.05105121690504011 -0.02623315967219881 -0.03090602726846007 
0.01998011739995136 -0.008483216579251872 -0.004809589755196428 -0.01411588747065228 -0.02439545168557457 
0.1057067322466377 -0.03977859474883187 -0.02084007443079638 -0.04601837497151258 -0.05524828503624082 
-0.0137750716371362 0.06203303838025209 -0.009529975163186702 -0.001462726867751642 0.04825981310250323 
0.05475845598408319 -0.009272683506642539 -0.01766310859823754 -0.03617461302916008 -0.01139330752745292 
0.02364513238269035 -0.03058198111871801 0.02470518837531389 -0.007054684723036462 -0.06441988569489254 
-0.00482372506218403 -0.01518204798107578 0.03330145290603082 0.001318182089103822 -0.07080573238014581 
0.00102523292534185 0.03191971125122169 0.01109876692588994 0.02303527047328988 -0.01100105446900714 
-0.06681112201559933 -0.010141077603265 0.04502565661340148 0.05714494463875892 0.004236770799606524 
-0.123204431253969 0.1156567682220937 -0.02107898333773143 0.1149003812625326 0.008128512822211454 
0.05468676852221478 -0.01260499031195244 -0.006207310866971794 -0.01803970539363764 -0.0308099316676463 
0.05725511981735505 -0.1945979724515506 -0.0004584701881248295 -0.1426129577233663 -0.2617029200502093 
0.02418424475939337 0.005328332608463886 0.004611153929187865 0.01677616149465816 0.0007523077141136776 
0.01044620924417112 -0.02442183861557066 0.004920562487619433 -0.01651998550869458 -0.01624137443246446 
0.03104053971589976 0.05158028239730925 0.001090226039683038 0.03481428290148903 -0.03014156164780545 
0.02699088848041853 -0.04147882562749893 -0.0141636106268149 -0.02815495393697113 -0.06520195365111257 
0.007987165608742217 0.0227697400186752 0.03882188514607138 0.01990476148288283 0.008849029657842799 
-0.04963163558044772 0.05469228503314438 0.01838035427022446 0.0198765414272235 0.03386675808531762 
-0.06393362660639847 0.1045790400956891 -0.04515795145458279 -0.01349807945190985 0.04267639755310214 
-0.1048826500398548 0.03873466894829021 -0.03103601097288963 0.004633075639386103 0.108329473980301 
0.03556405320406586 -0.007057489903889016 0.03898769957969797 0.002111932016508405 -0.05690403318691679 
-0.04973875133083754 0.009521118341747827 -0.02325943163951039 -0.001720656024195151 -0.008544878671949684 
-0.01178242995962239 0.03991512978706081 -0.04161006316445416 0.03748951594347289 0.01912966501391037 
-0.009836137320822658 -0.08043338709879369 -0.06777862147695625 -0.08424601075226244 0.02079022005703903 
-0.04527829292259258 0.05147409185924694 -0.04293645607193199 -0.01251556306922893 0.07945125647909251 
-0.02206727720847727 0.04040646227506148 0.02545715857264784 0.03298012660867928 -0.02208766069704161 
0.02932299653033862 -0.04269414802430283 0.008216699660424095 -0.01641649526425598 -0.09765262455697721 
-0.01057376181285205 0.00586183522605304 0.00992772264249713 0.02191667994920769 0.000458982805427032 
0.04297808749475524 -0.02734785411629661 -0.01292028824632063 -0.0005886116240418599 -0.02716469519129499 
0.01443242147580628 -0.03624488120201606 0.01609779247943742 -0.01753447683440678 -0.03999643814243387 
-0.1187661166934022 0.02174327678159609 -0.08803043438882227 -0.0468060170529509 0.1994886167065311 
0.0204017556884828 -0.01308650530940229 0.01752326020302835 -0.02456557118978863 -0.02425404313828156 
0.007726053647091656 -0.02254643859152754 -0.01041751968483108 -0.0346121549655118 0.01803500389610381 
0.02651942019392474 -0.00109103373389033 -0.01713852638472169 -0.01344917743243224 0.06057120119260499 
-0.02422539892770985 -0.03676984415394349 0.04078135138207083 0.03188857081205266 -0.0823128396516722 
-0.02913419706222826 0.0107719120262647 0.008279307156117332 0.01960436870517982 -0.01039251658656506 
0.01471483365376867 0.02116890435206921 -0.02815565394235326 -0.003658901835516516 0.004166235024474651 
0.02003307554015251 -0.02478348059476147 -0.01239953376473554 -0.04138419923028965 0.0004447274374945335 
0.02703397525243905 -0.0119453185590255 0.01051463961212915 -0.00359807482413874 -0.1097619981960269 
0.01696911102817729 -0.1154533671151422 0.00186355523995815 -0.05924794020175528 -0.1504566927695316 
-0.007162486008586557 0.0180488028652912 -0.01162678967781942 -0.01351960444708136 0.0332526001828251 
0.007859426141610528 -0.02153535499776757 0.002686408453258188 -0.007720862967869979 -0.05097523035349064 
-0.001342214057478266 -0.04722200658616261 0.0140362602342076 -0.01975422203596237 -0.02273554129799031 
0.0402042398930507 -0.02873381450891257 -0.04310401816741873 -0.07385466147110617 0.1117845134640597 
-0.007340909764907175 0.005743309475245297 0.006711666868187085 0.007098728313281955 0.04893853696297594 
-0.164768478746971 -0.01357229524120858 -0.1111391540254995 -0.06601100900054997 0.2948246728508531 
-0.01643316081378167 0.003544497898079193 -0.01118623024773871 -0.001505395681244609 -0.002288320919051596 
0.07949072976950397 -0.07038663577015701 -0.02302633345708861 -0.07412478868651631 -0.01983999939091693 
-0.02558736757603933 -0.01060736986406974 0.01721453796349671 0.003231443842645303 -0.01694107489853139 
0.00470118643677293 -0.02331130003237728 0.02207318248815372 0.001507426849195052 -0.03587396899971076 
-0.02493600182581452 -0.02016345120267835 0.002950947946405772 0.009198061373125786 -0.01113901054089078 
0.03674143214651444 -0.03919616543220232 -0.005971678955878357 -0.03010452585269037 -0.05748299437479624 
0.003445923077587396 -0.009901967729456885 -0.01202739021286387 0.007982026851519655 -0.02685860821045951 
0.0001604660752810283 -0.02729367142616461 -0.01087579442903917 -0.01631664443008841 -0.09112895515308157 
0.007680707970240853 -0.01540374745382446 0.006058078581707862 -0.01578591715049472 0.01051115700113544 
-0.03487075829276194 0.003702338433540297 0.004252854433606472 0.01467282652790278 -0.03847606302624188 
-0.03460100071287305 0.01821508373827068 0.01572473002525468 0.02894248181206076 0.03476023535320301 
0.00511048347909886 -0.0132194740536569 0.0333849647286632 0.009178164764168445 -0.07902236653553406 
0.02082481175931548 -0.01617009719611891 0.02281120991014692 0.001353941043346211 -0.04883544765145831 
0.03456511899829133 0.03177781428009478 0.02563802101898652 0.02112144810174162 -0.01695593843074638 
-0.03607117575853445 -0.04272858236025037 -0.0753772248588242 -0.0973501322421349 0.212333040029933 
-0.09322464694888331 0.08587469201280831 -0.03906256642287382 0.03898724323409256 0.08863192145066336 
-0.05250455927069565 0.03669899414064939 0.005742189964076544 0.004816428687972284 0.03110578942521204 
0.2166324953172545 -0.2095015027094476 -0.1360259256265849 -0.1867302760425938 -0.3012533227173473 
0.04988158148290963 0.007385605927165428 0.01386032595075462 0.01933534369216503 0.02708152008848136 
-0.01937985765114472 0.04100674752960319 0.005376700108998878 0.0204179223118832 0.02030929520828562 
0.01431021237991514 0.03235484126396935 0.009999153227324208 0.00572777886285105 0.0359095330514559 
-0.03361525320873848 0.01708367010177604 0.01768098590451486 0.02739048656555169 -0.02515101648376635 
0.04328453846965684 -0.05480209707249338 -0.02574440919667836 -0.05073606695293586 -0.04681367636184523 
-0.001659661940396092 0.03342627274676443 -0.01977610298911435 -0.001910811911766876 0.001478902616211967 
0.02756424092016258 -0.01467972028937162 0.01058982823933506 -0.008380408819998098 -0.02387310520023514 
0.00739566412869925 -0.01797738259272633 0.01294290626619414 -0.004506047888369256 -0.008959207993396827 
-0.03059860096196911 0.03772035848664407 -0.007091731848635008 0.003547398622684076 0.0362165403366022 
0.08330148668560652 -0.05936759436282275 -0.06142486049493178 -0.07322307271953103 0.03421752680383286 
-0.0135460361261629 0.01729926891569121 0.008857300842864081 0.01931553940994986 0.03600918976272698 
-0.01290130625642734 -0.006443524393230782 -0.0343321758033528 -0.01847434544646091 0.04485886874137675 
-0.01078954643658662 0.04557224190618395 -0.0109250926045158 0.01390913757257906 0.06822415304916803 
0.001152505576320214 -0.05572570801649657 0.021747147967765 -0.02388303537140779 -0.07951436822597774 
-0.03113970880132618 0.0461443995291866 -0.01180484541463202 0.03326671937442042 0.0570477254295895 
-0.02876232796536254 -0.02169205551816085 0.01458404722986441 -0.001089842021927057 0.01752307967948847 
-0.07343689273957614 0.04219229972559597 0.02244314334741286 0.04608083457900866 0.02425488437134887 
0.01868588574698992 -0.07399351206894393 0.07432619428288147 0.01497752262470102 -0.08659765804410624 
0.003391280197338048 -0.01371967828467896 -0.02093380065420429 -0.02140533520682844 0.006491572312061315 
-0.0267060186385602 -0.01024299051697418 0.01489867588531616 -0.002474592233880078 -0.0568152154480239 
0.02174637418261732 -0.05480333069533599 0.007806311847229317 -0.0164761912822091 -0.06007994598842491 
-0.052697186065375 0.03821535419915228 0.05459676142647754 0.08264647167908722 0.009170430416266142 
-0.04839383242056335 -0.02481506486768711 -0.01112923377257868 -0.01815303282382329 -0.0276966299893433 
0.03088817696371964 0.002443684077312574 -0.03280389991593676 -0.02755631939133602 0.03550043561966845 
-0.02956566184834908 -0.01015644778104739 0.04330731377451422 0.03819545898629378 -0.05553834247776868 
0.007154420401312953 -0.0001013639329467051 0.02126015155804039 0.01601520143879189 -0.03204971381481507 
-0.01624418885821651 -0.006333714101106894 0.01385882436244491 0.02949356040522721 0.004051542918270225 
-0.01897533534371607 -0.004491879856654552 0.02961388524035794 0.009297047243723211 -0.003490468332011088 
-0.01041475844937563 0.02999051704552285 -0.003379843826297665 0.02735228592833682 0.07158648182158643 
0.002004387974045311 -0.0752757534819115 0.02852149704130927 -0.03905039303999967 -0.09869446181846896 
0.07201683729011327 -0.03651629431389716 -0.04540626423563585 -0.02052906873171025 -0.0199455981644111 
-0.03635913477929816 0.03462760953819684 0.005672903239120163 0.01907378746375973 0.03119394796636134 
0.01587556502320358 0.04652370767522141 0.01557672059349775 0.02659175545557121 0.03821396642416676 
0.01878759058652824 -0.02945640436918752 0.05636193829239949 -0.006728797546110078 -0.09437917504504036 
0.01705662469870715 0.04894516185259912 0.01883755174262038 0.0490616562743541 -0.02800916906345698 
-0.009248878897418752 0.003161196021528481 -0.01176325437797227 -0.01022238243308524 0.03164796519631025 
0.03545182415111348 -0.05132671663672189 -0.06701766596253146 -0.07989825017132754 0.03955761552083539 
0.0819487830674729 -0.08064701128246586 -0.04239768001168787 -0.06946734219421992 -0.07343330461689232 
-0.05850242674257219 0.02231004273847626 0.01120273464587156 0.07179707697804726 -0.032138016599039 
0.004251855280805435 -0.1069714621302006 0.01545429360061777 -0.09079512514941901 -0.1020567761317123 
-0.06424992235326987 0.04658773637511558 -0.01978214031736686 0.008717833535022656 0.04701375184654008 
0.1041651097754456 -0.2457656507154288 0.0147255940009906 -0.1463439797535855 -0.2344312939652186 
-0.02088230226498329 0.04495566851584881 0.01480579044703642 0.04052695813304542 0.006193820734948971 
-0.02212422265906923 -0.008658199952959189 0.01930919497257279 0.005954264877537272 -0.003432017535044624 
-0.005690456124324571 -0.01616496846089085 0.04618182920144809 -0.009885888157299726 -0.03739964266048629 
0.03526866602239254 -0.005331661114544002 -0.009836937634747142 -0.01244635879416721 -0.0433396060991422 
0.04064586739626442 -0.04145528510492792 -0.02566180961731805 -0.04634475196880333 -0.008981421671638429 
-0.01965079533685504 -0.08829043199573697 -0.07950777109480414 -0.09515552826149713 -0.07785147275304023 
0.02447749596068961 -0.00169770194314288 0.02376567850615982 0.006129766722768369 -0.01389706199641893 
-0.1235323516203071 0.07082902037980357 -0.08221678088014564 -0.0406004352453733 0.1773652301769394 
0.05254627167901421 -0.03476955633148172 0.01615771414994677 -0.02629443262537831 -0.03301396754426195 
0.03294122462276018 -0.03991910290715817 -0.01981652751702534 -0.02422798733631904 -0.004344099001902632 
-0.006404641513666689 0.01795198408938218 -0.01475132183950943 -0.01353379213687464 0.06491157603834535 
-0.001193278459042835 -0.01139689240945497 0.00847366661028715 -0.002912889616013901 -0.04036653784025225 
0.02513195056037915 0.0406865556303631 0.003613237601473532 -0.0142637541295755 0.03157041431655201 
0.02895463497264187 -0.02342738351103504 -0.002528057105967068 -0.0118144237962742 -0.0581320327914676 
0.02897442244061159 -0.04398913056533083 -0.01322650081442515 -0.04949880912344512 -0.05988864119523835 
0.01022916785696932 0.006584796538128681 -0.005328173351754058 -0.009929558726319596 0.04832710590059531 
-0.02691133263387423 -0.0070117888062324 0.001304913832380999 0.00236820119419697 -0.03623569157218359 
-0.005118929106717021 0.02911575935886952 0.0005431562714830418 0.03984340337663787 -0.007359887949916586 
0.03363409198857326 -0.01180476767095262 -0.01136400940527977 -0.0115081890267614 0.01968274675501433 
0.04323434660284425 -0.05326671146954381 0.01571778063758398 -0.04239049494366525 -0.06573435900847788 
0.03320518389878376 -4.077883590665032e-05 -0.01221715997442955 -0.02401848460221946 0.02901237040715494 
0.01953648378728176 -0.01168046591777917 -0.0177856947184256 -0.02163921448347823 -0.1115628401575563 
-0.01946670864340463 0.00868247397703352 -0.00440150556310759 -0.004283758318844904 0.04075476440259596 
0.005262822181353807 0.02500183660501079 -0.005983414556900759 0.0180311758162034 0.04697916475272931 
-0.1786992101665895 -0.002651777978632772 -0.03372187786610498 0.1607981267641063 -0.1275477381035145 
0.03570165079067102 0.02353015827291124 -0.02589856317258884 -0.03894550722403717 0.05059046094218495 
0.01329365541977749 -0.006788611055273501 0.02002584196759936 0.008051599053765721 -0.01281264625556663 
-0.07852969480535418 0.01345637317140268 -0.03957888771156982 -0.01616343371869404 0.1801314012672534 
0.02871783112045351 -0.01761897968543806 -0.04782454225120179 -0.04930016224152214 0.03070958288945283 
-0.05092780623280428 -0.03791910210278306 -0.02110116010296945 0.01377278255617949 0.1654734358922001 
-0.05564651760672748 0.04256888363698705 -0.009438387092168437 0.03590157001397355 0.01723724067459625 
-0.05743686120844094 0.0828901917160203 -0.07673936976442665 -0.002190339621500257 0.08884784114204684 
0.06071656146056235 -0.03194872756568957 0.03523154115631823 -0.01799579058305138 -0.08439385528720854 
-0.02471595672430886 0.07276809398159917 -0.01695785589288439 0.03618153322251259 0.05264626630176923 
-0.05054256038071608 0.03621471297010736 0.01936920615199704 0.02897167785869509 0.01220795547942622 
0.01796037885978219 -0.002541488763805421 0.001635037689016021 -0.01282772090680581 0.003965170363886294 
0.06032589135989554 -0.04356184113473232 -0.009358406890168543 -0.06475743836804726 -0.04880575624950369 
0.01078603196190983 0.007684053878891449 0.02880244725121165 0.01618055002731439 -0.01822784655930005 
-0.004494827584779575 -0.002180152420403795 0.01497662452067345 0.0003262552137575674 -0.01741146497975352 
-0.0003862808615932321 -0.0133104630335085 -0.02667239552638405 -0.02487333657509128 -0.003983771126201172 
-0.01555600196487511 0.03170781593129108 0.01388331068418612 0.01680353535002842 0.02460364436432435 
-0.01183156366235308 0.0008661749644293072 -0.02832073211059663 -0.02978824107496317 0.04892556813072965 
-0.07329987110139181 0.01184498960422578 -0.05335013983862524 -0.0304916306821425 0.1438706538674764 
-0.03277671101841097 0.0249139736032233 0.01333764909000737 0.007262139541734548 -0.007378495221659763 
-0.1272388863369762 0.1757220699208476 -0.04654743191124087 0.1061384471156149 0.06061770260742404 
-0.01384348896642323 0.008937724259488819 -0.01418417330339133 0.004360032390723124 -0.08437850630619929 
0.008187879494101619 -0.02033200164502358 -0.01022374729305459 -0.01049924120912355 0.009034625341203733 
-0.1429040621699208 0.07046911735353593 -0.03983231758131852 0.08978142681561593 0.05818647577638204 
0.03596651302653278 -0.01462413368139803 0.005186963080177031 -0.002122979543789822 -0.01599149766430496 
0.04466379403477807 0.01474319893779571 0.02068063754103128 0.0160227499603708 0.009887079750069614 
0.07709416547600068 -0.1823101262984363 0.007370515517613623 -0.20701337700713 -0.227383383625514 
0.00080873098531554 0.03190548722637701 -0.01473688603485771 0.02363248669967034 0.02486196881048829 
-0.04208421354723843 0.04229970356903109 0.02185291759267102 0.07340010979667742 0.0194424676545017 
-0.04620978597721359 -0.03623312622844831 0.01653636478619256 -0.008574432179463527 -0.02313237482878617 
-0.1012069351361031 -0.02541992720761592 -0.1073056172179447 -0.07276794959042299 0.1342434920237143 
0.00203694273430887 -0.05188256447542822 0.01995389906392945 -0.006884311148331574 -0.07834204856067348 
0.02050648163113729 -0.05288061804808733 -0.004622898192368548 -0.02147675177700234 -0.1024580705628172 
0.01056823405374549 -0.008391039261253411 0.008070031369841541 -0.0343922546608181 0.02526485243080862 
-0.06691013189923622 0.02358230385683002 -0.0173950070994388 0.01817452717064434 0.108086119229955 
-0.0008910059553601871 -0.03700230042443479 0.03181135612530447 -0.01426294316805597 0.03286045813370322 
-0.02985555389414844 0.05488580005695885 -0.04938484499465434 -0.01652970229855936 0.09057392857225816 
0.05249887636492825 -0.0317660044029263 -0.01749589936872685 -0.03891651177580934 0.008169652551286119 
-0.03305316971662906 -0.07956473966720352 0.0355520688044588 -0.01401000134019008 -0.1715960115550317 
-0.008931459154059622 -0.01284353298684417 -0.009908578888858096 -0.02393646693200609 0.03622186799520556 
-0.1060712725215716 0.1271770449138666 -0.03092890637795966 0.08774401608925482 0.0556228495789169 
-0.0520847460339089 -0.0145760932222925 -0.01977633535699289 -0.005619348497674317 0.05767575966175472 
0.003548979723624124 0.04319707849334964 -0.04154701868398856 0.0166927677240437 -0.001075953937521582 
0.1255339592164899 -0.09432879127185423 -0.07636599781018939 -0.08246148066543756 -0.1103427887196585 
-0.01035581337866481 0.02637482405753325 -0.02782792587629935 0.02855529780661069 -0.05479753036662396 
0.0005973622579237977 -0.04264573018413664 -0.01176120837654858 -0.02124135516467654 -0.04312887093072167 
-0.03484262219659744 0.01574443068425983 0.01872446311795752 0.005267331515094038 0.06205017198832434 
0.009560163518172517 0.1154999654769538 0.04557619123925519 0.07124358951307716 0.06262570619536213 
0.0001668987091069865 -0.03212719190960516 0.01655405764774478 0.003946629267679847 -0.04932041093312933 
0.002099763960256627 -0.01896621219579346 0.006431530682925879 -0.009116984974159133 -0.02606061419538472 
0.1121786126286164 -0.03023718918093659 0.006981618226071084 0.0006347763540771335 -0.09398416471967128 
0.005100823705582914 -0.03092542168208232 0.008181287923488715 -0.02672680915659469 -0.0402901401568973 
-0.01477638005766835 0.03357865630357941 0.0146192978607326 0.04014474715199259 0.006859266359267251 
-0.01583527463623879 -0.01495780650927442 0.0228546012380107 0.0112410593606305 0.01006869697096174 
-0.04517046057332458 0.003855662426960125 -0.05178600275573449 -0.02841214854447963 0.05293054035759267 
0.01760519696271678 -0.01633148664914 0.01572060953016195 -0.003063017966158764 -0.003374129983011644 
0.04572212039975321 -0.02954564899923753 0.01056360568111134 -0.03293989091628236 -0.0234287161176797 
0.003398711307473199 0.02711980452768342 0.006531862221531397 0.006340598738914431 0.005303808343547583 
-0.02263057095331037 0.002712378664770534 -0.01914581288630128 -0.02421666189354839 0.08343087427698385 
-0.006412369922205359 -0.05836855022226611 0.01470863823713505 -0.01555920248510648 -0.04283884276006125 
-0.05820375163701228 -0.01099414435015919 0.02640017103529463 0.02078031707328095 -0.03744746226036746 
0.008751776416682847 -0.05568326755247229 0.002934569225479371 -0.02828971410369429 0.02392130198633123 
0.05619317525513279 -0.03605933315787241 -0.04602265990104552 -0.05085817729705241 -0.02873192210278566 
-0.002552609347142716 -0.07846686352642554 0.02660251136626909 -0.0131683550075315 -0.07739421268432677 
-0.0168966458012655 -0.01770585292848779 0.00828942417980872 -0.0188034344163889 0.07153199306144864 
0.008831731209620476 -0.009269708281636266 0.004806068672322968 0.006919476808473889 -0.01255405083055397 
0.01771870280785164 -0.01744015125340246 -0.01517188787478103 0.02119028635086738 0.0004896371785987573 
0.0329080503110404 -0.016763270011292 0.007496112819331418 -0.01443526139291948 0.001331276690346876 
0.02926512223681721 -0.04042131395496385 0.04167941681232552 0.003750520163311119 -0.09892241736847028 
-0.08895497350897641 -0.01093933460984802 -0.02109598633062263 -0.014483370739812 -0.04520295521456066 
0.04372299403409351 -0.06966320651267156 -0.01287544298661657 -0.03995507344855043 -0.06759425048859541 
-0.08272803734697073 0.0527460674747228 -0.004476050499774514 0.07490520595693852 -0.05450404269583398 
-0.05244466728401544 -0.007938043565060789 -0.03768474205129559 -0.04342390779201381 0.08432043384254514 
-0.01110453056734671 0.01572918216436711 -0.008523224366972657 0.00500665080171543 0.04028087717993347 
0.003964568321206523 0.02850595178463527 -0.001664886639495895 0.02005191658690504 0.03168773374381985 
0.02540305236222639 0.03531424260317088 -0.02167453881647491 -0.003213155759678246 0.0179526468975313 
-0.01769603877595281 0.002036544023891608 -0.006521440622844781 -0.01512582127464133 -0.001407971731230376 
0.02168700562015461 -0.04391144117293532 -0.007770949545323143 -0.03513306432668133 -0.03057282327140643 
-0.01317410936848313 0.05954870869486218 -0.01563909241518035 0.02825990123379958 0.009062923639829374 
0.01122373669806642 0.006584402118638377 0.02733505038042085 -9.070059060913264e-06 -0.04224270233475182 
0.01168056902799206 0.02127769745715941 0.01037799816562137 0.009805021667079337 0.02741646763433458 
-0.06036440316033598 -0.04624321205958715 -0.06792160188719373 -0.06282696398627508 0.1160523914209167 
-0.04331928970666606 0.01019662075035956 0.00381865807205085 0.01760356388575023 0.02978343122270336 
-0.1733452399444972 0.06719814354496714 -0.1089489022295461 0.1153541228722332 -0.03716682901692172 
-0.008687427993569932 0.02207234637777182 -0.03028655519283036 -0.01884349608553375 0.01555620881207233 
-0.01164246723256454 -0.07399749751422613 -0.1083681758638893 -0.06184335258368337 0.1170505385404198 
0.05379108427380593 0.002483510182889646 -0.004858272306454477 -0.03929288609372061 0.02575316528022781 
0.025050573659958 -0.004081725942828015 0.006796511540994703 0.001599258749375042 -0.04533047086036321 
-0.01984530459817032 0.05124397614504825 -0.0009772717266082478 0.03724953290438193 0.06783661936379125 
-0.003338607072901542 0.01802392530253385 0.02737262702742622 0.01901145923458792 -0.02151227838023406 
-0.004058114371134799 0.01041191367943389 0.01411038745905376 0.03560525392967431 0.00433845403300449 
0.0248787177228199 -0.03788759796993731 -0.009292345725624422 -0.01470872995753232 -0.03942735507650985 
-0.04860270870304705 0.1259554427567745 -0.0450409487280004 0.03247910798214259 -0.0425380072207772 
0.01567578886091265 -0.03974854574021469 0.01321513024427725 -0.007222130635232031 -0.01073972426912858 
0.05168531905781093 -0.01180200612974048 -0.02330883639911928 -0.04723328418598845 -0.008482106877151202 
0.08854107402786149 -0.09098288223283346 -0.07534197275479308 -0.1090805665391666 0.01162601703236087 
0.07091779855792757 -0.01154847929184236 -0.01480291095909341 -0.01137241647518741 -0.008772563697922358 
-0.02803129706256286 -0.004373311348070848 -0.003819662304354565 -0.005274175515594884 -0.03548180104158032 
-0.02958500432384651 -0.002669999191385218 -0.006101219218940094 0.01086000610075003 -0.01050991406836121 
0.009247792424814143 -0.01992725362007361 0.003271250380884769 -0.01574107339178422 -0.03783937619203519 
0.02050762674057117 -0.003747974561085212 0.02053629319891916 0.003590125705231805 -0.01986900483721244 
0.06967302476042868 -0.0619356984711577 0.02594919482821217 -0.05169672330753981 -0.07297258196135674 
-0.001995568087376678 -0.02582745966837722 -0.03463874105364362 -0.009358831903556825 0.03042744961893374 
0.1068777267888044 -0.1161227749021069 -0.007949191314871352 -0.09762636877868161 -0.1108897149895963 
-0.06755096384839593 0.04165182393967345 -0.0283257601702 0.006828521307087148 0.08825984093058738 
-0.001003641408142167 0.003890184082019583 0.02250684783885562 0.009386484293329479 -0.01248307849064495 
-0.03793478571973582 0.03939588196030951 -0.0003567146975837007 0.04064282453969373 0.01216866023270292 
-0.06282224022175503 -0.008849698926261728 -0.02107343562407646 0.1086536514567764 -0.0007196293762794581 
-0.06782937982393501 0.04032830490840291 0.0111511372969271 0.06525823553524854 0.00800904690096875 
-0.03594026424568182 0.0390163120553516 -0.06939452718363397 -0.02885273345724949 0.1160193475823949 
-0.02096555258759565 -0.03194649755419306 0.009498597936550827 -0.02111456284342356 -0.03717645547007253 
0.02856491344605351 -0.01844064771558967 0.0007930152158397534 -0.05044689593713809 -0.03618205400874053 
-0.02061487689496279 -0.01414534162928369 -0.001784971691370812 -0.01256287031702654 -0.009370518851251538 
-0.04235994988216989 0.01524930880992424 -0.02395671964818659 0.01791515741866821 0.05375774480621364 
0.08846389633883425 -0.01075489128841336 -0.07416943072695444 -0.05383750254321455 0.007270945017124552 
-0.01082035969581322 -0.004339807417804238 -0.01610311348770957 -0.0260574960392029 -0.00922818685540628 
-0.02143396186654462 0.01548633116998399 -0.01658091393913676 -0.02669820236211326 0.0644194077570558 
-0.04555396528990553 0.02082088008934373 -0.0006009173773535028 0.03493078624330117 0.02002799475245563 
-0.0007186084776264468 0.0006854135258997201 0.02679416302976562 0.002793605900113158 -0.0006136343920670611 
0.05902179793084954 -0.04260825352138603 -0.03840005709385937 -0.06595697671937766 -0.03523797530405363 
-0.05238580034698474 0.04183443587215823 0.001323480256513438 0.01258752650510556 0.08895431521302041 
0.006335006901239784 -0.04443536425029212 -0.02402260799619386 -0.05084384503862496 0.005085006371174006 
-0.0256622043747176 -0.03097068014504525 0.01588146824384377 -0.02352617680623727 0.0220616655009296 
-0.03510849076668398 0.00217836600569609 0.01247475738882507 0.01660335582472627 -0.02602773249018332 
0.02909628926525139 -0.02731102619015789 -0.008691511601548425 -0.006387191947442592 -0.03806500757995424 
0.00633129468807842 -0.03340242503943814 -0.02359004579177116 -0.03815187066125909 0.02168996364362087 
0.02249114072366427 -0.01572210515338601 -0.004538974001668188 -0.02160561960146002 -0.04584116118377071 
-0.02525790260764772 0.02961643755731606 0.01237503690320685 0.01904211457033878 0.007106145979595118 
0.01014972680910058 0.02945994325942099 0.02223551060899951 0.03260958647045668 -0.01917808040837493 
-0.002001751092225607 0.02564290458489601 0.01655320283192552 0.01647750673048831 -0.00572237447065837 
-0.007986098069820067 0.03285617759778079 -0.01318187702524718 0.002321275231230793 0.06254292612981155 
0.007386553527355097 -0.03130572639787356 0.002855219950835171 -0.008251917314719548 -0.0626045590189712 
0.01778896797512296 -0.03370893261769366 0.02718324477816557 -0.01739726537162431 -0.07336903643849794 
0.01323820390529838 -0.009445041396430178 0.02459345689128291 -0.009210565583988002 -0.01555622172789838 
-0.0310058564369977 0.04408267126883518 0.01355558333520563 0.04356213118206447 0.05698215642293059 
0.003151377611255507 -0.04735221126775363 0.04404355693941449 0.01270307702840001 -0.09240554214062466 
-0.0558569789880017 0.08929139647968844 -0.01298270733180474 0.009849150290366031 0.06003170982403476 
0.00271559941681748 -0.01200890869882688 -0.01882628124923689 -0.01580158693647309 0.02005829508971471 
0.004670214097277284 -0.01973806541470753 -0.0130467449976894 -0.01012607035667514 -0.03818395931779361 
0.01905341227531438 -0.04256127481067877 -0.03718557751757424 -0.04107270344462417 0.0279877579777701 
0.01654169625074717 -0.01856078876157273 -0.003205008998038893 -0.02197309493027929 0.01653746995952553 
-0.005928300137838266 0.009567302503280164 0.0124026931045647 0.004645911955680277 -0.0008486359786153959 
-0.03342461973251624 -0.005349000460516597 0.007379326182534883 0.02165419050478807 -0.002092118810136839 
-0.004572348033885811 0.001107316254530408 0.01656819910616703 0.002145121425586297 -0.03305175514568787 
-0.01493547096765018 -0.009538487426884571 0.02009108539212575 0.00744208275478383 0.008554264222669529 
0.004856795880253939 -0.003594720607797606 0.02525665634973957 0.0128864680390635 -0.006595798208721471 
-0.03020149906430956 -0.00577575658839456 0.01903011391047604 0.02897870931797522 -0.03779672413015499 
0.004356268759838479 -0.06387417517182239 0.03562893113752331 -0.01588099556206192 -0.1425615115297723 
-0.02777878340861058 0.05332909455746943 0.01003193167745974 0.03758249992463179 0.03954564900696109 
0.03116402673950002 -0.02406553393969581 0.01909339015009593 0.001182748278857087 0.006874977975139289 
-0.0006395851820266052 0.00363238124559983 0.00698788917240586 0.02395144132904252 -0.01132377528409589 
0.04861238762621743 0.003037181833168544 0.001253992806172543 0.007822213808287336 -0.02477594053942737 
-0.01029134169231938 0.01191364497671553 0.01073995181331846 0.005339687592703603 0.005803016524469585 
-0.004562329342992253 0.008707438447106693 0.009954264612839324 0.02403246573727754 -0.02059522114010962 
0.0296497248272769 -0.03553093857327288 0.04184318706933365 0.002125177822286829 -0.18410754770742 
-0.03378353870417239 0.02086867455966646 0.02274645740867615 0.03439503828325081 -0.02546844079004808 
0.01448328227897723 -0.00719826694723651 -0.005600639128564212 -0.008198468230751269 -0.007164794513807692 
0.01084918376341669 -0.05216677380685965 0.02151073287811675 -0.004186451805807282 -0.08534457579784289 
-0.05802916521315447 0.08532005557666605 -0.03022236451765097 0.04506231761115749 0.07904450314013411 
-0.04296007316456089 0.03404591141485985 0.01479634485540619 0.008403444798028457 0.0535137160555934 
-0.03268485534120628 -0.004136119546639882 -0.02837584727267661 -0.01909452183829981 0.02542517745771126 
-0.02337623764520934 -0.05471251694724062 0.02436534652640053 -0.01705775024594411 -0.104184600142944 
-0.04336769124051697 0.002358333394655336 -0.02612385472835308 0.04031785178017667 0.03419138942827578 
0.02707726299700577 -0.08552924317838649 0.005466411225778642 -0.04165278708816732 -0.1824267355123626 
-0.03048107373328115 0.01657088297000354 -0.001018609676144738 0.006580815049272966 0.01588330920046633 
0.03706929271671371 -0.02407068001197511 0.01346118825456208 -0.002448178754260569 -0.02252776396600416 
-0.005026679125086759 0.0517316137356985 -0.01201549374110346 0.01208730102456568 0.0827688338595351 
-0.02557573738044507 0.006671415584890405 0.02685847485104442 -0.006499669417692261 -0.02149930443894309 
0.003656363711928028 -0.01058835251328835 0.00826605776073904 -0.01367271320768458 -0.01960503136102211 
-0.095512639847825 0.01092588938759934 -0.03095469859131435 -0.001976266787160653 0.08146318983151536 
-0.09104698263143403 0.01916653949159919 -0.0309101109139907 0.004791764044419821 0.05344023372017237 
0.03870942792385441 -0.003927650400862518 0.01158164622449492 0.0154203505407711 -0.04017902249292938 
-0.008656841452977258 -0.006041486842795003 0.01761187133889314 0.009487250415696778 0.007482697105213536 
0.028980783795243 -0.03838522913039331 -0.03242535940166228 -0.03929961211257967 0.03477876562248718 
-0.03696449948648205 0.0001431474641244598 0.02095535253700275 0.02998944707255845 -0.0270953604105998 
0.02983355652438923 -0.04796795757189781 0.01703642533779404 0.006566357015067343 -0.06878762696445534 
0.03260816023538454 0.005204990777914118 0.01219899480715287 0.01893977385652035 -0.01914312476285519 
1.689810990652495e-05 -0.01619411167920148 -0.02018686881287181 -0.009859174914566525 -0.03593065502032788 
0.009208976463737526 0.02192872854767531 0.0009120141546731017 0.004456270916255766 0.01030090589817466 
-0.0115897357020743 0.04271717471648683 0.0002576757655056588 0.00648649450958713 0.05210991324824072 
-0.01856085154627048 0.03742859791633296 0.004195860912265408 0.03233192642787453 0.03905111470750124 
-0.04529342910454282 0.02439563969583099 -0.0241853570244362 -0.003751350273666758 0.08442413530595115 
0.005015410989432242 -0.0006263645030918571 0.00629827369457782 -0.001340713742427859 -0.006728342433727146 
0.06725931014122799 -0.04077822861647295 -0.007497363892719805 -0.01200216780450544 -0.1026858865247548 
-0.06314150428441397 0.1151378905394607 -0.06800652394251165 0.02633275755865416 0.0815838510079134 
-0.005288521909652355 -0.01144305697027226 -0.0065348294713765 -0.01938445660957775 -0.004468177932628764 
-0.1207815532590504 0.1559901922938972 -0.04888609243504097 0.1346682527021519 0.03264283000159315 
-0.009290262363904726 0.003035794105289636 -0.00530155224030609 0.003389686084210014 -0.01877733475178462 
-0.06576485760622908 0.02507339244453879 -0.006273449850984089 0.03652578912025259 -8.356085953234509e-05 
-0.003681021259010261 -0.0134607669317648 -8.222785600355237e-05 -0.01843706224601393 -0.01414600125921902 
0.1490172320935352 -0.04220603934896382 -0.08906166326813535 -0.09390986607809829 -0.06568788916705048 
-0.03553851847843679 0.03099954526245293 -0.1006771894207961 -0.04349395572546925 0.1022168154210432 
0.01558800564390554 -0.05249853132748616 0.01454339998595703 -0.05712267220362231 -0.1002497115631091 
-0.01170487212783303 -0.02395576094202603 -0.01673172670609725 -0.005879633226652495 0.09354854955660419 
0.008835924065811556 0.00631731853379569 -0.02179601209612335 -0.02518129928219968 0.04869399833688541 
-0.007184837481529888 -0.07471631541490467 -0.04447013472781362 -0.07413096381445848 -0.01871224533794526 
-0.00678195805941021 -0.007091172419539341 0.04811272310381257 0.02233243793320818 -0.05358614557738642 
-0.06560242010613498 0.08071760065327126 0.009502550932639174 0.07021174452855378 -0.001910382664902255 
0.02298044450378152 -0.09385408691352176 -0.0805358520517509 -0.122248302730396 -0.09078882813281743 
-0.02893268261997089 -0.008067001071364727 -0.02830288782267119 -0.03969405950113385 0.03068990818997938 
0.03041280479675564 0.02044545709709802 -0.06492966217197266 -0.06938001136117483 -0.2172033155333597 
-0.01942605881862014 -0.01611772661986158 0.004838203030645871 -0.0009161068749548146 0.02898048610845812 
-0.0338162183886367 0.029159409391082 -0.0009366504055487852 0.01302870675841913 0.01115659673821222 
-0.006931613599320866 0.008929193570024857 -0.003715172582809493 -0.004981516153489289 -0.007373409746421918 
0.02404664860956052 0.01083097844231881 -0.01012394526586905 -0.006385161164623483 -0.04608443298279075 
0.03217411978909748 -0.001845178859398643 -0.007427274453945388 -0.009881367061744476 -0.008704414535709354 
0.02678308804379964 -0.07184846651983987 -0.03133076151822807 -0.08586619011569023 -0.03340053430678074 
0.02776950755277018 -0.01812661525020061 -0.01760221955248593 -0.02991216541270716 -0.003743733975052082 
-0.06643127315083505 0.07884594246948358 -0.003237355640251362 0.1254729755190877 -0.03552521938400008 
0.0094200513140163 0.0226799362423146 -0.0005495468905718739 0.01807664535009595 0.002076526673622858 
-0.0269375330816 -0.01175363426307625 0.0042038328685311 -0.02017296045096965 0.0003653396533125754 
0.001868788906846741 -0.02457124517083799 0.003640645107656952 -0.01770277492719607 -0.0215516782070864 
-0.0006020433911769845 0.0341260929344177 0.007323813851336378 0.05257150899827481 -0.01877022911389937 
-0.004849603591172766 -0.03326099376985105 0.04508527750534401 -0.02130126747133413 -0.0414407265894832 
-0.06484061702056403 0.01820178462638471 0.01696129459830314 0.0138087750039939 0.121264663229178 
-0.03876376954192363 0.0551912386472625 -0.009588605699858116 0.02062937311810267 0.0538043184410932 
0.0208619805832601 0.01016295530696723 -0.01048066667888943 -0.01777997163692741 0.03569416815810635 
0.007341832984442627 -0.03211686395294334 -0.02498636719385782 -0.02908701311353696 0.009422600165681727 
-0.01770551033110896 0.01041092242573447 -0.009420583328157886 0.02966949557659665 0.02483454461230085 
-0.07401803068474513 -0.03394933296432655 0.05999245666961785 -0.03080971415105091 -0.06449786487955191 
-0.03208267357213675 -0.005210842567909964 0.03219129831111595 0.00166748650829658 0.004882712777337176 
-0.09253346442104241 0.01460347126515788 0.03474550163972111 0.1111624247468824 -0.213167296100791 
-0.03047484073160381 0.0007018306898038381 0.00719209969741108 0.004273553225532956 -0.01620575431694406 
-0.03060628142201737 -0.05038279962543953 0.04169403512330998 -0.02488783057074293 -0.1156279917186133 
-0.01895995996553552 -0.01088599879443679 -0.02269978990831227 -0.02821579363319641 0.04082660108925557 
-0.03801939714071548 -0.004633818559692808 -0.02904598178221756 -0.0125622011863053 0.09254623586571178 
0.007594471288358985 -0.001666434917026141 0.02610235630372044 -0.0178250872065582 -0.01455304618510166 
0.03627793243498456 -0.02022088373917712 -0.03706563015695895 -0.04381695393701874 0.006674444427781259 
0.01858004476647481 -0.03292474290301725 -0.04519244442177726 -0.06224872291900734 0.1373495822385443 
-0.01943506016046975 -0.01611505981052436 -0.02083520888344281 -0.01427290892363243 0.008650203096929305 
0.004371622617730324 -0.005125758654037366 0.01741846445938117 0.004845053555326338 -0.06985453364646786 
0.0399000372646413 -0.02323308577928734 -0.03955292670252655 -0.08864220743410443 -0.005205726221317224 
0.02926903732342752 -0.02926199852094494 0.00611677335219004 -0.01341562761537564 -0.03710952049015526 
-0.01737630902076522 0.008582216113097165 -0.0009704685675944398 -0.01162189736691633 0.06652127826275699 
-0.03300364154011604 0.01563828422038264 0.006960931065197543 0.02346979172347455 -0.0188708156760861 
0.003717703005750972 0.01927642639663247 0.003879965554792561 0.02805286053906302 -0.0272988330310658 
0.01237656721016356 0.01396451558234714 0.01337796085952278 0.01316135898648174 0.01006880891162343 
-0.05738628297371547 0.01994196602828201 -0.05629875532508548 -0.03170930264492336 0.06638264363825787 
-0.01853717339847857 -0.0160936386639997 0.02741964644377685 0.01810975595400148 -0.04275260238212993 
-0.03250963384194204 0.03178649526619717 0.001110753815061445 0.03374600679537091 0.04244694646451473 
-0.02238062329646962 0.00337185728163947 0.0003006892308775572 0.005871227664657375 -0.001405612590389987 
-0.04281651833745756 0.006206324824687413 0.04460940783853302 0.03170579135646428 -0.1009486424409644 
-0.032899078740832 0.02059661758901785 0.008140901394100897 0.01168872046278883 0.02540149633160761 
-0.06218420674676998 0.03332815705726194 -0.03655976032800026 -0.004760574592408277 0.06815738529679909 
-0.005492316136457906 -0.0004261600728059724 0.02956902606990464 0.01656809152723333 -0.01350652550997046 
-0.06986361701316553 -0.01804407000821355 0.03964613649586247 0.02859143734332272 -0.08208863986877381 
0.06012709083501601 0.02217402873238738 -0.01068774680981973 -0.0250523338432373 0.07584245778338694 
-0.006103215262120174 -0.002736495010813372 0.0202896490294822 -0.004191298940673747 0.02212526457072757 
0.001577426125796555 0.03698443444919588 -0.0136203535360888 0.01812287128147382 0.06304701220883972 
-0.08501699681230512 0.07319046331250412 -0.0353182836839349 0.0508475529880781 -0.02670361549194185 
-0.04009148113349109 0.01538133497252135 0.03095759812840049 0.01751134823337354 -0.03208920646697126 
-0.1660825967121699 -0.01400880460242526 -0.1038349773906249 -0.06975505951729163 0.2129856665555077 
0.0009748289242694778 -0.02881572690806218 -0.04373013100150572 -0.05658834208056981 0.03775965854459644 
0.01501665129018644 -0.006807742451651987 0.04866681153368167 0.01002719135626988 -0.005403907960547101 
0.0154831796563328 0.00363896922984595 -0.053579964043906 -0.02213811931254238 -0.0431020234081597 
0.01501444040222063 -0.1472774089638921 0.03832732442218956 -0.0564940974405313 -0.2016215251510689 
-0.07166622188046924 0.05648562895232312 -0.008954842711872706 0.0129878686021841 0.07115257959730752 
0.05168931943848135 -0.02548058172512603 -0.01428422800188906 -0.05341027174349634 0.05332842627642655 
0.01435259288531556 -0.03136775085936053 0.003292200928125735 0.004454776706096948 -0.05979318745822531 
0.02597357490575006 -0.01059581801175665 -0.01150912665018151 -0.01064047717021637 -0.006881043784385854 
-0.02213924459976583 0.05274130111689865 0.006245767054182848 0.04353583661862814 0.02263012341747709 
-0.08744650079406159 0.06000099913553582 -0.02215747534505419 0.01107248257182429 0.06303315902439813 
0.01382915658938307 0.03872198923436999 0.02737755156239545 0.03343891107763682 -0.01541857328720467 
0.05191788030517314 -0.06635129102878153 -0.05902239785055664 -0.08525741222480181 -0.01108482738813625 
0.03550782946612535 -0.04957838183690958 0.027599632787917 -0.0199297324661204 -0.03903070953705839 
-0.1680977763120554 0.1088173323826274 -0.08040357484678091 0.0310280243927185 0.1388216677693247 
-0.0562700089822921 0.05399415160861384 -0.02157787528568817 0.02226871782567244 0.04124968604074909 
-0.1524440577161276 0.05525934183717557 0.03530237761042578 0.1357278984668816 -0.04161232600581731 
0.01652214120348742 -0.04155283115587555 -0.04182473553979398 -0.05538659130875313 0.0009817555811700146 
0.00511326428898705 -0.02710420507207604 -0.003830726093548097 -0.02644511893495567 0.07921641891288708 
-0.05861691071369619 0.03446767714504234 0.01580000287034965 0.068561043373742 0.03217613690356536 
0.02202147516793632 0.03596142435829799 -0.005027472288340898 0.007976026312822321 0.02370456136247588 
0.02599662019741456 -0.01527732070748857 -0.01000705747214399 -0.0176128809054097 -0.01735036314770519 
-0.006418335099803981 -0.01937023772085825 -0.01195377489981721 -0.002654497713921666 -0.03206304520701357 
-0.003409177065488536 0.05091797749613831 0.00236127670771135 0.02895965749228947 0.07306552750832679 
-0.03731892561915636 -0.03857763681904711 0.05875071362294173 -0.004699688132987687 -0.1219480994795947 
-0.0309257259285218 0.0239954350111471 -0.01790049845209791 0.01267444642109892 -0.008587557616993849 
-0.01571374546946177 0.05986504672837654 -0.03344076149780286 -0.02525851657891932 0.06522342621979413 
0.03967981374019776 -0.03242336208618616 -0.02644164957909977 -0.04539811792668379 -0.05031635973702392 
0.006118042218026855 0.02794613438536019 -0.003817347112131892 0.02903235658790831 0.02436402405478999 
0.02415343389159117 0.02698548138059655 0.00176904683239808 0.04080906935131388 -0.03920100602773659 
0.07355854414058037 -0.04132230142119787 0.001251449849705776 -0.02451662722699791 -0.08685653697439116 
0.001734176411121218 -0.04314722464304778 0.0346582115419899 0.001233435714490105 -0.07103112642411707 
0.006556154706551362 0.00738014327385543 0.003315685912544195 -0.003191119065478115 0.04127037752751404 
-0.05453882349222169 -0.03009236074449684 0.002511444181169281 -0.0258038076085203 0.04272045307942807 
0.006256284098515474 -0.01732898958912936 0.04030614129263026 0.005794316014165283 -0.0741406154371425 
-0.01932611979856954 -0.07368957021641195 0.04359300852518057 -0.02055440917207334 -0.1345702616489307 
-0.02035159644758251 0.07263873624719099 -0.03868483236179625 0.01614777236418462 0.08172175877165119 
-0.04723594584256854 -0.01577266542905116 -0.01158627658214726 -0.04089577221817824 0.03576233841373676 
-0.02617206763855032 0.02354580017298379 -0.0511775119227571 -0.04138655372353114 0.07476744562020103 
-0.01662312251962416 0.05680410268472433 0.01441910319595102 0.04944202032577984 -0.002766608406147932 
0.005269469315841253 0.02591953345404046 -0.007198052474175373 0.006842306441486816 0.03954404425944102 
0.04859838870072003 -0.0438364721225792 0.008404847931753008 -0.02439475279297058 -0.06235015269399477 
-0.01097710239021613 0.01280584374922969 0.01297605346822234 0.004411441628654203 -0.001518321923558373 
-0.02208910059343093 0.006554369349896133 0.01769743263710991 0.004203433681041695 -0.07260438946892774 
0.01690349030757424 0.02263073669258242 -0.01122206831132451 -0.009108446007009717 0.0552654968113802 
0.03625385732050267 0.02186315720014613 0.007804934333223223 0.03765333274454549 0.01704877286364662 
-0.1617931143497965 0.1298573539493606 -0.067732469743782 0.04327415569220996 0.06298943209389564 
-0.05792275768377994 -0.02358578463394041 0.01841068468458593 0.003076761427971709 -0.02853223353650697 
-0.06751639173129592 -0.1147151304999247 0.09277757311252803 -0.006252915235800134 -0.2271162441130093 
-0.07582709639900991 -0.02761683560266994 0.04887718295664484 -0.03412736558071946 0.1722363015638853 
0.02697297981610483 -0.05813992933514704 -0.06092059560741485 -0.0703289689318617 0.04862552047573043 
-0.03491465651937843 0.02669188440312776 0.00633627206811766 0.0493816881174491 -0.01342889463842548 
-0.0254574400649637 0.06684089297687743 -0.0026886624180329 0.03470134580284184 0.1007830631196915 
-0.01695280491329769 -0.0304673223372615 0.04134124991595115 0.009188415069965707 -0.02801339679270698 
0.1949338467676459 -0.3011194105948019 -0.06445210303379975 -0.2272861558269479 -0.3087535892197473 
0.01406396433341483 -0.1364299188931762 0.0438469637808586 -0.07866883746955854 -0.2231576885569622 
0.09708037077387825 -0.02339571475808073 -0.00825363512812391 -0.0268242224621277 -0.0175925192316196 
0.04854115845228665 -0.008524510728641561 -0.04253033059965177 -0.04909917250859931 -0.0436657953687575 
0.02697544115636119 0.005614541471068559 0.003968589845681407 -0.007868778148027611 -0.05187176301753572 
0.04605859403203363 -0.03869532117447812 -0.02376237915626408 -0.08095912847356684 0.0196601723626378 
0.003723688437373789 0.01725815631510739 0.002956463534365736 0.01095730979562437 0.04097655975899988 
0.04451993607307182 -0.0598510585926999 0.03707368730965849 -0.02592096674256123 -0.09045850241245282 
-0.0693944772791424 0.01713180155098898 -0.04529472607036175 -0.03199760363437996 0.0930276672375667 
-0.02570729971722721 0.03092209629264465 -0.01694339024472178 0.02712892059414471 0.003195667289330113 
-0.0022109663558888 -0.03205864883924748 0.01323764558307817 -0.01639186019912143 -0.05477610941604746 
0.03115138847859574 -0.02563113830211509 -0.02615289474888614 -0.03013868017761846 -0.01340341532932567 
0.03687738727388552 0.02904421310657413 -0.01118201683870105 0.002626500364921877 0.03428050794250501 
0.01041061280911746 -0.01827571099912097 0.03151725765214627 0.00719504007690037 -0.0546927003545479 
-0.3024933056920234 0.2180289358647753 -0.2202070681801908 0.006085526988297189 0.1404468835982622 
0.0005501904209827195 -0.003429530547146596 0.0122316278942373 0.002589993169280572 -0.008074265474851551 
-0.03091188829185348 -0.008058242875865195 -0.01025539927689643 -0.02805475893282366 0.002691482790326936 
-0.03901661601959686 0.05302695168176754 -0.009116918811259131 0.02421627644845363 0.04158708772607641 
-0.01603853358493505 0.1133650919091994 -0.04224734719457884 0.02381929174855226 0.0013280605920164 
-0.03318042595350842 -0.01130206069578202 0.002554584468925292 -0.008523373170412466 0.0342570808378455 
0.01373522023541899 -0.006293565924874081 0.03582687305379428 -0.01167157686564814 -0.02957533676724671 
0.00745007027241632 -0.01599669444487173 -0.01620879289213215 -0.02299133041914708 0.02005904311045669 
-0.008196503152611291 0.03120995892971383 0.01771148880202289 0.01795372405248892 0.04837261564869997 
0.02801557281868046 -0.02046615142961694 0.006575862698823469 -0.009263125262205902 -0.05007794225322913 
-0.002482112475269227 0.009296167654262846 -0.001102622459869032 0.01196975127345464 0.004944849754409536 
0.05423684178263429 0.00544686068835411 -0.01552259104110639 -0.004377024774910957 -0.01201457378372664 
-0.0004182368099930898 0.007618140543256311 0.00371962020050454 0.01553393051103345 0.006702546379430223 
0.0469544635641292 -0.09198002031547864 0.006983245106639481 -0.05517276648891745 -0.08937958041972473 
0.005872741860121962 0.02878936975881444 0.03808126673939746 0.02901219335734979 -0.03203635684758768 
0.01069910779355525 -0.005020568405914948 -0.008759468103739135 -0.01536689194829148 -0.03581258001764269 
0.04084883218515147 -0.03869542570584506 -0.01798078830905349 -0.03264250647196105 -0.03642980440129376 
-0.006228810549372271 -0.01886036413417275 -0.003101104328464215 -0.01523504223891646 0.06246030214896895 
-0.01841852697795788 -0.07286410167499981 -0.02699784497104599 -0.05702059555208935 -0.1213588588773122 
0.02227367177462473 -0.03330011141808657 -0.006646605275239246 -0.01815973946999195 -0.03240823029212724 
0.03441985776418652 -0.03084712978680052 -0.03774220083740361 -0.03622130058236209 -0.02838296886739379 
-0.05204042475996736 0.04869598968003493 -0.04927120814061554 0.005991655173813414 0.08252084530238968 
0.0455910858301307 -0.06417971915265994 0.0489231832569174 -0.04015388967861981 -0.1100350791124739 
0.1964943699228747 -0.1602571482908089 -0.0749817028887042 -0.1028328831058454 -0.3260049494529241 
-0.008441342360543606 -0.0585656699373049 0.03272229565498035 0.002785583648593748 -0.1098665086314659 
0.04075639825729686 0.03547351742617212 0.01041530852311136 0.01361068041676614 0.01906704875134071 
-0.1353527820311248 -0.1267715301325176 0.1746776848689003 -0.04830998089263843 -0.06607811601957214 
0.02664470805199845 -0.120415785051503 0.03491117996424311 -0.06031253541275548 -0.2065198500205655 
-0.04791908848058806 0.003779322566851811 -0.009087660984662254 0.005348499810982679 -0.03212124061500239 
-0.04482467331714021 0.02741741160850071 0.01885582296289278 0.03758910828130367 0.03627929866720853 
-1.646112880618724e-05 -0.04256516122312645 -0.01852247059085232 -0.00978199485439931 -0.1188345332842114 
-0.02830674576239717 0.02431691840512227 -0.00251687133363959 0.008500521894009521 0.004223275073822412 
-0.08023194775253203 0.03589751996435373 -0.06995413696001981 -0.02172742490390759 0.1061958213699548 
0.0622277931319738 -0.006073697739593552 -0.01592059218904657 -0.02578221914263528 0.06322975773520634 
-0.06954909572041067 0.01587983966650491 -0.00193235515032522 0.03817865689326125 -0.07512422375774601 
-0.006529537624561213 0.01655740194886521 -0.01293464486092032 -0.0005680480697591226 0.0078210349210489 
-0.06456647603213796 0.03449237374949909 -0.02748603299271592 0.03381289808671804 0.0148993180205038 
0.0006178243624254906 -0.0368401043925555 0.004384332753062993 -0.02782355519380601 0.007446685793802499 
-0.02633298984087895 -0.006330397024484087 0.02824963442810333 0.01787829442022454 -0.0309444954693552 
-0.01950103803649129 0.024893761539543 -0.001845372508953179 0.01820682127235891 0.04085993144919958 
-0.006903978693702604 -0.0174998766974642 -0.009708797806499549 -0.01324734177955694 -0.02179903424395382 
0.02471162496153098 -0.02713049651703038 -0.01454668042395625 -0.03623625668294312 0.002645231880334674 
0.003559154293374688 0.02164349438648134 0.002383746507393332 0.04096579532515416 -0.04495612291086104 
-0.01466715191932826 -0.01576850478687446 -0.0106991552725103 -0.01695800543261809 -0.02496981951017639 
0.008332049079369198 0.007302090003680612 0.01052700616687676 0.005021132088421599 0.02677001760687443 
-0.03808548354492911 0.03115151949388691 -0.03431032269501715 -0.03606939870918068 0.02168177712229661 
0.06919608996964169 -0.1541577251082411 0.01725199855919235 -0.1224725931475722 -0.1291469489045473 
0.02742855641679362 -0.02481689561705551 -0.006730815600580468 -0.02850348380847073 -0.03826896308876162 
0.01470535297551447 0.01306836919398321 -0.01345539055312542 -0.03076029285383857 0.08684955443569156 
-0.04075990732270478 0.01366917116793885 0.008958764922094964 0.04960457565119965 0.02445518859370085 
0.07775642438799897 -0.06988096531336006 -0.03439055348874456 -0.04907017647307981 -0.0380033759989615 
0.02597049568870649 -0.06591434195607966 -0.001103704119070239 -0.04205705096790856 -0.06120313286333986 
-0.03548369159919906 0.03804790340057049 -0.1197821088371886 -0.06693221739977566 0.02707357018091579 
0.007810451926947661 -0.01425244839361631 0.007697224520163375 -0.02811723877078678 0.006128001477831546 
-0.0271986607080927 0.02892667490279201 -0.00434414497690136 0.02154797578620616 0.05634516371462097 
-0.006679659295999232 -0.005230686257493035 0.01042481027984228 -0.03049261546189233 -0.02004666569119976 
-0.05678065300504868 -0.0253725494947513 -0.03778783301678608 -0.03072684393049044 -0.02496858062286608 
-0.02124683284745394 -0.06502442214849254 0.00842515404967996 -0.02676126120113131 -0.01918179581582576 
-0.01265623340658363 -0.0487316498195576 0.006987090793110095 -0.01689166376160843 -0.07609130065681946 
0.02263450016722303 -0.01815990207103816 0.0130905376435449 -0.01484311936661245 -0.05926260527660658 
-0.03523455314096617 0.04301594943628578 -0.02035066219819003 0.01197252477040883 0.04774316644368221 
-0.002413999184186986 0.006814265439381025 0.01838971748251814 0.02620099180989609 0.01527664320336432 
0.01244270506257188 0.007404784499629564 -0.01770351835457161 -0.004402050188884212 0.01689317539807498 
0.06074714640583952 -0.05518863895344691 -0.06254400085888047 -0.07756850489170015 0.02297009997450621 
0.02226098348237863 0.00698820049338196 0.01974783787164558 0.018113692044222 -0.02128442375963335 
-0.001751868991184695 -0.00316455619632322 0.02634199752625586 0.02393978673106016 -0.05922643094094376 
-0.02470816119528284 0.03195702502385274 0.02258605814777456 0.01875420947091467 0.01731498330734047 
0.02427248850464013 -0.00891943503210741 0.02343492648057469 0.02152307042604381 -0.05649619138530582 
0.005862788946027963 -0.03825066382232476 0.02747499945233762 -0.006128880358862675 -0.02541363339215014 
0.01809995995315119 -0.03806899853720724 0.01054103817415405 -0.01439822052408648 -0.05122544547849068 
-0.001665955008566908 0.0007839160457206967 -0.007335088494356039 -0.01859078668902419 0.02086254711221372 
-0.01134266319835224 0.01657576820958745 0.001235733476475952 0.02389011548393712 0.001401955391883933 
-0.02434180725247677 0.02608476935797149 -0.02879084937029666 0.01810957748022086 0.01411517670444873 
0.03869130317520142 -0.02598069111417101 -0.002522325294160368 -0.02945601816829602 -0.0196877007852086 
0.03483147712689305 -0.02560972904345987 0.01667613240165709 -0.003597819171329507 -0.02043356178202495 
0.006220919800396515 -0.006966372498010341 0.008071012501503123 0.0063432200412964 -0.02833474546861531 
0.0001585948265274369 -0.0114875544647149 -0.009804581577234107 -0.003054338060528152 -0.008854633916121511 
-0.02437532294530799 0.01649703684623625 0.0225504695738286 0.02916274550005235 -0.02548799542196508 
-0.009959392173488939 -0.08302760208406587 -0.04965438872913561 -0.06783474938694417 0.1167989153968401 
-0.01304015565837642 0.02726825636001858 -0.0133344987945346 0.0006282084485570452 0.05166748132922266 
-0.002591592590487159 0.03344237506236469 -0.01007744216355653 0.00780580249468036 0.03557178504825321 
0.01564697642218399 -0.0153054998667573 -0.01262113011989049 -0.002115159605650163 0.05369978953522912 
-0.06206789098692831 0.04573673350072958 -0.02698335723597683 0.01745867064660759 0.05476104985079455 
-0.03445834802972193 0.01281713671680071 0.01480360095179085 0.0244643578785969 0.02600772950509064 
0.05190111496516596 -0.03675905491153005 -0.00673996105221475 -0.04489448697964802 -0.04764450536716182 
0.2234734344834126 -0.1554071839186575 -0.1349152687104417 -0.1568018915061641 -0.1770659332892749 
0.01629127225216511 -0.06628497031780772 0.02700785691592453 -0.03079071589414695 -0.06282847073034595 
-0.01728893090141447 0.009307292439655113 0.02360981976469484 0.02482170290008613 -0.02619049070542591 
0.02848107708567025 -0.008207847983959137 -0.01018795127911677 -0.01120306282989012 -0.004217239058595709 
0.07437547698288741 -0.07998527862694818 -0.01265058629374843 -0.05482426061172514 -0.08140770002434952 
-0.006034041831774499 0.003051277830080166 0.01828191515238336 -0.001720511010892847 -0.006088349230168886 
-0.0138978971891968 0.004435882394470302 -0.003707222742172377 0.01519875703683769 0.02142472913534645 
0.0136613051484994 -0.002695075087310584 0.009421255574937972 -0.007329048171144456 0.04214254138597216 
-0.01681186962642188 0.02765173815778032 0.01118189309267629 0.04084218633493302 0.01052848861043808 
0.02543480447310838 -0.01566836494033878 0.02493006370818759 0.004778143473051008 -0.01453706016755059 
0.04504710434336849 0.01360235662179401 -0.01632453169843414 -0.02110369905243319 -0.04434215924958046 
-0.08027541951816471 -0.0007794805968657668 0.007824966550121845 -0.00599843933004527 0.03909580651978326 
0.02883473338675517 -0.05497147923928856 -0.003307307734470106 -0.000656768594205139 -0.08047066131103434 
-0.03223040910458632 0.003458839229243504 0.01561928303718706 0.01391690640725099 -0.01467496974959282 
0.003046448469414704 0.04277765009246823 -0.003805602429017342 0.002366288591638275 0.04842370419126615 
-0.01409761296216505 -0.0385090370795225 0.01460230939146706 -0.01666618208930057 -0.05140568518605895 
0.03726596407271787 -0.03790305197390846 -0.02448868674182243 -0.03780186972226638 0.01530024570795278 
0.03780943877939576 -0.005459106523990006 0.02594983621750895 0.01013567635925753 0.01212338409925679 
0.01888409072089841 -0.03655839719618419 0.03905017889122383 -0.005895307811734669 -0.08518912521170226 
-0.004859743756733802 -0.05768659491764774 0.01760064519527107 -0.0192976994736884 -0.05612154711201432 
0.01452033377913282 -0.05204850595560207 0.0009983506886846951 -0.02335407103986605 -0.0120066999506918 
-0.04472692401153992 0.04446764593185172 -0.01987376692475624 -0.01158990802059278 0.08679811682821108 
0.008777403711625217 0.006795326228835815 0.02571176852667696 0.001688525337276084 -0.0289631903104505 
-0.005419854460564031 0.01205860633469557 -0.01096094069997219 -0.003406116462674841 0.03638820842269477 
-0.03306589785192507 -0.06122271863732533 0.002643375927159701 -0.01649298491524729 -0.06115068552206916 
0.02245066125258355 -0.001812340872733062 0.02523843544949402 0.02324847995285419 -0.06114651346225568 
0.03822671941466683 -0.1006334681663998 -0.02613089506245922 -0.06379460982176036 0.0326824851924979 
-0.03580171837379646 0.05568312842880337 -0.09245223144907555 -0.05965241497005235 0.03823189725547234 
0.04606663089615656 -0.06249336600748518 -0.004253217862558273 -0.03483541699706533 -0.07014624756493665 
0.04786538335731085 -0.04662561980663102 -0.01726449304829233 -0.04218413790455956 -0.06715546939067768 
-0.02647380966522386 -0.004331304048121752 -0.01338939617625091 -0.0127921284841537 0.04781956667424669 
0.03475332507157936 -0.04648792506699793 -0.009073803036786485 -0.05974932277394941 -0.02035571375918395 
-0.2156137336425044 0.08739853482207753 -0.1372603253041445 -0.0005089535354208007 0.09785024818097431 
0.0130942485739179 0.009214614293135744 0.006767857875928295 0.007491268273402872 0.01557497904492763 
0.05073502003870395 -0.02700449174377969 0.004618079369516613 -0.01252034772916618 -0.02269900270074633 
0.03344407506454883 0.01635992225031378 -0.01912209228702914 -0.009954070705403679 0.02260237118884355 
-0.0007198625566949746 -0.02461543887763172 0.003251988717747418 -0.009724874337767028 0.04717002371787157 
-0.001979773909889975 0.05159340180048787 0.02003998135955255 0.02432181001919355 0.05099399215688244 
0.06319740860495034 -0.05411004448940866 -0.05951159029185113 -0.05941594453831971 -0.04810177225597124 
-0.01131620696762257 -0.05067792257199279 -0.01651872513767927 -0.01911734093231326 -0.03791769511874536 
0.006677165016999825 0.01359500711718498 -0.02964327922187217 -0.009104798998257786 0.1330110785115894 
-0.03715780713633915 0.001882386063505293 0.01349634967155687 0.01542443860216098 0.02671391881865906 
0.004871346710269674 -0.017992469387977 0.01025454425041226 -0.005895173165387553 -0.06358472877311173 
0.01862859859396125 0.06907477234260177 0.03431460513958118 0.04203094642626423 0.06753505012933687 
0.04439016658512447 0.07399818096010745 -0.1286906584468042 -0.05386870299814412 0.02356014494785259 
0.02015599724083748 -0.1077423275463283 0.0477590663304322 -0.05038176170385039 -0.1712965844827402 
0.07552362273001437 -0.118095050928419 -0.03480262358727126 -0.1450813979566634 -0.1402617361139589 
-0.02084815927305278 0.03042232239059527 0.009791567136441609 0.023054053539499 0.06592664388588874 
0.03570199922239282 -0.05926479464567438 0.01949763452144793 -0.02548351049648572 -0.06905069276422959 
0.02384431220148023 -0.01884202611791931 0.01782455992217622 -0.009561923556647532 -0.03057558421648245 
-0.03239843183639439 0.03011132191373563 -0.04132321990768508 -0.0557957432615215 0.09638077023612461 
-0.02055660834492769 0.01186253506511962 0.005049507953084624 0.01015171911301239 -0.04623930093488319 
0.0127489897239519 -0.02785008386027193 0.005421888992127536 -0.009490036811557016 -0.01830807527516534 
-0.04284895480165514 -0.0356608196766692 0.02979788423055804 0.004536741731249736 -0.03015777045022424 
-0.08234634025704572 0.06811858609002909 -0.01979789721669934 0.07364771617735782 0.0465626779054358 
0.1103748333066536 -0.1651650541386908 -0.04577223936549272 -0.1343802506516111 -0.2341415114887314 
-0.03272783576394014 -0.01771259752210694 0.01237333596490313 -0.009577720241597266 -0.0003332526087024078 
-0.02888460035797184 -0.06104762871693027 0.06978948174845266 -0.01771466244956771 -0.06572659738294953 
0.05914729035275243 -0.09906352765764335 0.02522983771355285 -0.06663155019129167 -0.1047948159327836 
0.08002031894805978 -0.03557281137802933 0.01970428871308318 -0.03107364265033218 -0.02158801355751509 
0.0009801601495327576 -0.008315107788295239 0.01421092813715797 0.007949916738638194 -0.005691461998860741 
-0.004948158603722468 -0.003149744696243183 0.008332594797881801 0.007081617880732641 -0.0291998494963059 
0.06420131639420526 -0.06875377206357318 -0.009715613989501845 -0.06201266709378756 -0.09854411394441145 
0.03865940000146741 -0.09633310031779278 -0.00514420667258568 -0.05912199831814318 0.06851271982304769 
-0.02396669542059736 -0.02097999260059227 0.02469656889660773 0.005352428898800848 0.01388861972732999 
-0.05088652314697328 0.02116525505932119 -0.01438664595638586 -0.02032586316830972 0.04809452638271789 
0.06420403272035649 -0.05300695181526417 -0.008371003189363142 -0.04055468521948877 -0.03341642621205964 
0.01180981765343244 -0.01067485786705803 -0.01695923397875328 -0.01493436120215155 0.01509244210298359 
0.0008674349124757751 0.04280762776932704 0.03105233059490852 0.05200594640881773 -0.002857327022960317 
-0.01219248779992078 -0.01302191488910057 0.02009768230121754 0.002814251630316195 -0.0539448082358641 
-0.009820831291651431 -0.006222348480447312 -0.02811220091991786 -0.02634295225071461 -0.005543162573013082 
-0.00837003403634316 0.02424266682913383 0.02417267698116255 0.0436363080235275 -0.005781182553207064 
-0.01029489966095846 0.04436807132834249 0.0119108714677278 0.02080614038179954 0.02977526245182158 
-0.03476296798762216 0.01247174539102886 -0.01709586405903246 0.007501380048913309 0.01740995183622929 
-0.03173503792409707 -0.03729547339493287 -0.003016002911292005 -0.01871901006534972 -0.05157442459743149 
-0.01854062005119167 -0.00942496111536105 0.02332385949515435 -1.469480510210683e-05 -0.02009323776220506 
0.03495308060232853 -0.01013358063662616 -0.002053839994164875 -0.01509792047643457 -0.07098907155726142 
0.01752341000568089 0.00950365273642432 0.01897216382149047 0.04307095208481162 -0.02780352777619863 
0.02703079197490356 -0.04558503363323928 0.01866476759253427 -0.02262828460477931 -0.07421048870649588 
-0.04648999265745295 0.04061676259084167 -0.04573978813522243 -0.005180582017129551 0.06403242679647475 
0.03870819094924544 -0.06369638413920456 -0.006573723911084316 -0.0680658728149024 -0.005943614463315984 
-0.03328168163855473 -0.003824406010698705 0.01718308543157343 0.05449472049174488 -0.066694525660468 
-0.003478404989596876 0.02777114904453769 0.0134471383407931 0.01184109188994963 0.03721456113111996 
-0.02741072748553972 -0.01185312238361476 0.01604555957239269 0.03011991260504148 -0.007436681996536047 
-0.038624670973738 0.00288150248606701 -0.01605951525046151 0.01552112066199644 -0.008701951526791124 
-0.04437315012251226 0.0617234441811033 0.008797442225909217 0.06648368735145238 -0.02557626996353496 
-0.02856517107625551 -0.003273158611168468 -0.02000961343088856 -0.02090287204385394 0.05742466792666531 
0.04743418691736405 -0.07783807163847152 -0.0112748448929537 -0.03784737003174358 -0.1227305763317377 
-0.01121493444743673 -0.03265900399535951 0.003070921435141642 -0.01330107634376961 -0.01967347721605118 
-0.007662894336565525 0.004764460539095794 0.02913836832334786 0.05408371879656834 0.03215503393072482 
-0.02439987782789375 0.03333095325126235 0.01170988988881453 0.009825469757487784 0.03851314150036408 
-0.02310976213666613 -0.05929621297924123 0.02669320171092296 -0.01027687285348343 -0.108536810010217 
0.117896628036408 -0.07178321607341939 -0.03358824076742312 -0.07854639712823881 -0.03979146669466761 
0.006306460887296445 -0.03832146832231125 0.0200312358121459 -0.007775655910650182 -0.02314805030686601 
-0.005585414831470559 -0.01368654769262488 0.01622928826190219 0.02398333836097089 -0.07046104611782687 
-0.008944665474150681 0.02260361123204105 0.007279301018394586 0.005479764375578358 0.01613510585110591 
-0.04590206807122726 0.08477428430126946 0.0006133098435177726 0.03255629463612438 0.04979720548723188 
-0.03063944433255373 0.004878614789729774 -0.0007089091190523276 0.005979842141633614 -0.009837195832994663 
0.01173745834975559 -0.02826335858538393 0.000342312522086972 -0.01172905606731606 -0.0537915151185978 
0.01939051038512333 -0.002876114468435763 0.02328070866299848 -0.01347407251626972 0.02814079621729569 
-0.05714652564196544 0.05100481489786599 -0.05061160603039536 0.05012952580264558 0.0108316155404237 
0.03369756897387031 -0.06781626759797293 -0.01482865682958968 -0.05120903394404262 -0.06831195888099346 
-0.02286714588067532 -0.01284924312457568 -0.02579392584004046 -0.0191757385922135 0.0423215087679389 
0.007609840136773129 0.0133640180977729 0.008248792836411688 0.003136820499751487 -0.04484508866585637 
-0.01778210332895146 0.01257107054391716 -0.04191580246027014 -0.02981148440575646 0.1440684081210405 
-0.00754461961359772 -0.05194297161283695 -0.005154736827176729 -0.0264870740960285 -0.09033205233247035 
0.01205009665082453 -0.04070846918591364 0.03143837279764281 0.002690314578259307 -0.09485148452840637 
0.03732892047895871 -0.1041065288178795 -0.03143303120619786 -0.07757026363933602 -0.07753860021810351 
-0.005064272254792946 -0.007556306921876829 -0.02239340043825577 0.01824290383463848 -0.06113684512783953 
0.01383177678223432 0.02618901821446731 -0.005142077175718812 -0.007503211832459618 -0.01099981697914408 
0.09106479395823919 -0.07388282910925612 -0.05100460074615845 -0.09285223291439954 -0.08168619212390882 
-0.02994521101283518 0.01841557751778468 -0.03322867597517577 -0.005047194638981281 0.09038050177681789 
0.02092011571394425 -0.06632884801007227 -0.003116368031558668 -0.04970112795166698 -0.0949934172225376 
0.005673273873944574 0.02443952409359943 -0.04957860251533497 -0.0114570261306476 0.01553613788346141 
-8.424580183641784e-05 -0.02519895501137027 0.006959703959155644 -0.003203466904103427 0.009545895242511832 
0.00160866094553611 -0.02136603027509471 0.0004075460919452038 0.0243793812683749 0.009292735979103279 
-0.09954623438157371 0.001964903970310713 -0.08223881128735204 -0.06108704127020368 0.201365389828845 
0.09787220060899185 -0.09598429638734857 -0.05675787173690431 -0.05616303106035788 -0.00830328575052702 
0.004924501037832023 -0.01309962606447609 -0.008797800005686633 -0.01643322514547659 -0.00608659391498526 
-0.01655602593429968 -0.01245334593295769 0.01306888866849238 0.006851405637473892 -0.05755960748485285 
0.08823983116096777 -0.1386777332637009 -9.314549349610107e-05 -0.07607603703720549 -0.1949520826549364 
0.009127385024997728 -0.02067057966670048 -0.005777581467004844 -0.01231889027879002 0.02012378662704281 
0.1099761219525674 -0.06415747933983638 -0.08573303098096972 -0.1041150621609775 -0.1081931714824892 
0.01429470215947894 -0.04568474998609805 0.03520216932208181 -0.006549665921644405 -0.06290970662168927 
0.04241866655124234 -0.03930617361688039 0.001916934288131401 -0.03296090220123433 -0.04742876852062088 
-0.01603183961449861 -0.01221387395899801 -0.05240201942388227 -0.006597870138820748 -0.06043627263094879 
0.01229495339170472 0.04549744314149386 0.0133643580929971 0.02448920468535833 0.0219543585177577 
-0.006777445916816741 -0.006692559679027567 -0.03312163332757336 -0.02014801919731642 0.03305215027733323 
-0.0005436047147287253 0.01209318577803007 0.01813611218046776 0.008468787148436465 -0.04130054976359274 
-0.0985040088277236 -0.002492519860679096 0.04612232191367466 0.07501750722636304 -0.1146274860298758 
0.02520654476072147 -0.01886470697906687 -0.02517609825343943 -0.02980282566186147 0.007448479756085535 
0.06854707106659085 -0.04896588947241995 0.01691499251022859 -0.0251886642659129 -0.0436535225026793 
-0.01192498392524435 0.03642107245616914 -0.01498834736878612 -0.004674094385255427 -0.01910817580922443 
-0.009336930431566196 -0.02118298721469342 -0.0003842307714898156 -0.02223390067844895 0.004084292238556513 
-0.028109564708819 0.02179971662954611 0.01828139861520877 0.02085630364830423 -0.02708103640790364 
0.03889184973646134 -0.01314644578261852 0.004671521469671789 -0.02470452407116051 0.00015177821007874 
-0.0005891786299907371 0.01028029861939441 -0.001169510781510509 -0.003352506097345747 0.03067038384006732 
-0.004092589923364951 -0.02011695583134173 0.01269863690003813 0.01653933348985132 -0.05736587434487034 
0.08246833030081133 -0.1281305749917122 -0.03665611366542627 -0.1126137044684379 -0.08693708492749984 
-0.07069430276547979 0.04030390732523583 -0.004150678278836526 0.04867820760369951 0.07843533105600295 
0.02240485298560836 0.01677463870757026 -0.0001581674196105906 -0.009091022375316005 0.02303725575819023 
-0.01810066715837505 -0.02594201131701095 0.006450090307490188 -0.01216168348180456 -0.02923926780904967 
-0.2087668215113651 0.07422531003429975 -0.04817029274666011 0.04379007237234284 0.007700475392705105 
0.01532065246114004 -0.01131017399259055 -0.03035597649092042 -0.02961198774652341 0.02542951826558321 
-0.3396515671341709 -0.01578910500612609 -0.2483973166515986 -0.1420287247874906 0.3430883917211999 
0.03932918225797605 -0.01702930823026863 0.008949789707038342 -0.03457757323964962 -0.004739252100452653 
-0.009809789138854474 0.04880810157968681 -0.01646307982615572 0.007414377341399242 0.08103295795759037 
-0.02307867389486017 0.01453229719465855 -0.00606275721124705 0.05968273747939885 -0.0488383368854608 
-0.02524185725693048 0.01274566436173869 -0.01352860630030346 -6.875727914173525e-05 0.09169572968097038 
0.01869973924426993 0.005930760144496088 0.01443553418014281 0.01167219434818948 -0.04338331879860565 
0.02137391554299206 -0.02249716109166572 0.01253534651346756 0.01567554771822151 -0.07000164270523407 
-0.01044061917811685 -0.01656278405954694 0.002325927885287685 0.04218948932347149 -0.1005956811835889 
0.002636941712210524 0.06495858842749418 -0.04423236206218233 0.006091083421775257 0.06565051532120658 
-0.02529994399188235 0.04676278205896158 0.006262141093955758 0.02267698895397018 0.04167401448272631 
-0.03496277830090624 0.006634351628147416 -0.02314124362321508 -0.03287924145794777 0.02209823875737021 
-0.01556618484302018 -0.05587810106663949 0.00524362476018593 -0.02038656014518692 0.02120217891920531 
-0.0166037347916615 -0.00480555901811707 -0.04197255259783426 -0.04256693413925794 -0.004499388639016305 
0.006210099857071954 -0.04692642414301323 0.05101193921911466 -0.01110599577859405 -0.1060732567385463 
-0.08398014961161279 0.101531334250505 -0.01601072128385279 0.08837593918530023 0.04854807270273006 
-0.02601979667401643 0.01567571753461841 0.02119852041128793 0.002135180591693818 -0.03367712247180799 
0.03900831289903752 -0.03447527746920642 -0.006298937474351883 -0.03932105977507646 -0.04846990591006606 
0.001043647167253496 -0.02220843546182567 0.003642657945978312 -0.0127870834287888 -0.02669447137926741 
0.01412297552388649 -0.007664480871135042 -0.002228364329823125 0.005104844704883921 0.003866101378424558 
0.02877550164391053 0.01030694780940285 -0.01333352788117291 -0.02740383338070911 -0.003593121545672491 
0.03133639635676885 -0.05811966645635392 -0.02512029928960519 -0.06532735299231691 -0.05404432320219189 
-0.02174748570133307 -0.03328655558843505 -0.04285707536466451 -0.04523114776357856 0.0390240324644888 
-0.04212962693843161 -0.00325855592634362 -0.003470729598664268 -3.926916923455398e-05 -0.008211597231412845 
0.02524491358015313 0.02954130867417337 -0.002046793093444666 0.001221284943670134 0.05754618543755464 
-0.06907061327083484 -0.06404400947749206 0.1121554839876623 -0.01997143563011138 -0.0320470733372248 
-0.01859263109578345 -0.005349433490067447 0.0007310382109810598 -0.01206938416851606 -0.03897847046934201 
-0.08906149202760744 0.01104852254073874 -0.04879196287042234 -0.02832587425110421 0.1507297806881047 
0.01230637174431865 -0.01683123601928396 -0.001062367271749831 -0.01564272874792623 -0.01719513868446486 
0.01756829242796953 -0.07939428296941634 0.03938008134491675 -0.03784944530960641 -0.1354519871106825 
-0.03055054275704082 0.01704198762304706 -0.02318896148871314 0.02819502910158201 0.07095090388749757 
0.1395620148567994 -0.06502025912201168 -0.03060042157864709 -0.09564622860828248 -0.03843666578539082 
-0.07004881816591713 0.01251946164720875 0.04115977063705706 0.03635509110419125 0.0401947246032611 
0.1150404693730061 -0.05638262585172572 -0.02124501906660335 -0.06768753907637588 -0.1257852427377032 
-0.001088301509302725 0.002853106988799653 0.009552677551523094 0.01177497232149072 -0.02796211818769868 
0.02860549834944354 -0.02549800315810241 -0.02566036105322909 -0.01297365947812353 0.007452706168994983 
0.0327151589203121 0.01252313772238632 -0.01887773334886192 0.007159865681678607 0.03192124370981913 
-0.01180351393491791 -0.00812272909463861 0.0333755289808922 0.01383251146673101 -0.026341910157901 
-0.03408959211852327 0.01274444333875296 0.01813617471573374 -0.001456293017076246 0.0351324417614693 
-0.06032999962384346 0.06590246632236484 -0.06484393368445643 0.07976412524070137 -0.02635862634588157 
0.001670142645801096 -0.004176868304976045 -0.001872729761972514 0.003794560091857259 -0.01655391144992722 
0.04294769103336513 -0.01307249171936888 -0.03527500372161047 -0.004944660049412301 0.01540156444180668 
0.007837418727088832 -0.007248744582330175 0.01810086696805311 0.005579220239424443 -0.0246912020756046 
-0.04451150747760849 -0.01504172325054077 -0.03011058525949309 -0.0379776997934031 0.06852116096568993 
-0.01565816431882844 0.006553597915866873 0.03264863249207779 0.02870420404303115 -0.008752228121531629 
-0.06083195927220017 -0.05680484696365069 0.03198633577285648 -0.0156563894704815 -0.09506461399598502 
-0.03439144418375534 -0.02137908084964385 -0.03321453466471303 -0.003610406094200511 -0.0515611048521783 
0.008752998683133374 -0.01287173883757238 -0.001090146752838838 -0.02335930231274118 -0.01717900435889553 
0.0005974211512445988 0.04587558134519879 0.06350730428973961 0.0565527064882664 -0.02565218161980089 
-0.1074601067726013 0.1295238185495469 -0.04318363179714661 0.08354879302988481 0.05881480375577959 
0.006427286887492898 0.03743703165348139 -0.03508505601397847 -0.04990913800967707 0.07893500768809747 
0.007552724294531073 0.003406347967113107 0.0005136533011862218 -0.006190014554885858 -0.01920612691044952 
-0.009944380582820258 -0.04196869417628984 -0.01928619585737354 -0.04558393014002692 0.004062637153665681 
0.05625020302373687 -0.02978822367318424 -0.007921492519564342 -0.0309215675111098 -0.01390701671540138 
0.03681329079026217 -0.01599924387394817 -0.02258365207648798 -0.03184568832272859 0.01550166935384325 
0.06215411025785649 -0.03495460668470236 -0.007473605462281941 -0.004724616470459732 -0.0317514813871057 
-0.0774194448468466 -0.002655581222278994 -0.03851973076528773 -0.02002442314577764 0.06876716263123085 
-0.05762675061992213 -0.02346291840241123 0.03311634270672616 0.03333321518380498 0.01104447348801651 
-0.03081465115201768 0.01491671082409965 0.02347617972681445 0.02201031931030661 -0.05461989275085318 
-0.03576991778992462 0.1044478455195372 0.0351670297094968 0.07136390764291919 0.03951460650486746 
-0.02970184149238109 -0.01313808662544217 0.03427203239173181 0.01816007463370399 -0.03281665310926386 
0.02896297116897967 -0.04147360082388137 0.03153559862256688 -0.04880779108995277 -0.07163189743910309 
-0.008939199842715607 0.03846363037982168 0.008117932022270777 0.04261443973781859 0.002777515477412895 
0.04465910316054535 -0.02429707443543946 0.007903565689564211 -0.01554976074514248 -0.05653212352406022 
-0.02768920611803817 0.008779880872196246 -0.006683269852163456 -0.002200049714449692 0.05428993228135318 
0.001280956981079439 0.02024482236059659 -0.006900030183462139 0.04127019914967149 0.01950893845976961 
0.06368619993798867 -0.0097437215556107 -0.01455970342747444 -0.01479865341338002 -0.01903338812323548 
-0.02663686085400051 -0.01036584859573808 0.02629058829146261 0.01133689803413046 -0.02966746249685471 
-0.003384094861172736 0.001022158673749256 0.02967473744773719 0.00285594963500232 -0.02083813061219391 
-0.003905470144855591 0.03441132067797038 -0.01668135203255892 0.003877159681795619 0.02032541347748399 
-0.04622296326358551 -0.04302848828304995 -0.000165184783785772 -0.01693571955233524 0.1145324604548749 
-0.02561567229396527 0.02964492993980632 -0.02304445348359564 -0.03550433848050903 0.09596975031777992 
0.03806485746649189 -0.06777815520387351 -0.02049930066421941 -0.04329225015244485 -0.02697706533222486 
-0.03619249117980037 0.02880491655837041 0.008286376674294188 0.03274883935626042 0.00889636828695314 
-0.09301199558302757 0.02859966373631167 -0.0414970222687364 0.01188423595525934 0.07910575101423166 
-0.02432139721790357 -0.007038265455596975 -0.004173662602962844 -0.0171449508577857 -0.01785767937932786 
-0.06853538716719518 0.01499348037686912 0.01872039725277957 0.02356110354669944 0.0005933972889986827 
0.03434267465781986 -0.02237470115202879 0.000815278845682927 -0.002947051253749618 -0.01246234195985338 
-0.06092343461112717 -0.06644398118205054 0.04542338348522912 0.01074370839564101 -0.1402975595383955 
-0.03521911579207603 -0.01465189842814189 0.0009371177973897427 -0.01811746441150021 0.02383102214428345 
-0.07394935460876716 0.001266958327029924 -0.007665547864603835 -0.01716849570673078 0.03850621914274831 
0.008799060816961883 0.008595072723914202 -0.003688004337475624 -0.001746376309881169 -0.03475101907456087 
0.09035493769421367 -0.09423854633940625 -0.0009545610625179419 -0.04465580573497855 -0.1616749551443731 
0.03838418941035385 -0.01252142442867057 0.01379375721712495 -0.009792827224835982 -0.0475780112161873 
-0.06871661553375769 0.02832771532305367 -0.05169357813923757 -0.007242158671686782 -0.04843577925838382 
-0.01431669992932695 0.01028813596753425 0.0288040335028489 0.02535481076079741 -0.02034406503268227 
0.02128580497306797 0.07629245969561367 0.02869600035879268 0.05766570836936503 0.07446127268434363 
0.04384083807117018 -0.03069970376150106 0.008136776015353826 0.001696661299560087 -0.1101749943146868 
-0.004603178363204118 -0.03699190454246161 0.00201525485784095 -0.01975597166043013 -0.03808753256848194 
0.003862788950131472 -0.03806720107788782 0.01836261444507484 -0.03727441611488326 -0.1139971374548966 
-0.1113048135233379 -0.02020811500533234 -0.0924921261505643 -0.06409607982625408 0.1585663709053381 
0.01375251322809906 -0.0004285247205748418 0.001894251670323964 0.000996775572169755 -0.0377119692814285 
-0.02278379799682302 -0.007613563698365421 0.002626514950986344 -0.02043108907066823 0.04962491144842571 
0.009574577280693348 0.05882090835416383 0.01624564222250044 0.02823444581680447 0.02438131380867013 
0.1232532975654942 -0.1108309914565786 -0.004847924239681579 -0.08370793423662823 -0.154114321626001 
-0.007603768610814477 -0.04923546663743461 -0.0005216479747250529 -0.02337637997425796 -0.04869880657622689 
-0.01554145339808847 0.0006276841517507254 0.01080086503129935 0.006911477584080885 -0.01546539015263089 
0.04544184441794844 -0.06263932647351665 -0.01198893955649059 -0.03013775655503018 -0.08206299736685804 
0.03451761607466865 0.01883360681593568 0.03276626590960655 0.01986501071890069 0.01127456056703265 
0.004546708503023869 0.004932740996454545 0.005191926604450368 0.01139420877712455 0.009593455974126343 
0.06057806106579172 -0.05257306527676511 0.01839396940297219 0.003769337917254498 -0.09566393979673099 
-0.003812143624793353 -0.001681521697507805 0.007285179836377772 -0.003611547558200984 -0.03241417959456133 
-0.09647278535619794 -0.0523090369423817 0.09177571538887327 0.1011694985241434 -0.1635698666934596 
0.07308855195923299 -0.03532226827759732 -0.02540138754939759 -0.03902176492040484 -0.01245973247239254 
0.01927385634077426 -0.01117359500277882 -0.03179579268047529 -0.04823624510499078 0.008006997220679822 
-0.001238976992511525 -0.007092866705063835 -0.05218104564365952 -0.03153750263977834 0.0464438875475349 
0.01989009871370897 -0.02017530296516724 0.00119546768412827 -0.02179158603788018 -0.02988023461532706 
-0.02418527105273415 -0.03378385272505604 0.001679225113703251 -0.01967868451983437 -0.0417070712452885 
-0.02280273740134281 -0.02954082570755908 0.01856625898322202 -0.003111812229062175 0.02981013911793251 
0.02040689977583911 0.01011638532524103 0.01119990060958831 0.0009151885749768543 0.01467364858898705 
0.0094514985919845 -0.04914789388759055 0.01835601117270926 -0.00567956080867251 -0.02582632377002457 
-0.002540682544561234 0.02514122077597596 0.003869989686618136 0.01145050491117745 0.01686752648994754 
-0.0309793094940588 0.00451393120765658 0.0110019045769402 0.01473111005489133 -0.003474243362177203 
0.0268162990136407 0.04882320015306973 0.051968606258853 0.04969087688689837 -0.03274612789281446 
0.006706179348752401 0.003737223702683908 0.01855896266027503 0.01579038474994965 0.01942662573994155 
-0.007375471966178592 0.01750978947321273 0.02074621929403275 0.05076498627231397 -0.04331457839235819 
-0.02869214966763198 -0.03659792704502569 0.006300803491394655 -0.007703654793501769 0.00584699294395708 
0.04293091865983915 0.05650201373227397 0.008769114471386629 0.04134729717011407 0.07145971395879737 
-0.039909963286893 0.01481457085425717 0.03609830524664482 0.003318093791372249 -0.02702351765533987 
-0.02449374269722381 -0.003667215888578721 -0.005564342699751232 0.002699373858042207 -0.00514226733419092 
-0.005500643195483083 0.05360382658470948 -0.02214200379978382 0.07099690877460053 -0.08129754859524545 
-0.0705875484372563 0.01987286626711023 -0.0002199649312184256 0.01165523972081387 0.05051592060922146 
-0.06016554580664571 0.01188301914828169 0.003387206932595896 0.0258509466671231 0.01601657985400501 
0.03528290416766036 -0.02709848974242195 0.006656753418475905 0.01282867759039156 0.016424395346983 
0.04473565933278742 -0.07825426745229594 -0.01746091286616895 -0.06364145296976313 -0.08001591800305448 
-0.01382330819254602 0.02571835983388874 -0.01875365291367169 0.001068829180811129 0.05178015490964095 
-0.1805685598337754 0.0243445818706698 -0.1114221636357441 0.03079485739040972 0.1310004721192426 
-0.004607942558052375 -0.0284510050333845 0.0007834636609889387 -0.0009965210995030672 -0.06751094717122857 
-0.06353863618165928 -0.02506779147493187 -0.009048562551316936 -0.01217657345767772 0.001461586857155423 
0.06838612693784843 -0.03643053268642459 -0.009166285958798304 -0.0415009934675603 -0.0359111878617656 
0.01900891353481683 -0.01956412904826033 -0.01197490400217479 -0.01343774160635141 -0.0181075656645058 
-0.05442432833324842 0.04560849792888588 0.007009751153622313 0.02909500083654163 0.07640993861653655 
-0.03032428777315166 0.05823754937855696 0.005738533332744139 0.03345210627634343 0.02107451302874175 
-0.01072853460307313 0.0101508868878744 -0.001046647867698512 0.01953408899916095 -0.008807581015875711 
-0.05545952228004573 0.0437048995546173 -0.02290836430242501 0.009932527216604861 0.02890209957732625 
0.07839908686420459 -0.08757407461868535 -0.01880978935622207 -0.07537046114572106 -0.1051327955777289 
0.01886861370495491 0.0310911778538848 0.01965739855744337 0.002864512989342262 0.04479479538630548 
0.02135055184383465 -0.01193771709216475 0.01625695864383354 -0.01366533661038346 -0.01566962173304278 
-0.03506442120040466 -0.004588539806915787 0.03582546676355557 0.01789944863418808 0.05167368841789802 
0.09345396963425873 -0.09256334246849608 -0.040283677236295 -0.08217746419804445 -0.04463549152068872 
-0.1223717304255779 0.03431859188105768 -0.109964963708174 -0.02467014121553003 0.1909628947728984 
-0.07841162819649018 0.007809782928123127 -0.03072941507183985 -0.03575118476082085 0.06688098446007751 
0.02069348858929443 -0.001977807299665239 0.003894906976521195 0.005550155263567835 -0.03261093931035534 
-0.09457945430462512 -0.1150912160297943 0.05567255423032438 -0.007607364579397349 -0.2163801892993763 
-0.03522722121953104 0.0008328438688661081 0.02384951860203718 0.008919340285344622 -0.02400488335548332 
-0.02544939344323423 -0.006919659577036928 0.01767445520803541 0.009435431775476981 -0.02888759717673002 
-0.06119418365397439 0.009797133528904312 0.02002297091641551 0.05354373151428079 -0.01485543529632074 
0.01029594361273408 -0.01823093921509573 -0.01194775772029831 -0.0211604888629218 -0.02340023166245205 
-0.006017529258249393 0.021013434652359 0.0108012980850271 -0.004164830460675204 0.02290486525997292 
0.01330466441974393 -0.02077982098063738 0.0153239394810169 -0.02272950490338921 -0.006948559413014291 
0.03069094763565111 0.004590778095881955 -0.01183567593888075 -0.01988782319284997 0.004678418042032515 
0.05676371854039338 -0.01007585873579332 -0.001140201905763332 -0.01926230483246084 0.05015268564960088 
0.002312030555002454 0.008576328463247527 0.02094412938731432 0.02384786023324701 -0.007804751704412154 
0.007025906904804369 -0.04008143069016235 -0.01497172384729332 -0.03160988816170775 0.02296100689439365 
-0.0126776671563677 -0.03041068148418028 -0.0052254067298666 -0.02430704847511827 0.0008031891785023843 
-0.005230448968679666 -0.007445205845280009 -0.000559541057349244 -0.001551493490977064 0.00609004627470849 
0.0213481733180867 0.01531223635441493 -0.003257232963587861 0.009217537921455389 -0.002183032813617756 
0.06082498884741742 -0.1127761215395873 0.009944026437014575 -0.08226760021938302 -0.1479535919416723 
-0.03330737281028013 -0.04240882153467369 0.01673452952755693 -0.005853289954090828 -0.08326069429228651 
0.005531836530210361 0.003070750734684912 0.02381672129794523 0.01149065932646962 -0.0239343496943017 
-0.09856994881962189 0.02128008136760207 -0.01885752908196492 0.06525524289284966 0.04994991154223112 
0.02342235014351347 -0.03118753642418468 -0.001357778870581209 -0.02952832502740471 -0.08814679767781054 
0.04109686216277646 0.0333695551940334 0.006424509610643695 -0.01398385266474437 -0.01252032990479789 
-0.007601251248935359 0.02055056174882135 -0.01914567073950123 -0.008866446802167255 0.03773395895376833 
-0.03701867268490162 -0.01296977157064032 0.04448340727364584 -0.006575647819687068 -0.02602251754049277 
0.00232088688982004 -0.0007822725447525354 0.001702545121883109 0.04382011599443034 -0.01816689150289092 
-0.009000082340473533 0.05190936989860163 0.02069105890287323 0.0656541067742942 0.04360991606735556 
-0.01432903661988954 0.05151437792754263 0.002401593536773191 0.05173276339870914 0.009411510328731141 
-0.04599775447499451 0.04698659549736939 0.0106548619585809 0.04352342805112702 0.02268055074575842 
0.0303210629717675 -0.05545412809004074 -0.05539394191910039 -0.05512356007362832 0.05552815187706467 
0.07685848283482175 -0.123934130755531 0.03658754382838283 -0.0482591345156253 -0.1665265263796596 
-0.04447926744289602 0.001869077585843745 0.01843155590649012 0.02387934375343881 -0.008294924751239345 
0.04142082042564457 -0.02364371120746716 -0.0135080077381877 -0.01219180510455514 -0.02122610957532197 
0.04387468936971949 -0.02128887381717172 0.01886699666070757 -0.0231896337142218 -0.03779199964705739 
-0.1778304846603438 0.06073377306022285 -0.1054799383407719 0.1467452453904006 -0.09256670165960382 
0.01106052501472652 -0.01433652422477755 0.00355985496656726 0.01339205000329789 0.001532180695646882 
0.04651277376242118 -0.0143626332125104 -0.0007507950035943745 -0.004087177865815931 -0.02246634990993349 
-0.027484508825059 0.01032086056732119 0.001315952369471451 0.02739237521514309 -0.01377967798630966 
-0.1569453096552033 0.1122003668592034 -0.03891203391592617 0.106854124063585 -0.02930195297935772 
-0.01972349287346019 -0.01570708587854357 0.01554516918706563 -0.004339072730695002 -0.07280057888103321 
-0.01146974350948814 0.05811992671175483 -0.0415660630724537 0.0005760419177599508 0.128243020723157 
-0.01588346373376126 0.005461579361037887 -0.001023286704464217 -0.01262762744861774 0.003755999398751198 
0.003100980134968408 0.006360197273148039 0.005451261214199192 0.01254699495180845 -0.005372434844011168 
0.002695308658907349 0.07293937434126661 -0.02585612051817797 0.03269552363223176 0.05890630959841637 
0.01286219173803309 -0.005427398482639232 0.019164619604805 0.009098713682324957 0.008158084930405695 
-0.05500789142501136 0.001526749039380874 0.02979035219679603 0.0216010714414646 -0.00974666058990533 
0.01845928677479805 -0.01357298083761759 0.04534915046138296 0.01618651263292493 -0.07664738028018307 
0.01867829128852768 -0.07517093695678914 0.01758664991416195 -0.01510529708443252 -0.1845353859991552 
0.03732623808606639 -0.05973931924268738 0.02955040603873161 -0.02684762402534783 -0.1040610004374943 
-0.02350433011106036 0.03707776438115486 -0.02179017202311339 0.01242936098400433 0.07473660673175937 
0.02353722733669073 0.02957239287657367 -0.03739124484481978 -0.04071147271268009 0.07216842138033092 
0.03403632624766706 -0.08289955064273327 0.007241045291853952 -0.03960812537463147 -0.1003263103899864 
-0.007213964190605685 0.004622279185343006 0.002649764615229818 0.003548714519874925 -0.05247734244798592 
-0.0578950136775966 0.03924595271928984 0.007650817381529412 0.004983277979454866 0.02185723023938916 
-0.02306953378515406 0.04164814828305872 0.01650363160685193 0.0281832691537556 0.0309739936618567 
0.04283178543451011 0.005992227207435133 -0.01494838036133888 0.005929579116132311 0.02260558641373321 
-0.01463664175712542 0.002874257847388353 0.01961002098784298 0.06229101541547511 0.004909788397598858 
0.02503312130953954 -0.003421013534374124 -0.02348085446815942 -0.02952633549578506 0.03985101343883569 
-0.020394444479354 -0.08507576343231844 -0.01480125872593505 -0.03805952675265916 0.0198310756275814 
0.08267972461129874 -0.06699584942392493 0.007804197048119688 -0.02426985245798344 -0.1027297327730901 
-0.01577139983391509 0.03522433499351819 -0.01049419631317525 0.0236387453370468 0.0222870562821075 
-0.05323604141913916 -0.0008830328030404976 0.02172328243660038 0.01253906709800213 -0.03920447165659476 
-0.02595755666023925 0.09606698848613469 -0.01123999705575633 0.04396208586432747 0.1675990742848684 
